tree
version=v2
num_class=1
num_tree_per_iteration=1
label_index=0
max_feature_idx=491
objective=binary sigmoid:1
feature_names=AMT_ANNUITY AMT_CREDIT AMT_GOODS_PRICE AMT_INCOME_TOTAL AMT_REQ_CREDIT_BUREAU_DAY AMT_REQ_CREDIT_BUREAU_HOUR AMT_REQ_CREDIT_BUREAU_MON AMT_REQ_CREDIT_BUREAU_QRT AMT_REQ_CREDIT_BUREAU_WEEK AMT_REQ_CREDIT_BUREAU_YEAR APARTMENTS_AVG APARTMENTS_MEDI APARTMENTS_MODE BASEMENTAREA_AVG BASEMENTAREA_MEDI BASEMENTAREA_MODE CNT_CHILDREN CNT_FAM_MEMBERS CODE_GENDER COMMONAREA_AVG COMMONAREA_MEDI COMMONAREA_MODE DAYS_BIRTH DAYS_EMPLOYED DAYS_ID_PUBLISH DAYS_LAST_PHONE_CHANGE DAYS_REGISTRATION DEF_30_CNT_SOCIAL_CIRCLE DEF_60_CNT_SOCIAL_CIRCLE ELEVATORS_AVG ELEVATORS_MEDI ELEVATORS_MODE EMERGENCYSTATE_MODE ENTRANCES_AVG ENTRANCES_MEDI ENTRANCES_MODE EXT_SOURCE_1 EXT_SOURCE_2 EXT_SOURCE_3 FLAG_CONT_MOBILE FLAG_DOCUMENT_10 FLAG_DOCUMENT_11 FLAG_DOCUMENT_12 FLAG_DOCUMENT_13 FLAG_DOCUMENT_14 FLAG_DOCUMENT_15 FLAG_DOCUMENT_16 FLAG_DOCUMENT_17 FLAG_DOCUMENT_18 FLAG_DOCUMENT_19 FLAG_DOCUMENT_2 FLAG_DOCUMENT_20 FLAG_DOCUMENT_21 FLAG_DOCUMENT_3 FLAG_DOCUMENT_4 FLAG_DOCUMENT_5 FLAG_DOCUMENT_6 FLAG_DOCUMENT_7 FLAG_DOCUMENT_8 FLAG_DOCUMENT_9 FLAG_EMAIL FLAG_EMP_PHONE FLAG_MOBIL FLAG_OWN_CAR FLAG_OWN_REALTY FLAG_PHONE FLAG_WORK_PHONE FLOORSMAX_AVG FLOORSMAX_MEDI FLOORSMAX_MODE FLOORSMIN_AVG FLOORSMIN_MEDI FLOORSMIN_MODE FONDKAPREMONT_MODE HOUR_APPR_PROCESS_START HOUSETYPE_MODE LANDAREA_AVG LANDAREA_MEDI LANDAREA_MODE LIVE_CITY_NOT_WORK_CITY LIVE_REGION_NOT_WORK_REGION LIVINGAPARTMENTS_AVG LIVINGAPARTMENTS_MEDI LIVINGAPARTMENTS_MODE LIVINGAREA_AVG LIVINGAREA_MEDI LIVINGAREA_MODE NAME_CONTRACT_TYPE NAME_EDUCATION_TYPE NAME_FAMILY_STATUS NAME_HOUSING_TYPE NAME_INCOME_TYPE NAME_TYPE_SUITE NONLIVINGAPARTMENTS_AVG NONLIVINGAPARTMENTS_MEDI NONLIVINGAPARTMENTS_MODE NONLIVINGAREA_AVG NONLIVINGAREA_MEDI NONLIVINGAREA_MODE OBS_30_CNT_SOCIAL_CIRCLE OBS_60_CNT_SOCIAL_CIRCLE OCCUPATION_TYPE ORGANIZATION_TYPE OWN_CAR_AGE REGION_POPULATION_RELATIVE REGION_RATING_CLIENT REGION_RATING_CLIENT_W_CITY REG_CITY_NOT_LIVE_CITY REG_CITY_NOT_WORK_CITY REG_REGION_NOT_LIVE_REGION REG_REGION_NOT_WORK_REGION TOTALAREA_MODE WALLSMATERIAL_MODE WEEKDAY_APPR_PROCESS_START YEARS_BEGINEXPLUATATION_AVG YEARS_BEGINEXPLUATATION_MEDI YEARS_BEGINEXPLUATATION_MODE YEARS_BUILD_AVG YEARS_BUILD_MEDI YEARS_BUILD_MODE LOAN_INCOME_RATIO ANNUITY_INCOME_RATIO ANNUITY_LENGTH WORKING_LIFE_RATIO INCOME_PER_FAM CHILDREN_RATIO PREV_AMT_ANNUITY_sum PREV_AMT_ANNUITY_mean PREV_AMT_ANNUITY_max PREV_AMT_ANNUITY_min PREV_AMT_APPLICATION_sum PREV_AMT_APPLICATION_mean PREV_AMT_APPLICATION_max PREV_AMT_APPLICATION_min PREV_AMT_CREDIT_sum PREV_AMT_CREDIT_mean PREV_AMT_CREDIT_max PREV_AMT_CREDIT_min PREV_AMT_DOWN_PAYMENT_sum PREV_AMT_DOWN_PAYMENT_mean PREV_AMT_DOWN_PAYMENT_max PREV_AMT_DOWN_PAYMENT_min PREV_AMT_GOODS_PRICE_sum PREV_AMT_GOODS_PRICE_mean PREV_AMT_GOODS_PRICE_max PREV_AMT_GOODS_PRICE_min PREV_RATE_DOWN_PAYMENT_sum PREV_RATE_DOWN_PAYMENT_mean PREV_RATE_DOWN_PAYMENT_max PREV_RATE_DOWN_PAYMENT_min PREV_RATE_INTEREST_PRIMARY_sum PREV_RATE_INTEREST_PRIMARY_mean PREV_RATE_INTEREST_PRIMARY_max PREV_RATE_INTEREST_PRIMARY_min PREV_RATE_INTEREST_PRIVILEGED_sum PREV_RATE_INTEREST_PRIVILEGED_mean PREV_RATE_INTEREST_PRIVILEGED_max PREV_RATE_INTEREST_PRIVILEGED_min PREV_SELLERPLACE_AREA_sum PREV_SELLERPLACE_AREA_mean PREV_SELLERPLACE_AREA_max PREV_SELLERPLACE_AREA_min PREV_CNT_PAYMENT_sum PREV_CNT_PAYMENT_mean PREV_CNT_PAYMENT_max PREV_CNT_PAYMENT_min PREV_DAYS_FIRST_DRAWING_sum PREV_DAYS_FIRST_DRAWING_mean PREV_DAYS_FIRST_DRAWING_max PREV_DAYS_FIRST_DRAWING_min PREV_DAYS_FIRST_DUE_sum PREV_DAYS_FIRST_DUE_mean PREV_DAYS_FIRST_DUE_max PREV_DAYS_FIRST_DUE_min PREV_DAYS_LAST_DUE_1ST_VERSION_sum PREV_DAYS_LAST_DUE_1ST_VERSION_mean PREV_DAYS_LAST_DUE_1ST_VERSION_max PREV_DAYS_LAST_DUE_1ST_VERSION_min PREV_DAYS_LAST_DUE_sum PREV_DAYS_LAST_DUE_mean PREV_DAYS_LAST_DUE_max PREV_DAYS_LAST_DUE_min PREV_DAYS_TERMINATION_sum PREV_DAYS_TERMINATION_mean PREV_DAYS_TERMINATION_max PREV_DAYS_TERMINATION_min PREV_NFLAG_INSURED_ON_APPROVAL_sum PREV_NFLAG_INSURED_ON_APPROVAL_mean PREV_NFLAG_INSURED_ON_APPROVAL_max PREV_NFLAG_INSURED_ON_APPROVAL_min PREV_SK_ID_CURR_count PREV_NAME_CONTRACT_TYPE PREV_WEEKDAY_APPR_PROCESS_START PREV_FLAG_LAST_APPL_PER_CONTRACT PREV_NAME_CASH_LOAN_PURPOSE PREV_NAME_CONTRACT_STATUS PREV_NAME_PAYMENT_TYPE PREV_CODE_REJECT_REASON PREV_NAME_TYPE_SUITE PREV_NAME_CLIENT_TYPE PREV_NAME_GOODS_CATEGORY PREV_NAME_PORTFOLIO PREV_NAME_PRODUCT_TYPE PREV_CHANNEL_TYPE PREV_NAME_SELLER_INDUSTRY PREV_NAME_YIELD_GROUP PREV_PRODUCT_COMBINATION PREV_HOUR_APPR_PROCESS_START PREV_DAYS_DECISION PREV_NFLAG_LAST_APPL_IN_DAY SK_ID_PREV NAME_CONTRACT_TYPE_PRVLAST AMT_ANNUITY_PRVLAST AMT_APPLICATION AMT_CREDIT_PRVLAST AMT_DOWN_PAYMENT AMT_GOODS_PRICE_PRVLAST WEEKDAY_APPR_PROCESS_START_PRVLAST HOUR_APPR_PROCESS_START_PRVLAST FLAG_LAST_APPL_PER_CONTRACT NFLAG_LAST_APPL_IN_DAY RATE_DOWN_PAYMENT RATE_INTEREST_PRIMARY RATE_INTEREST_PRIVILEGED NAME_CASH_LOAN_PURPOSE NAME_CONTRACT_STATUS DAYS_DECISION NAME_PAYMENT_TYPE CODE_REJECT_REASON NAME_TYPE_SUITE_PRVLAST NAME_CLIENT_TYPE NAME_GOODS_CATEGORY NAME_PORTFOLIO NAME_PRODUCT_TYPE CHANNEL_TYPE SELLERPLACE_AREA NAME_SELLER_INDUSTRY CNT_PAYMENT NAME_YIELD_GROUP PRODUCT_COMBINATION DAYS_FIRST_DRAWING DAYS_FIRST_DUE DAYS_LAST_DUE_1ST_VERSION DAYS_LAST_DUE DAYS_TERMINATION NFLAG_INSURED_ON_APPROVAL CC_AMT_BALANCE_sum CC_AMT_BALANCE_mean CC_AMT_BALANCE_max CC_AMT_BALANCE_min CC_AMT_CREDIT_LIMIT_ACTUAL_sum CC_AMT_CREDIT_LIMIT_ACTUAL_mean CC_AMT_CREDIT_LIMIT_ACTUAL_max CC_AMT_CREDIT_LIMIT_ACTUAL_min CC_AMT_DRAWINGS_ATM_CURRENT_sum CC_AMT_DRAWINGS_ATM_CURRENT_mean CC_AMT_DRAWINGS_ATM_CURRENT_max CC_AMT_DRAWINGS_ATM_CURRENT_min CC_AMT_DRAWINGS_CURRENT_sum CC_AMT_DRAWINGS_CURRENT_mean CC_AMT_DRAWINGS_CURRENT_max CC_AMT_DRAWINGS_CURRENT_min CC_AMT_DRAWINGS_OTHER_CURRENT_sum CC_AMT_DRAWINGS_OTHER_CURRENT_mean CC_AMT_DRAWINGS_OTHER_CURRENT_max CC_AMT_DRAWINGS_OTHER_CURRENT_min CC_AMT_DRAWINGS_POS_CURRENT_sum CC_AMT_DRAWINGS_POS_CURRENT_mean CC_AMT_DRAWINGS_POS_CURRENT_max CC_AMT_DRAWINGS_POS_CURRENT_min CC_AMT_INST_MIN_REGULARITY_sum CC_AMT_INST_MIN_REGULARITY_mean CC_AMT_INST_MIN_REGULARITY_max CC_AMT_INST_MIN_REGULARITY_min CC_AMT_PAYMENT_CURRENT_sum CC_AMT_PAYMENT_CURRENT_mean CC_AMT_PAYMENT_CURRENT_max CC_AMT_PAYMENT_CURRENT_min CC_AMT_PAYMENT_TOTAL_CURRENT_sum CC_AMT_PAYMENT_TOTAL_CURRENT_mean CC_AMT_PAYMENT_TOTAL_CURRENT_max CC_AMT_PAYMENT_TOTAL_CURRENT_min CC_AMT_RECEIVABLE_PRINCIPAL_sum CC_AMT_RECEIVABLE_PRINCIPAL_mean CC_AMT_RECEIVABLE_PRINCIPAL_max CC_AMT_RECEIVABLE_PRINCIPAL_min CC_AMT_RECIVABLE_sum CC_AMT_RECIVABLE_mean CC_AMT_RECIVABLE_max CC_AMT_RECIVABLE_min CC_AMT_TOTAL_RECEIVABLE_sum CC_AMT_TOTAL_RECEIVABLE_mean CC_AMT_TOTAL_RECEIVABLE_max CC_AMT_TOTAL_RECEIVABLE_min CC_CNT_DRAWINGS_ATM_CURRENT_sum CC_CNT_DRAWINGS_ATM_CURRENT_mean CC_CNT_DRAWINGS_ATM_CURRENT_max CC_CNT_DRAWINGS_ATM_CURRENT_min CC_CNT_DRAWINGS_CURRENT_sum CC_CNT_DRAWINGS_CURRENT_mean CC_CNT_DRAWINGS_CURRENT_max CC_CNT_DRAWINGS_CURRENT_min CC_CNT_DRAWINGS_OTHER_CURRENT_sum CC_CNT_DRAWINGS_OTHER_CURRENT_mean CC_CNT_DRAWINGS_OTHER_CURRENT_max CC_CNT_DRAWINGS_OTHER_CURRENT_min CC_CNT_DRAWINGS_POS_CURRENT_sum CC_CNT_DRAWINGS_POS_CURRENT_mean CC_CNT_DRAWINGS_POS_CURRENT_max CC_CNT_DRAWINGS_POS_CURRENT_min CC_CNT_INSTALMENT_MATURE_CUM_sum CC_CNT_INSTALMENT_MATURE_CUM_mean CC_CNT_INSTALMENT_MATURE_CUM_max CC_CNT_INSTALMENT_MATURE_CUM_min CC_SK_DPD_sum CC_SK_DPD_mean CC_SK_DPD_max CC_SK_DPD_min CC_SK_DPD_DEF_sum CC_SK_DPD_DEF_mean CC_SK_DPD_DEF_max CC_SK_DPD_DEF_min CC_SK_ID_CURR_count CC_NAME_CONTRACT_STATUS CC_MONTHS_BALANCE SK_ID_PREV_CCLAST MONTHS_BALANCE AMT_BALANCE AMT_CREDIT_LIMIT_ACTUAL AMT_DRAWINGS_ATM_CURRENT AMT_DRAWINGS_CURRENT AMT_DRAWINGS_OTHER_CURRENT AMT_DRAWINGS_POS_CURRENT AMT_INST_MIN_REGULARITY AMT_PAYMENT_CURRENT AMT_PAYMENT_TOTAL_CURRENT AMT_RECEIVABLE_PRINCIPAL AMT_RECIVABLE AMT_TOTAL_RECEIVABLE CNT_DRAWINGS_ATM_CURRENT CNT_DRAWINGS_CURRENT CNT_DRAWINGS_OTHER_CURRENT CNT_DRAWINGS_POS_CURRENT CNT_INSTALMENT_MATURE_CUM NAME_CONTRACT_STATUS_CCLAST SK_DPD SK_DPD_DEF Buro_CREDIT_DAY_OVERDUE_sum Buro_CREDIT_DAY_OVERDUE_mean Buro_CREDIT_DAY_OVERDUE_max Buro_CREDIT_DAY_OVERDUE_min Buro_DAYS_CREDIT_ENDDATE_sum Buro_DAYS_CREDIT_ENDDATE_mean Buro_DAYS_CREDIT_ENDDATE_max Buro_DAYS_CREDIT_ENDDATE_min Buro_DAYS_ENDDATE_FACT_sum Buro_DAYS_ENDDATE_FACT_mean Buro_DAYS_ENDDATE_FACT_max Buro_DAYS_ENDDATE_FACT_min Buro_AMT_CREDIT_MAX_OVERDUE_sum Buro_AMT_CREDIT_MAX_OVERDUE_mean Buro_AMT_CREDIT_MAX_OVERDUE_max Buro_AMT_CREDIT_MAX_OVERDUE_min Buro_CNT_CREDIT_PROLONG_sum Buro_CNT_CREDIT_PROLONG_mean Buro_CNT_CREDIT_PROLONG_max Buro_CNT_CREDIT_PROLONG_min Buro_AMT_CREDIT_SUM_sum Buro_AMT_CREDIT_SUM_mean Buro_AMT_CREDIT_SUM_max Buro_AMT_CREDIT_SUM_min Buro_AMT_CREDIT_SUM_DEBT_sum Buro_AMT_CREDIT_SUM_DEBT_mean Buro_AMT_CREDIT_SUM_DEBT_max Buro_AMT_CREDIT_SUM_DEBT_min Buro_AMT_CREDIT_SUM_LIMIT_sum Buro_AMT_CREDIT_SUM_LIMIT_mean Buro_AMT_CREDIT_SUM_LIMIT_max Buro_AMT_CREDIT_SUM_LIMIT_min Buro_AMT_CREDIT_SUM_OVERDUE_sum Buro_AMT_CREDIT_SUM_OVERDUE_mean Buro_AMT_CREDIT_SUM_OVERDUE_max Buro_AMT_CREDIT_SUM_OVERDUE_min Buro_DAYS_CREDIT_UPDATE_sum Buro_DAYS_CREDIT_UPDATE_mean Buro_DAYS_CREDIT_UPDATE_max Buro_DAYS_CREDIT_UPDATE_min Buro_AMT_ANNUITY_sum Buro_AMT_ANNUITY_mean Buro_AMT_ANNUITY_max Buro_AMT_ANNUITY_min Buro_SK_ID_CURR_count BURO_ACT_AMT_CREDIT_SUM_sum BURO_ACT_AMT_CREDIT_SUM_count BURO_ACT_AMT_CREDIT_SUM_DEBT_sum BURO_ACT_AMT_CREDIT_SUM_LIMIT_sum Buro_CREDIT_CURRENCY Buro_CREDIT_TYPE SK_ID_BUREAU CREDIT_ACTIVE CREDIT_CURRENCY DAYS_CREDIT CREDIT_DAY_OVERDUE DAYS_CREDIT_ENDDATE DAYS_ENDDATE_FACT AMT_CREDIT_MAX_OVERDUE CNT_CREDIT_PROLONG AMT_CREDIT_SUM AMT_CREDIT_SUM_DEBT AMT_CREDIT_SUM_LIMIT AMT_CREDIT_SUM_OVERDUE CREDIT_TYPE DAYS_CREDIT_UPDATE AMT_ANNUITY_BuroLAST STATUS_max_sum STATUS_max_mean STATUS_max_max STATUS_max_min STATUS_mean_sum STATUS_mean_mean STATUS_mean_max STATUS_mean_min STATUS_min_sum STATUS_min_mean STATUS_min_max STATUS_min_min STATUS_sum_sum STATUS_sum_mean STATUS_sum_max STATUS_sum_min MONTHS_BALANCE_count_sum MONTHS_BALANCE_count_mean MONTHS_BALANCE_count_max MONTHS_BALANCE_count_min STATUS_max STATUS_mean STATUS_min STATUS_sum MONTHS_BALANCE_count MONTHS_BALANCE_BuroBalLAST STATUS PosCash_SK_DPD_sum PosCash_SK_DPD_mean PosCash_SK_DPD_max PosCash_SK_DPD_min PosCash_SK_DPD_DEF_sum PosCash_SK_DPD_DEF_mean PosCash_SK_DPD_DEF_max PosCash_SK_DPD_DEF_min PosCash_CNT_INSTALMENT_sum PosCash_CNT_INSTALMENT_mean PosCash_CNT_INSTALMENT_max PosCash_CNT_INSTALMENT_min PosCash_CNT_INSTALMENT_FUTURE_sum PosCash_CNT_INSTALMENT_FUTURE_mean PosCash_CNT_INSTALMENT_FUTURE_max PosCash_CNT_INSTALMENT_FUTURE_min PosCash_SK_ID_CURR_count PosCash_NAME_CONTRACT_STATUS_modeValue SK_ID_PREV_PosCashLast MONTHS_BALANCE_PosCashLast CNT_INSTALMENT CNT_INSTALMENT_FUTURE NAME_CONTRACT_STATUS_PosCashLast SK_DPD_PosCashLast SK_DPD_DEF_PosCashLast DaysDelayOnPayment_sum DaysDelayOnPayment_mean DaysDelayOnPayment_max DaysDelayOnPayment_min MissingOnPayment_sum MissingOnPayment_mean MissingOnPayment_max MissingOnPayment_min DAYS_INSTALMENT_sum DAYS_INSTALMENT_mean DAYS_INSTALMENT_max DAYS_INSTALMENT_min DAYS_ENTRY_PAYMENT_sum DAYS_ENTRY_PAYMENT_mean DAYS_ENTRY_PAYMENT_max DAYS_ENTRY_PAYMENT_min AMT_INSTALMENT_sum AMT_INSTALMENT_mean AMT_INSTALMENT_max AMT_INSTALMENT_min AMT_PAYMENT_sum AMT_PAYMENT_mean AMT_PAYMENT_max AMT_PAYMENT_min SK_ID_CURR_count NUM_INSTALMENT_VERSION_modeValue
feature_infos=[1615.5:225000] [45000:4050000] [40500:4050000] [25650:117000000] [0:9] [0:4] [0:27] [0:19] [0:8] [0:25] [0:1] [0:1] [0:1] [0:1] [0:1] [0:1] [0:19] [1:20] [0:2] [0:1] [0:1] [0:1] [-25201:-7489] [-17583:365243] [-7197:0] [-4292:0] [-23416:0] [0:34] [0:24] [0:1] [0:1] [0:1] [-1:1] [0:1] [0:1] [0:1] [0.01469148240341735:0.9516239622079844] [8.1736165188843972e-08:0.85499966640470115] [0.00052726523870988168:0.89397607460428663] [0:1] none [0:1] none [0:1] [0:1] [0:1] [0:1] [0:1] [0:1] [0:1] none [0:1] [0:1] [0:1] none [0:1] [0:1] [0:1] [0:1] [0:1] [0:1] [0:1] none [0:1] [0:1] [0:1] [0:1] [0:1] [0:1] [0:1] [0:1] [0:1] [0:1] [-1:3] [0:23] [-1:2] [0:1] [0:1] [0:1] [0:1] [0:1] [0:1] [0:1] [0:1] [0:1] [0:1] [0:1] [0:1] [0:4] [0:5] [0:5] [0:7] [-1:6] [0:1] [0:1] [0:1] [0:1] [0:1] [0:1] [0:348] [0:344] [-1:17] [0:57] [0:91] [0.00029:0.072508000000000003] [1:3] [1:3] [0:1] [0:1] [0:1] [0:1] [0:1] [-1:6] [0:6] [0:1] [0:1] [0:1] [0:1] [0:1] [0:1] [0.004807615384615385:49.227200000000003] [0.00022388461538461538:1.5706] [8.0366744975202291:45.298281092012132] [-47.489663242751277:0.72280860888925536] [3375:39000000] [0:0.94999999999999996] [0:1471690.3950000003] [0:290358] [0:418058.14500000002] [0:290358] [0:36791914.5] [0:4050000] [0:5850000] [0:4050000] [0:41461128] [0:4050000] [0:4509688.5] [0:4050000] [-0.45000000000000001:4037849.5950000002] [-0.22500000000000001:2025000] [0:3060045] [-0.45000000000000001:2025000] [0:36791914.5] [0:4050000] [0:5850000] [0:4050000] [-1.4978763414307847e-05:4.4763511363600426] [-7.4893817071539233e-06:0.98973987757093118] [0:1] [-1.4978763414307847e-05:0.98973987757093118] [0:1] [0.059121047262835777:1] [0.059121047262835777:1] [0.059121047262835777:1] [0:2.60200845665962] [0.37315010570824519:0.86733615221987315] [0.37315010570824519:0.86733615221987315] [0.37315010570824519:0.86733615221987315] [-39:4002296] [-1:4000000] [-1:4000000] [-1:4000000] [0:1680] [0:72] [0:84] [0:72] [-3306:8400589] [-2919:365243] [-2919:365243] [-2921:365243] [-31687:1459730] [-2890:365243] [-2890:365243] [-2892:365243] [-23644:1461470] [-2794:365243] [-2794:365243] [-2801:365243] [-26229:1825476] [-2858:365243] [-2858:365243] [-2889:365243] [-27477:1825617] [-2852:365243] [-2852:365243] [-2870:365243] [0:23] [0:1] [0:1] [0:1] [1:73] [0:3] [0:6] [0:1] [0:24] [0:3] [0:3] [0:8] [-1:6] [0:3] [0:25] [0:4] [0:2] [0:7] [0:10] [0:4] [-1:16] [0:23] [-2922:-2] [0:1] [1000026:2845362] [0:3] [0:290358] [0:4050000] [0:4085550] [-0.45000000000000001:2475000] [0:4050000] [0:6] [0:23] [0:1] [0:1] [-1.4978763414307847e-05:0.90776487525810279] [0.059121047262835777:1] [0.37315010570824519:0.86733615221987315] [0:24] [0:3] [-2922:-1] [0:3] [0:8] [-1:6] [0:3] [0:25] [0:4] [0:2] [0:7] [-1:4000000] [0:10] [0:72] [0:4] [-1:16] [-2919:365243] [-2890:365243] [-2794:365243] [-2858:365243] [-2775:365243] [0:1] [-57266.639999999999:29492116.245000001] [-1331.7823255813953:908610.06000000006] [0:1329264.6299999999] [-420250.185:855565.875] [0:32850000] [0:1350000] [0:1350000] [0:1350000] [0:8300250] [0:675000] [0:2115000] [-6827.3100000000004:675000] [0:18469299.195] [0:1125000] [0:2115000] [-519.57000000000005:1125000] [0:3192750] [0:187808.82352941175] [0:1529847] [0:112500] [0:18372909.195] [0:918645.45975000004] [0:2060030.1599999999] [0:584523] [0:2025557.325] [0:42161.864400000013] [0:202882.005] [0:32228.91] [0:19347594.795000009] [0:1125000] [0:4289207.4450000003] [0:1125000] [0:19210117.364999998] [0:1125000] [0:4278315.6900000004] [0:1125000] [-57266.639999999999:28641132.495000001] [-1331.7823255813953:874590.81999999983] [0:1329264.6299999999] [-423305.82000000001:854043.07499999995] [-172641.23999999999:29471430.285] [-1836.6089361702127:902288.22499999998] [0:1329264.6299999999] [-420250.185:855565.875] [-172641.23999999999:29471430.285] [-1836.6089361702127:902288.22499999998] [0:1329264.6299999999] [-420250.185:855565.875] [0:390] [0:35] [0:43] [0:35] [0:1457] [0:118.25] [0:162] [0:78] [0:38] [0:2] [0:12] [0:2] [0:1457] [0:118.25] [0:162] [0:78] [0:8124] [0:73.0625] [0:120] [0:27] [0:127548] [0:1342.2631578947369] [0:2770] [0:0] [0:99302] [0:961.25581395348831] [0:2435] [0:0] [1:192] [0:3] [-96:-1] [1000018:2843493] [-5:-1] [0:1210510.7549999999] [0:1350000] [0:891000] [0:2060030.1599999999] [0:300600] [0:2060030.1599999999] [0:59463.269999999997] [0:1804500] [0:1804500] [0:1185785.6850000001] [0:1210510.7549999999] [0:1210510.7549999999] [0:35] [0:135] [0:4] [0:135] [0:120] [0:3] [0:2742] [0:2406] [0:5250] [0:2776] [0:2776] [0:2776] [-121193:214193] [-41875:31198] [-41875:31199] [-42056:31198] [-61740:0] [-8376.5:-1] [-2887:0] [-42023:-1] [0:94812246] [0:47406123] [0:94812246] [0:16950010.5] [0:9] [0:6] [0:9] [0:6] [0:270204166.08000004] [0:54040833.216000013] [0:135000000] [0:43650000] [-6981558.2100000009:74487294] [-1037487.045:43650000] [-25959.645:62218953] [-4705600.3200000003:43650000] [-579854.11499999999:8129328.2100000009] [-82836.302142857137:4500000] [-1747.0350000000001:4705600.3200000003] [-586406.11499999999:4500000] [0:3756681] [0:1617403.5] [0:3756681] [0:1617403.5] [-88160:14] [-20939:14] [-2866:372] [-41947:14] [0:57708748.619999997] [0:27282428.752500001] [0:57476227.5] [0:24016036.5] [1:116] [0:270104026.5] [1:32] [-6978830.4900000012:74487294] [-579854.11499999999:8126600.4900000012] [0:3] [0:11] [5000004:6843457] [0:3] [0:3] [-2922:-1] [0:2776] [-42041:31198] [-42023:0] [0:94812246] [0:8] [0:62203050] [-475266.375:62218953] [-68346.809999999998:4500000] [0:3681063] [0:14] [-2887:14] [0:24016036.5] [0:65] [0:5] [0:5] [0:5] [0:35.566666666666656] [0:5] [0:5] [0:5] [0:35] [0:5] [0:5] [0:5] [0:1746] [0:435] [0:435] [0:435] [0:2657] [1:97] [1:97] [1:97] [0:5] [0:5] [0:5] [0:435] [1:97] [-93:0] [0:5] [0:248740] [0:2429.6700000000001] [0:4050] [0:882] [0:184970] [0:1671.3980582524273] [0:3373] [0:176] [0:7812] [1:72] [1:84] [1:72] [0:5539] [0:60] [0:84] [0:60] [1:245] [0:8] [1000001:2843492] [-96:-1] [1:84] [0:80] [0:8] [0:4050] [0:3238] [-10529:82905] [-295:1884.2045454545453] [-156:2884] [-3189:150] [-4417384.2300000004:2618669.7450000001] [-337496.80499999999:146145.89999999999] [-7319.0699999999997:2424726.4050000003] [-2630908.9350000001:99838.529999999999] [-598943:-3] [-2922:-3] [-2922:-1] [-2922:-3] [-602499:279] [-3071:93] [-3071:148] [-4921:63] [0:23274726.930000011] [0:1297518.8400000001] [0:3771487.8450000002] [0:1297518.8400000001] [0:25537053.780000005] [0:1297518.8400000001] [0:3771487.8450000002] [0:1297518.8400000001] [1:372] [0:39]
tree_sizes=744 758 754 763 762 763 760 763 762 766 769 758 775 766 767 758 772 767 758 776 765 761 766 774 763 773 772 772 768 767 764 760 775 761 757 768 767 769 780 760 765 770 772 769 754 762 765 764 761 762 768 771 765 770 771 766 771 774 767 758 781 760 772 762 767 763 766 764 768 775 767 765 764 758 772 749 777 778 771 764 764 776 761 762 773 770 763 767 769 761 767 751 765 771 745 764 753 765 686 772 736 761 770 770 763 685 756 771 761 769 769 780 768 778 766 745 773 773 772 776 753 758 754 756 764 753 767 772 774 749 758 738 777 766 774 761 766 774 771 770 760 772 775 773 762 773 768 773 758 772 678 748 774 764 689 757 764 773 746 767 763 767 767 774 780 749 681 776 767 775 757 774 761 762 756 669 772 768 755 757 738 775 778 774 767 768 776 753 774 780 771 768 778 769 779 771 769 760 684 741 772 688 771 769 759 768 764 750 759 775 766 767 769 779 681 751 765 776 765 757 757 682 763 775 773 767 776 767 772 778 760 693 764 765 725 772 759 758 746 775 687 767 759 775 772 737 770 769 757 763 772 574 743 526 783 776 763 774 730 766 778 768 766 776 768 752 751 534 739 772 780 742 755 767 778 771 770 686 676 761 774 763 674 760 658 780 776 765 765 757 772 764 768 754 724 768 762 747 778 765 765 779 764 766 772 779 677 754 770 764 774 523 773 756 677 761 689 601 758 773 753 734 767 778 685 768 672 778 764 759 583 773 685 746 756 775 785 775 771 775 756 740 762 746 777 773 754 736 774 736 770 763 770 762 766 767 755 778 728 689 775 779 761 757 758 765 771 687 769 777 767 769 765 660 759 778 767 767 776 768 685 610 766 778 763 768 762 772 742 763 755 769 605 766 596 766 778 765 765 577 765 760 760 684 771 772 756 766 785 778 764 778 765 748 771 767 764 688 737 584 756 685 766 763 776 777 685 768 692 758 741 781 510 773 763 583 767 768 773 782 686 778 760 659 761 746 753 739 743 779 765 751 763 774 768 768 775 735 768 776 676 752 688 764 679 782 759 757 766 776 764 768 759 770 762 751 766 750 767 765 769 771 777 744 762 756 774 775 687 767 777 571 744 767 758 520 755 495 773 768 771 686 734 683 743 739 780 741 598 782 594 687 770 773 767 766 532 526 760 761 762 760 774 772 777 773 767 741 675 767 772 761 522 777 753 736 773 735 692 774 689 552 775 767 771 774 769 750 684 764 686 772 773 775 746 776 766 759 734 784 777 770 757 743 755 505 758 743 754 511 678 759 765 762 760 768 589 772 758 770 521 685 600 742 773 765 763 762 774 759 774 765 739 758 761 748 744 776 766 689 596 772 771 774 765 768 505 770 774 758 771 757 765 690 689 492 587 761 746 762 767 768 523 769 762 753 743 741 773 772 780 772 762 678 764 765 690 718 680 666 753 769 770 770 772 670 602 741 753 767 771 767 679 766 773 519 764 776 782 780 772 683 525 683 743 742 776 766 772 777 764 763 775 756 663 753 770 775 769 777 733 688 762 743 771 761 681 770 768 774 780 775 773 772 764 769 774 785 765 766 755 757 521 778 585 683 776 521 658 685 737 741 652 679 770 779 774 773 770 733 775 767 756 771 775 771 774 753 773 762 688 766 745 762 755 678 746 750 772 759 522 765 774 760 773 505 774 755 774 745 774 771 779 742 770 774 779 772 756 775 768 774 763 777 771 764 771 680 776 735 525 776 765 767 758 735 759 761 778 765 766 760 777 769 761 774 763 760 524 525 771 760 758 580 437 740 763 765 770 665 774 762

Tree=0
num_leaves=8
num_cat=0
split_feature=38 37 37 38 38 38 38
split_gain=5580.16 3177.13 2030.92 1163.91 693.805 484.957 411.308
threshold=0.31469441606860521 0.39036598813464402 0.35681762026301722 0.47674953178598795 0.50197671872363325 0.13135864273369982 0.14599244001433329
decision_type=8 8 8 10 10 10 10
left_child=2 3 6 -2 -3 -4 -1
right_child=1 4 5 -5 -6 -7 -8
leaf_value=-2.0698934844402208 -2.3299096606773619 -2.45213345042924 -2.2685466429965699 -2.4299533232791446 -2.4955534470466927 -2.3811218343180811 -2.2243481568534191
leaf_count=3234 30757 91926 6400 31986 107876 26827 8505
internal_value=0 -0.204643 1.19486 0.515893 -0.430957 0.730757 2.50769
internal_count=307511 262545 44966 62743 199802 33227 11739
shrinkage=1


Tree=1
num_leaves=8
num_cat=0
split_feature=37 38 38 37 38 37 37
split_gain=4144.23 1973.31 1953.01 974.802 701.402 297.896 283.986
threshold=0.41422991987884372 0.43384745792380691 0.26155244256291216 0.12935780608002453 0.50197671872363325 0.13817671343907637 0.63285847104132509
decision_type=8 10 8 10 10 10 10
left_child=1 3 6 -1 -4 -3 -2
right_child=2 5 4 -5 -6 -7 -8
leaf_value=0.21728173640740722 0.10787297377973185 0.077257018167768712 -0.016953527017245472 0.089407301908597803 -0.060854647280398834 -0.008251529036238537 0.024043566877158768
leaf_count=8873 12743 6492 97999 34991 104825 33080 8508
internal_value=0 0.665899 -0.273777 1.15846 -0.39183 0.0584237 0.74374
internal_count=307511 83436 224075 43864 202824 39572 21251
shrinkage=0.1


Tree=2
num_leaves=8
num_cat=0
split_feature=38 37 37 37 38 36 295
split_gain=3341 2049.63 958.436 763.981 349.327 264.491 238.905
threshold=0.33365234483727518 0.48809996604069344 0.45629381358404597 0.15485406026573922 0.50197671872363325 0.44397775368661352 0.54858379228953591
decision_type=8 10 8 8 10 10 10
left_child=2 3 6 -2 -3 -4 -1
right_child=1 4 5 -5 -6 -7 -8
leaf_value=0.122309591603664 0.095736867276571047 -0.026036247180961904 0.05917092320723627 0.0085256358900885603 -0.061041547078800856 -0.012520431486612776 0.24419793063494633
leaf_count=17036 14077 73531 22719 76533 92868 8861 1886
internal_value=0 -0.189289 0.785236 0.236195 -0.449357 0.391259 1.34612
internal_count=307511 257009 50502 90610 166399 31580 18922
shrinkage=0.1


Tree=3
num_leaves=8
num_cat=0
split_feature=38 37 38 37 38 18 37
split_gain=2754.15 1689.46 664.109 646.948 383.69 228.555 157.423
threshold=0.43384745792380691 0.55818098444385023 0.23988384837774554 0.39855855333287737 0.21824380125316656 1.0000000180025095e-35 0.62706775155387462
decision_type=10 8 8 10 8 2 10
left_child=1 2 -1 5 -3 -2 -5
right_child=3 4 -4 6 -6 -7 -8
leaf_value=0.1231785888192256 0.044740931553080059 0.051010517741926421 0.048779647538166833 -0.036979385741223218 -0.022325591589748169 -0.01522646885365183 -0.064762907950320553
leaf_count=15280 12251 9846 60048 63591 58823 25163 62509
internal_value=0 0.331626 0.663831 -0.36305 -0.100335 0.0442214 -0.506356
internal_count=307511 143997 75328 163514 68669 37414 126100
shrinkage=0.1


Tree=4
num_leaves=8
num_cat=0
split_feature=38 37 37 37 36 37 22
split_gain=2278.49 1493.35 678.125 462.422 325.219 192.754 111.182
threshold=0.47674953178598795 0.26822675651948158 0.61669156992079699 0.2478623843915074 0.38704212930160747 0.57827568183713218 -18067.499999999996
decision_type=10 8 10 10 10 10 2
left_child=1 4 -3 6 -1 -5 -2
right_child=3 2 -4 5 -6 -7 -8
leaf_value=0.10917591880252263 -0.016328871854589668 0.029168399180584254 -0.023068587981393277 -0.029359749501223678 0.019174708992786768 -0.059828511985909022 0.046109777115406959
leaf_count=21148 6071 79085 55170 57066 4753 75390 8828
internal_value=0 0.262937 0.0930788 -0.37728 0.927252 -0.459682 0.208173
internal_count=307511 160156 134255 147355 25901 132456 14899
shrinkage=0.1


Tree=5
num_leaves=8
num_cat=0
split_feature=38 37 36 38 37 295 36
split_gain=1869.77 1124.46 470.547 446.29 423.021 188.315 99.7315
threshold=0.46955788558464323 0.48809996604069344 0.39508714505419368 0.26575311909471833 0.54241845613609285 0.4896896258503402 0.30216376123997951
decision_type=10 8 10 8 10 10 8
left_child=1 2 -1 -3 5 -2 -6
right_child=4 3 -4 -5 6 -7 -8
leaf_value=0.06835681115142031 -0.016980682886394514 0.041134441214141643 0.0001412750250414692 -0.017852549244220892 0.003233654396604003 0.070137354737066879 -0.057495182282990304
leaf_count=49188 58609 18696 13236 76168 4863 3719 83032
internal_value=0 0.235574 0.544724 -0.0377206 -0.345544 -0.117111 -0.541032
internal_count=307511 157288 62424 94864 150223 62328 87895
shrinkage=0.1


Tree=6
num_leaves=8
num_cat=0
split_feature=38 37 36 36 18 38 37
split_gain=1563.95 1025.81 414.467 375.396 345.463 265.5 61.133
threshold=0.34496990492100627 0.30739200574731468 0.27678185847419118 0.48645516295801111 1.0000000180025095e-35 0.14599244001433329 0.54844195893489178
decision_type=8 8 8 10 2 10 10
left_child=3 4 -3 5 -2 -1 -5
right_child=1 2 -4 6 -6 -7 -8
leaf_value=0.10302938784799504 0.070758637602788083 0.036954505493587232 -0.032742326325041891 0.017539388451421976 0.008040425935720661 0.045394974037194585 -0.031135934443481714
leaf_count=9036 14592 13343 198333 4832 27426 33289 6660
internal_value=0 -0.151744 -0.280486 0.466783 0.306089 0.596434 -0.0746101
internal_count=307511 253694 211676 53817 42018 42325 11492
shrinkage=0.1


Tree=7
num_leaves=8
num_cat=0
split_feature=38 37 327 37 36 22 471
split_gain=1407.03 906.739 534.966 278.135 225.591 160.817 76.5602
threshold=0.50558277949122454 0.6119015755816245 37281.015000000007 0.57827568183713218 0.24443998682948068 -17796.499999999996 1.3318163265306124
decision_type=10 10 10 10 8 2 10
left_child=1 2 -1 5 -3 -2 -5
right_child=3 4 -4 6 -6 -7 -8
leaf_value=0.026020728766587193 -0.04010610402071936 0.075774233926870327 0.09877995961106513 -0.063919994464623361 -0.026138873420813242 -0.0012037309898534831 -0.033004623492607042
leaf_count=98220 27047 3019 11629 47758 58371 39127 22340
internal_value=0 0.17964 0.340798 -0.339416 -0.206715 -0.169502 -0.5408
internal_count=307511 171239 109849 136272 61390 66174 70098
shrinkage=0.1


Tree=8
num_leaves=8
num_cat=0
split_feature=38 37 36 471 22 37 37
split_gain=1176.15 901.989 619.834 176.892 166.714 99.4588 92.9667
threshold=0.57179952324457861 0.20261157917236697 0.4814880883726706 373.7183571428572 -18534.499999999996 0.60089978027812341 0.2478623843915074
decision_type=10 8 10 10 2 10 10
left_child=1 4 -3 5 -1 -2 -5
right_child=3 2 -4 6 -6 -7 -8
leaf_value=0.023385291478488265 -0.034634702301548782 0.01454507983517251 -0.036680675016961789 0.055030979589181274 0.083869353599651073 -0.063865955354776696 -0.0171479328797427
leaf_count=5329 44293 137293 41916 2601 15341 39764 20974
internal_value=0 0.133592 0.0350065 -0.376859 0.690322 -0.467332 -0.0619601
internal_count=307511 199879 179209 107632 20670 84057 23575
shrinkage=0.1


Tree=9
num_leaves=8
num_cat=0
split_feature=38 37 36 295 88 22 36
split_gain=1025.75 803.756 450.737 260.787 160.596 131.591 51.1236
threshold=0.26575311909471833 0.55238138043373486 0.42259178838259598 0.44504830917874399 1.0000000180025095e-35 -19275.499999999996 0.64079743538113587
decision_type=8 10 10 10 2 2 10
left_child=4 2 -2 -3 5 -1 -6
right_child=1 3 -4 -5 6 -7 -8
leaf_value=0.015958235138883056 0.019019632167519961 -0.037905533001541501 -0.032218965250270987 0.031297204939883631 0.023822114804451539 0.072257677716785026 -0.040586028363210735
leaf_count=4662 98468 137317 29009 9775 8998 17736 1546
internal_value=0 -0.101269 0.0839862 -0.331023 0.471772 0.609427 0.159037
internal_count=307511 274569 127477 147092 32942 22398 10544
shrinkage=0.1


Tree=10
num_leaves=8
num_cat=0
split_feature=38 37 36 471 36 37 36
split_gain=910.537 661.747 474.593 156.139 95.3306 83.8639 72.7949
threshold=0.57179952324457861 0.65582424677266327 0.42259178838259598 373.7183571428572 0.24443998682948068 0.6416084646540009 0.51866871017985627
decision_type=10 10 10 10 8 10 10
left_child=1 2 -1 5 -3 -2 -5
right_child=3 4 -4 6 -6 -7 -8
leaf_value=0.03075593072813464 -0.034113209706947228 0.045403601181438172 -0.015630975047578998 0.0070980578746329655 -0.033339532489354048 -0.063675989493374163 -0.050156725466978004
leaf_count=114027 53778 2076 35715 18473 48061 30279 5102
internal_value=0 0.113735 0.211392 -0.342218 -0.293699 -0.430816 -0.0451581
internal_count=307511 199879 149742 107632 50137 84057 23575
shrinkage=0.1


Tree=11
num_leaves=8
num_cat=0
split_feature=37 38 471 22 36 36 392
split_gain=798.088 601.661 380.846 211.399 180.733 177.459 42.3973
threshold=0.2478623843915074 0.34496990492100627 496.52286923076929 -19997.499999999996 0.20844538110342145 0.26731209341650169 926740.64250000019
decision_type=8 8 10 2 8 10 10
left_child=3 4 -3 6 -2 -5 -1
right_child=1 2 -4 5 -6 -7 -8
leaf_value=-0.016512614979798539 0.092068197629253723 -0.028800592377141072 0.011406577826221171 0.0641449917281042 0.016155582036311806 0.011795290921795367 0.042735864672507423
leaf_count=7004 2965 177788 47143 20227 42681 8324 1379
internal_value=0 -0.0956845 -0.200116 0.389369 0.217799 0.502209 -0.0603336
internal_count=307511 270577 224931 36934 45646 28551 8383
shrinkage=0.1


Tree=12
num_leaves=8
num_cat=0
split_feature=37 336 18 174 38 468 295
split_gain=710.196 535.757 463.499 196.499 185.469 99.7019 87.164
threshold=0.61669156992079699 36561.060000000005 1.0000000180025095e-35 364279.50000000006 0.43384745792380691 1.0000000180025095e-35 0.85037313432835837
decision_type=10 10 2 10 8 10 10
left_child=1 2 -1 -3 6 -6 -2
right_child=4 3 -4 -5 5 -7 -8
leaf_value=0.028223413834452593 -0.0090105234937420224 0.029350531443514474 -0.0091269973382287397 0.098139791607298521 -0.054674279657170921 -0.024405245015401523 0.079281888973404865
leaf_count=60229 26395 9023 113536 8430 47318 41078 1502
internal_value=0 0.106966 0.0445575 0.643241 -0.285581 -0.4023 -0.0395697
internal_count=307511 191218 173765 17453 116293 88396 27897
shrinkage=0.1


Tree=13
num_leaves=8
num_cat=0
split_feature=36 22 138 18 38 163 140
split_gain=681.3 617.613 623.196 137.819 94.2866 59.3901 39.5537
threshold=0.56594804903199203 -19339.499999999996 8564.4000000000015 1.0000000180025095e-35 0.22952115678204391 17.781746031746035 15970.725000000002
decision_type=10 2 8 2 8 10 10
left_child=1 3 -3 -1 6 -6 -2
right_child=4 2 -4 -5 5 -7 -8
leaf_value=0.0032584347767400019 0.022909964048132864 0.035702175327057599 -0.0057773813576452249 -0.035957178100624397 -0.057339968265782082 -0.025848256528277731 -0.06020386852983757
leaf_count=17071 2874 98284 87814 49234 36992 14492 750
internal_value=0 0.0666672 0.167117 -0.254472 -0.424526 -0.483082 0.0600866
internal_count=307511 252403 186098 66305 55108 51484 3624
shrinkage=0.1


Tree=14
num_leaves=8
num_cat=0
split_feature=38 88 22 468 477 36 36
split_gain=638.014 480.558 443.319 124.556 142.454 120.945 67.9369
threshold=0.57179952324457861 1.0000000180025095e-35 -16496.499999999996 3.5000000000000004 -925.49999999999989 0.18767199313407903 0.24768607424338079
decision_type=10 2 2 10 10 8 8
left_child=1 2 -1 6 -5 -3 -2
right_child=3 5 -4 4 -6 -7 -8
leaf_value=-0.0031168124977290082 0.022764691583308308 0.0515692315906938 0.035737232723556785 -0.018685184731288967 0.071187523005302317 -0.021622036501549938 -0.044121430405679285
leaf_count=62881 2601 2223 77864 34259 3308 56911 67464
internal_value=0 0.091807 0.197212 -0.297483 -0.102028 -0.179195 -0.411299
internal_count=307511 199879 140745 107632 37567 59134 70065
shrinkage=0.1


Tree=15
num_leaves=8
num_cat=0
split_feature=295 486 38 468 174 480 336
split_gain=573.092 499.782 380.228 279.936 160.311 58.8979 48.4641
threshold=0.44504830917874399 118702.12500000004 0.31469441606860521 1.5000000000000002 364733.50000000006 92.000000000000014 34998.525000000009
decision_type=10 8 8 10 10 8 10
left_child=1 3 -3 -1 5 -2 -6
right_child=4 2 -4 -5 6 -7 -8
leaf_value=0.0073410289620678736 0.026404343073698506 0.015171559296375765 -0.022633403115869938 0.060525070140931649 0.036220737001106361 0.32690208132365395 0.099358012973966278
leaf_count=47710 14633 29999 190080 16943 1852 69 6225
internal_value=0 -0.0552706 -0.143272 0.22284 0.507679 0.280933 0.865815
internal_count=307511 284732 220079 64653 22779 14702 8077
shrinkage=0.1


Tree=16
num_leaves=8
num_cat=0
split_feature=37 384 195 36 489 481 38
split_gain=554.856 432.023 311.71 208.952 92.5859 72.0548 42.3991
threshold=0.65582424677266327 -347.77499999999992 1.0000000180025095e-35 0.15037451173191699 2351.7450000000003 -997.49999999999989 0.23466284194682538
decision_type=10 8 10 8 8 10 8
left_child=1 3 -3 -1 5 -2 -6
right_child=4 2 -4 -5 6 -7 -8
leaf_value=0.099101065933821009 -0.02668322380432115 0.014701358043234575 0.067613404826530027 -0.011417893342874352 -0.0040268727988289959 0.019293338503368309 -0.051139138680551727
leaf_count=1767 31337 93597 12866 115741 2294 6877 43032
internal_value=0 0.0723681 0.218845 -0.0913988 -0.324789 -0.174804 -0.466678
internal_count=307511 223971 106463 117508 83540 38214 45326
shrinkage=0.1


Tree=17
num_leaves=8
num_cat=0
split_feature=36 91 23 38 163 38 36
split_gain=523.848 482.825 399.072 179.89 83.0858 47.5009 43.4576
threshold=0.5315290354556762 1.0000000180025095e-35 -2004.4999999999998 0.21215353482979962 17.688259109311741 0.13135864273369982 0.69494041054371813
decision_type=10 2 2 8 10 8 10
left_child=1 2 -1 -3 5 -2 -6
right_child=4 3 -4 -5 6 -7 -8
leaf_value=-0.0053611037257652663 0.023221616374768068 0.028420046690836046 0.035307926887868955 -0.017099982666296757 0.0074520084987686423 -0.048230252587996104 -0.033128847165318109
leaf_count=51814 887 7483 77876 108361 8702 43580 8808
internal_value=0 0.0617469 0.205306 -0.117341 -0.356145 -0.454936 -0.119421
internal_count=307511 245534 129690 115844 61977 44467 17510
shrinkage=0.1


Tree=18
num_leaves=8
num_cat=0
split_feature=37 138 471 36 37 166 466
split_gain=495.707 382.673 298.297 152.368 125.05 74.978 58.9787
threshold=0.18397173769750691 9225.1125000000011 156.91539968652037 0.19646957916150926 0.069159962952844628 1095714.5000000002 -268.49999999999994
decision_type=8 8 10 8 10 8 8
left_child=4 2 -2 -3 6 -6 -1
right_child=1 3 -4 -5 5 -7 -8
leaf_value=0.03455200773271775 -0.0058305115677010633 0.037433934592056704 0.029007819711174488 -0.025981339486573597 0.03794170437896327 -0.0012866882758101742 0.08484742210367921
leaf_count=2952 109793 4209 48008 120896 10089 7045 4519
internal_value=0 -0.0641312 0.0564467 -0.22879 0.3697 0.227138 0.658646
internal_count=307511 282906 157801 125105 24605 17134 7471
shrinkage=0.1


Tree=19
num_leaves=8
num_cat=0
split_feature=36 22 88 18 163 36 36
split_gain=430.968 495.31 360.371 182.109 133.046 66.5616 66.2826
threshold=0.41150962141137531 -18132.499999999996 1.0000000180025095e-35 1.0000000180025095e-35 17.781746031746035 0.66507883692767666 0.69494041054371813
decision_type=10 2 2 2 10 10 10
left_child=1 3 -3 -1 5 -2 -6
right_child=4 2 -4 -5 6 -7 -8
leaf_value=0.010596440304543047 -0.026192145114042855 0.028884819452604238 -0.010286287655336563 -0.030317904392161824 0.015061562263312246 -0.054601458164294008 -0.030288602980225333
leaf_count=21449 37566 101571 41108 57698 14343 24997 8779
internal_value=0 0.0708253 0.183554 -0.184337 -0.260942 -0.362881 -0.00289808
internal_count=307511 221826 142679 79147 85685 62563 23122
shrinkage=0.1


Tree=20
num_leaves=8
num_cat=0
split_feature=38 138 122 38 468 477 37
split_gain=413.296 367.226 275.661 120.248 77.0959 71.4894 51.0889
threshold=0.60841648376416824 11639.250000000002 10.746441549945187 0.17508512251332128 3.5000000000000004 -735.49999999999989 0.12935780608002453
decision_type=10 8 10 8 10 10 8
left_child=1 2 -1 -3 6 -6 -2
right_child=4 3 -4 -5 5 -7 -8
leaf_value=-0.03176823567121103 0.017597433098753942 0.025457009685180644 0.021902681111692499 -0.017913828923087887 -0.016351073595763817 0.066864855389387676 -0.041448466337608084
leaf_count=12723 1797 5568 121747 77027 29602 1734 57313
internal_value=0 0.0633043 0.169859 -0.129799 -0.278376 -0.10795 -0.381268
internal_count=307511 217065 134470 82595 90446 31336 59110
shrinkage=0.1


Tree=21
num_leaves=8
num_cat=0
split_feature=338 446 37 477 174 295 296
split_gain=395.797 363.646 320.019 198.81 111.907 64.8103 39.8041
threshold=33322.342500000006 0.43792808219178087 0.64889632011521603 -1059.4999999999998 365115.50000000006 1.4939024390243905 5.5000000000000009
decision_type=10 10 10 10 10 10 10
left_child=1 2 -1 -3 5 -2 -6
right_child=4 3 -4 -5 6 -7 -8
leaf_value=-0.001516981362222766 0.014378816340638404 0.03235484411091584 -0.033800909906618201 0.14724634075019469 0.057254987715501277 0.062038699747823015 0.11290592996208888
leaf_count=189590 17063 9301 79161 1959 5008 3818 1611
internal_value=0 -0.0512761 -0.0813509 0.560567 0.374521 0.241151 0.718514
internal_count=307511 280011 268751 11260 27500 20881 6619
shrinkage=0.1


Tree=22
num_leaves=8
num_cat=0
split_feature=53 122 122 480 37 466 445
split_gain=376.336 520.106 713.429 174.731 120.264 78.8516 70.4261
threshold=1.0000000180025095e-35 21.463504360703066 10.746441549945187 1.0000000180025095e-35 0.2535371388973276 -143.49999999999997 7.5000000000000009
decision_type=2 8 10 10 10 10 10
left_child=3 2 -2 5 -3 -1 -5
right_child=1 4 -4 6 -6 -7 -8
leaf_value=-0.030464049328488025 -0.037961673860781919 0.014641316882787525 0.034551832693889242 0.030269900521063209 -0.020888832656836054 -0.006321181163597105 0.42623377166324261
leaf_count=61013 23966 10350 99004 95 85020 27939 124
internal_value=0 0.0763452 0.222937 -0.214733 -0.144409 -0.224451 2.74388
internal_count=307511 218340 122970 89171 95370 88952 219
shrinkage=0.1


Tree=23
num_leaves=8
num_cat=0
split_feature=195 36 471 195 121 22 36
split_gain=353.222 308.409 257.781 158.052 109.776 61.223 51.3572
threshold=1.0000000180025095e-35 0.49973431934820772 437.70508413461545 1.5000000000000002 0.14701428571428574 -19997.499999999996 0.70091770255734709
decision_type=10 10 10 10 10 2 10
left_child=1 2 -1 4 -2 -5 -3
right_child=3 6 -4 5 -6 -7 -8
leaf_value=-0.0072304572874078337 0.025528400366021765 -0.023296722122582377 0.021342236780915194 -0.032888274172284307 0.079493832075145043 0.018689385894177426 -0.049166893774277409
leaf_count=161097 7821 35729 51447 4518 9029 12110 25760
internal_value=0 -0.0525215 0.00453764 0.324457 0.544065 0.0714271 -0.331853
internal_count=307511 274033 212544 33478 16850 16628 61489
shrinkage=0.1


Tree=24
num_leaves=8
num_cat=0
split_feature=18 103 454 36 486 465 164
split_gain=340.896 324.892 269.929 251.386 154.83 122.818 81.3776
threshold=1.0000000180025095e-35 16.500000000000004 17.648398398398403 0.2704381573703139 90137.587499999994 1.5000000000000002 31.000000000000004
decision_type=2 8 10 8 8 10 10
left_child=1 6 3 -2 -3 -4 -1
right_child=2 4 5 -5 -6 -7 -8
leaf_value=-0.016753803133368592 0.036314482140153405 0.070347658233194776 0.026133679418358625 -0.018875204940047467 0.023950594597847433 0.30393361132532271 0.018856773994485803
leaf_count=35483 8636 9810 22293 171375 48665 148 11101
internal_value=0 0.157407 -0.0992329 -0.149003 0.324715 0.290196 -0.0782769
internal_count=307511 105059 202452 180011 58475 22441 46584
shrinkage=0.1


Tree=25
num_leaves=8
num_cat=0
split_feature=37 166 163 468 38 138 295
split_gain=319.048 310.206 281.242 247.438 51.0777 38.9951 20.9195
threshold=0.68878045902578433 730476.50000000012 23.171568627450984 1.0000000180025095e-35 0.45879500081581598 22981.747500000001 0.34351679104477617
decision_type=10 8 10 8 8 8 10
left_child=1 3 -3 -1 5 -2 -6
right_child=4 2 -4 -5 6 -7 -8
leaf_value=0.0043395771475412412 -0.002636735209846754 -0.011849931098614118 0.030502494165072572 0.041924088739629606 -0.046935996398461584 -0.049981814710245938 -0.0071905979939390205
leaf_count=51404 10401 142552 23762 34033 38621 3733 3005
internal_value=0 0.0403488 -0.0554011 0.20631 -0.33031 -0.143071 -0.434623
internal_count=307511 251751 166314 85437 55760 14134 41626
shrinkage=0.1


Tree=26
num_leaves=8
num_cat=0
split_feature=88 22 36 299 38 37 163
split_gain=311.137 326.778 240.327 222.792 103.109 89.8882 37.0708
threshold=1.0000000180025095e-35 -15334.499999999998 0.2704381573703139 0.68790584415584421 0.26155244256291216 0.50092305439322982 13.211111111111112
decision_type=2 2 10 10 8 10 8
left_child=1 3 -3 -1 6 -6 -2
right_child=4 2 -4 -5 5 -7 -8
leaf_value=-0.012891971730488023 -0.010120361001590217 0.032708465783672334 -0.0046575865622305694 0.040420049247190254 -0.011036854979055806 -0.039102420552618505 0.025373267167656272
leaf_count=115681 5488 58272 34217 10221 24209 54700 4723
internal_value=0 0.0673759 0.211015 -0.0722437 -0.201653 -0.268602 0.0616951
internal_count=307511 218391 92489 125902 89120 78909 10211
shrinkage=0.1


Tree=27
num_leaves=8
num_cat=0
split_feature=122 122 87 455 122 367 462
split_gain=306.527 401.698 527.042 137.421 134.24 36.4965 21.6671
threshold=10.746441549945187 21.463504360703066 1.0000000180025095e-35 38.500000000000007 9.4251269031361158 431722.21500000003 17.500000000000004
decision_type=10 10 2 10 8 10 8
left_child=4 2 -2 -3 5 -1 -6
right_child=1 3 -4 -5 6 -7 -8
leaf_value=0.0092194531489818137 0.024636378781577428 -0.018748473425613775 -0.031563435951183487 0.019940001494256045 -0.064357182798676624 -0.02981033553195241 -0.015104559114592643
leaf_count=6234 121525 108567 29238 15756 18343 6078 1770
internal_value=0 0.0346049 0.151564 -0.137081 -0.367459 -0.0908994 -0.600018
internal_count=307511 275086 150763 124323 32425 12312 20113
shrinkage=0.1


Tree=28
num_leaves=8
num_cat=0
split_feature=403 88 466 37 468 1 38
split_gain=293.438 206.347 166.06 127.186 92.4751 68.1086 64.4257
threshold=309.50000000000006 1.0000000180025095e-35 -290.49999999999994 0.30739200574731468 4.5000000000000009 279173.25000000006 0.31469441606860521
decision_type=8 2 8 10 10 2 8
left_child=3 2 -2 5 -5 -1 -3
right_child=1 6 -4 4 -6 -7 -8
leaf_value=-0.017880002816471657 0.00091035418524285517 0.011699396584878612 0.029233532435575301 -0.028295426678379282 -0.0052913518927788861 0.016098065474969846 -0.020371324629255762
leaf_count=8206 44063 7865 63574 83447 43699 18020 38637
internal_value=0 0.103374 0.182545 -0.12785 -0.195808 0.0554752 -0.115961
internal_count=307511 154139 107637 153372 127146 26226 46502
shrinkage=0.1


Tree=29
num_leaves=8
num_cat=0
split_feature=23 91 0 38 164 36 486
split_gain=283.77 296.277 168.963 111.382 88.4783 47.9869 45.962
threshold=-3097.4999999999995 1.0000000180025095e-35 14996.250000000002 0.24518380290995226 35.500000000000007 0.17856833961106008 104141.54250000003
decision_type=2 2 10 8 10 8 8
left_child=4 2 -2 -3 6 -6 -1
right_child=1 3 -4 -5 5 -7 -8
leaf_value=-0.010304364551638134 -0.0073078343225701815 0.017878138317802817 0.024122478767052469 -0.013906692213159556 0.13822840177653087 -0.0049573244197203912 -0.040829676402016707
leaf_count=9722 26243 10350 92253 113115 222 18680 36926
internal_value=0 0.0511042 0.169497 -0.0884037 -0.239802 -0.0226773 -0.33889
internal_count=307511 241961 118496 123465 65550 18902 46648
shrinkage=0.1


Tree=30
num_leaves=8
num_cat=0
split_feature=228 295 486 368 122 486 466
split_gain=256.038 244.955 237.411 103.268 64.8603 64.3834 52.4491
threshold=1.0000000180025095e-35 0.59891304347826091 106002.54000000008 37458.604285714297 21.580879977450945 344796.54750000016 -199.49999999999997
decision_type=10 10 8 10 8 8 10
left_child=1 2 -1 6 -5 -3 -2
right_child=3 5 -4 4 -6 -7 -8
leaf_value=0.013875977368729156 0.034600961879536866 0.068362587088990234 -0.014387614181045184 0.02796234297719595 -0.006242113975158955 0.021359675024022848 0.1002125834247099
leaf_count=49661 2890 3407 204033 21668 10770 12532 2550
internal_value=0 -0.0475294 -0.081608 0.258634 0.181177 0.334189 0.678423
internal_count=307511 269633 253694 37878 32438 15939 5440
shrinkage=0.1


Tree=31
num_leaves=8
num_cat=0
split_feature=37 471 481 38 123 1 467
split_gain=250.817 243.352 246.215 190.358 43.5304 45.3578 13.3948
threshold=0.078707378021973695 188.00189856038401 -1070.4999999999998 0.18142354377667627 0.16261526722698566 254749.50000000003 -5.3241991991991986
decision_type=8 10 10 8 2 2 10
left_child=4 3 -3 -2 5 -1 -6
right_child=1 2 -4 -5 6 -7 -8
leaf_value=0.016281760317836791 0.026898325317689504 0.00029716982192458863 0.04159774636498946 -0.014397535874016935 -0.0035825950292709668 0.066063450228822901 0.046093117892815547
leaf_count=1734 9040 68900 21578 199299 1590 4892 478
internal_value=0 -0.0292463 0.121487 -0.107004 0.430936 0.532376 0.0858834
internal_count=307511 298817 90478 208339 8694 6626 2068
shrinkage=0.1


Tree=32
num_leaves=8
num_cat=0
split_feature=122 122 53 122 122 18 462
split_gain=247.592 313.141 218.437 143.154 110.091 31.6127 20.6853
threshold=10.746441549945187 12.735652851055642 1.0000000180025095e-35 12.548545869617714 9.4251269031361158 1.0000000180025095e-35 17.500000000000004
decision_type=10 10 2 10 8 2 8
left_child=4 3 -3 -2 5 -1 -6
right_child=1 2 -4 -5 6 -7 -8
leaf_value=0.0076339150113614931 0.0094446851506204445 -0.018026922912170576 0.0062454059815748421 0.072015681049301783 -0.060423530805214509 -0.028820341368542907 -0.011321132948214893
leaf_count=6237 6800 77971 181068 9247 18343 6075 1770
internal_value=0 0.0308326 -0.00510308 0.466623 -0.337144 -0.0899852 -0.559364
internal_count=307511 275086 259039 16047 32425 12312 20113
shrinkage=0.1


Tree=33
num_leaves=8
num_cat=0
split_feature=18 103 454 22 466 465 36
split_gain=233.99 230.919 187.665 181.207 103.006 73.6918 65.2013
threshold=1.0000000180025095e-35 12.500000000000002 16.205505279034693 -16977.499999999996 -175.49999999999997 1.5000000000000002 0.13211316158044484
decision_type=2 8 10 2 10 10 8
left_child=1 6 3 -2 -3 -4 -1
right_child=2 4 5 -5 -6 -7 -8
leaf_value=0.076551235808686086 -0.02936926761194927 0.01295306037915451 0.017970469219009924 -0.003567071914192452 0.04029019951400812 0.19748116699970397 -0.014451386255068961
leaf_count=705 76751 42095 27396 98125 25942 180 36317
internal_value=0 0.129241 -0.0834329 -0.131804 0.242103 0.201125 -0.116142
internal_count=307511 105059 202452 174876 68037 27576 37022
shrinkage=0.1


Tree=34
num_leaves=8
num_cat=0
split_feature=23 0 2 454 462 36 472
split_gain=228.882 210.721 332.455 101.195 84.517 60.7312 58.8931
threshold=-2442.4999999999995 16503.750000000004 450117.00000000006 12.50182481751825 21.500000000000004 0.10969878981397295 9401.3775000000005
decision_type=2 10 8 10 8 8 10
left_child=3 4 -3 5 -2 -1 -5
right_child=1 2 -4 6 -6 -7 -8
leaf_value=0.1129346827133734 -0.019256620682447004 0.031212502267508369 -0.0023547092316388387 -0.011127688195441181 0.017449780337068763 -0.026009284593923085 0.032378802390029389
leaf_count=280 47942 62609 97697 11591 10430 69935 7027
internal_value=0 0.0571635 0.126221 -0.176916 -0.129543 -0.249832 0.0701033
internal_count=307511 218678 160306 88833 58372 70215 18618
shrinkage=0.1


Tree=35
num_leaves=8
num_cat=0
split_feature=372 88 367 122 295 486 88
split_gain=226.327 171.13 156.758 125.087 98.5952 82.3257 58.5418
threshold=62858.568750000006 1.0000000180025095e-35 129864.87000000001 10.555164779451909 0.45401691331923888 78191.955000000016 1.5000000000000002
decision_type=8 2 10 10 10 8 2
left_child=2 3 5 -2 -4 -1 -3
right_child=1 6 4 -5 -6 -7 -8
leaf_value=0.059529942675866337 -0.025228460891045763 -0.017020742583201878 -0.021506022915812734 0.019184243750386219 0.016814042153455586 0.0045451107119114887 0.016807860373818737
leaf_count=3914 9608 42363 114244 101821 8170 19514 7877
internal_value=0 0.0865967 -0.118254 0.158124 -0.178695 0.153244 -0.106488
internal_count=307511 161669 145842 111429 122414 23428 50240
shrinkage=0.1


Tree=36
num_leaves=8
num_cat=0
split_feature=37 403 471 0 38 163 419
split_gain=213.796 202.063 140.532 91.3947 34.8039 20.438 18.0244
threshold=0.7051774421261251 309.50000000000006 515.01910714285725 16742.250000000004 0.56826400405960509 18.80740740740741 0.078441698736029297
decision_type=10 8 10 10 8 10 10
left_child=1 3 -3 -1 5 -2 -6
right_child=4 2 -4 -5 6 -7 -8
leaf_value=-0.024945056290951662 -0.027975711060340039 0.0052329372529420961 0.031164322316109768 -0.0022296570088581858 -0.04822036981692987 0.0052941138425780998 0.077522379946922348
leaf_count=35261 12762 102625 30056 97093 25183 4261 270
internal_value=0 0.0274977 0.119004 -0.0824899 -0.32772 -0.190149 -0.466235
internal_count=307511 265035 132681 132354 42476 17023 25453
shrinkage=0.1


Tree=37
num_leaves=8
num_cat=0
split_feature=138 22 122 36 27 163 38
split_gain=207.612 148.121 158.767 95.4704 74.232 72.6421 44.1868
threshold=8564.4000000000015 -19997.499999999996 21.463504360703066 0.42259178838259598 1.0000000180025095e-35 24.050000000000004 0.17508512251332128
decision_type=8 2 8 10 10 10 8
left_child=1 5 -3 4 -2 -1 -5
right_child=3 2 -4 6 -6 -7 -8
leaf_value=-0.022915370837636496 -0.009976478897925984 0.02166076840854804 -0.0054698386099981122 0.016435998911701565 0.021068819607262101 0.018529088970352391 -0.035200321973568302
leaf_count=32830 89448 80707 43335 1721 11528 7911 40031
internal_value=0 0.0808135 0.134147 -0.11629 -0.0618483 -0.138522 -0.306468
internal_count=307511 164783 124042 142728 100976 40741 41752
shrinkage=0.1


Tree=38
num_leaves=8
num_cat=0
split_feature=111 466 164 122 468 481 38
split_gain=201.908 145.187 144.285 99.8493 92.7078 72.6207 52.3629
threshold=0.034050000000000004 -123.49999999999999 31.000000000000004 21.580879977450945 1.0000000180025095e-35 -729.49999999999989 0.12334537001096685
decision_type=10 10 8 8 10 10 8
left_child=1 2 -1 -3 6 -6 -2
right_child=4 3 -4 -5 5 -7 -8
leaf_value=-0.0087979440101106973 0.029604053532735382 0.033910142982411483 0.016124660201390414 -0.0016261267158594337 -0.0080146153301407716 0.028350033209473498 -0.026520690699390333
leaf_count=84498 1232 30977 50321 15951 54502 6893 63137
internal_value=0 0.0721902 0.00760324 0.236825 -0.126145 -0.0266181 -0.239712
internal_count=307511 181747 134819 46928 125764 61395 64369
shrinkage=0.1


Tree=39
num_leaves=8
num_cat=0
split_feature=122 2 0 122 480 120 462
split_gain=194.548 201.845 385.926 86.2086 84.3553 28.0947 18.2204
threshold=10.746441549945187 675191.25000000012 24752.250000000004 9.4251269031361158 92.000000000000014 1.8182810025556508 17.500000000000004
decision_type=10 8 10 8 10 2 8
left_child=3 2 -2 5 -3 -1 -5
right_child=1 4 -4 6 -6 -7 -8
leaf_value=-0.020358618149207509 -0.0032330300291448129 -0.016087504925461554 0.030302592616078813 -0.055847514491720464 0.18231078742487886 0.016960173971079597 -0.0090640049757889883
leaf_count=8621 130441 79371 65108 18343 166 3691 1770
internal_value=0 0.0271587 0.083722 -0.305211 -0.151827 -0.08982 -0.513428
internal_count=307511 275086 195549 32425 79537 12312 20113
shrinkage=0.1


Tree=40
num_leaves=8
num_cat=0
split_feature=103 18 38 53 36 123 401
split_gain=193.188 217.78 152.104 84.4317 51.3443 49.6247 18.5072
threshold=9.5000000000000018 1.0000000180025095e-35 0.4022745452168513 1.0000000180025095e-35 0.13211316158044484 0.15182578923076939 -1397.4999999999998
decision_type=8 2 8 2 8 2 10
left_child=4 3 -3 -2 6 -6 -1
right_child=1 2 -4 -5 5 -7 -8
leaf_value=0.13963676301776579 0.0005851567872218349 0.011136603004769393 -0.012446988586677575 0.025995726632623124 -0.014719839178129286 -0.040059223549181233 0.027435007173861159
leaf_count=178 24301 40344 137712 51653 32335 20485 503
internal_value=0 0.0387643 -0.0409604 0.187339 -0.218123 -0.237335 0.552654
internal_count=307511 254010 178056 75954 53501 52820 681
shrinkage=0.1


Tree=41
num_leaves=8
num_cat=0
split_feature=446 122 122 477 121 468 122
split_gain=187.793 163.292 173.637 92.1721 48.3483 47.8926 46.6829
threshold=0.21231060606060609 10.845397611218624 12.735652851055642 -1197.4999999999998 0.15567083333333337 21.500000000000004 9.3195289155127643
decision_type=10 10 10 10 10 10 8
left_child=1 6 -3 4 -2 -5 -1
right_child=3 2 -4 5 -6 -7 -8
leaf_value=-0.011245441058708415 -0.0030328791068063698 0.034362271000397675 -0.0028587641783384223 0.045490881978181665 0.035532454306149312 0.11512117278200194 -0.044460032946652843
leaf_count=8951 7458 13330 242850 2533 8813 1351 22225
internal_value=0 -0.0293383 -0.00101871 0.313307 0.179932 0.713682 -0.316603
internal_count=307511 287356 256180 20155 16271 3884 31176
shrinkage=0.1


Tree=42
num_leaves=8
num_cat=0
split_feature=487 454 0 122 18 352 355
split_gain=177.946 238.649 152.279 144.359 118.697 71.8989 36.5571
threshold=6726.8032211538466 13.04587542087542 16049.250000000002 22.186094969771677 1.0000000180025095e-35 -265.90416666666664 -803.49999999999989
decision_type=8 10 10 10 2 8 8
left_child=2 4 6 -4 -2 -3 -1
right_child=1 5 3 -5 -6 -7 -8
leaf_value=-0.027774834175380334 -6.2827571062364266e-05 -0.0038740227090073888 0.044691055425792797 0.0018946406747579081 -0.019377338242449957 0.025419725352964252 0.0050205163977058292
leaf_count=10130 69892 19387 22852 19463 124208 34131 7448
internal_value=0 -0.0493542 0.17017 0.284476 -0.114221 0.165645 -0.112558
internal_count=307511 247618 59893 42315 194100 53518 17578
shrinkage=0.1


Tree=43
num_leaves=8
num_cat=0
split_feature=36 327 486 174 164 488 84
split_gain=168.532 157.278 175.044 46.6875 25.3296 18.2829 14.5656
threshold=0.6353112369706263 128427.25500000002 157202.30250000002 365524.50000000006 38.500000000000007 14258.070000000002 0.053450000000000004
decision_type=10 10 8 10 10 8 10
left_child=1 2 -1 -3 5 -2 -6
right_child=4 3 -4 -5 6 -7 -8
leaf_value=0.013317772466048464 -0.015811228756737995 0.025874751844465971 -0.007340180698799559 0.082424298790670689 0.0056364066810208535 -0.042273526347010183 -0.031651424384137594
leaf_count=76703 7728 15894 172340 1318 4981 25333 3214
internal_value=0 0.0248714 -0.00255753 0.311894 -0.290026 -0.355776 -0.0801656
internal_count=307511 266255 249043 17212 41256 33061 8195
shrinkage=0.1


Tree=44
num_leaves=8
num_cat=0
split_feature=37 36 468 22 37 120 370
split_gain=165.648 155.009 149.768 43.0384 29.3488 25.3884 13.865
threshold=0.069159962952844628 0.17384221453891571 3.5000000000000004 -10180.499999999998 0.010403997785698622 1.6550147783251232 40635.900000000009
decision_type=8 8 10 2 10 2 10
left_child=4 3 -3 -2 6 -6 -1
right_child=1 2 -4 -5 5 -7 -8
leaf_value=0.0915278850880763 0.055347874252766487 -0.011521504717439514 0.0061538734046478237 0.012299181867228608 -0.0085435992766512547 0.036638195631555952 0.034881807457123097
leaf_count=798 4816 182095 109806 3323 973 5234 466
internal_value=0 -0.0222242 -0.0413754 0.370053 0.371537 0.294637 0.718484
internal_count=307511 300040 291901 8139 7471 6207 1264
shrinkage=0.1


Tree=45
num_leaves=8
num_cat=0
split_feature=23 53 140 164 465 472 384
split_gain=160.837 157.059 135.011 54.0872 49.2641 32.292 30.6929
threshold=-3097.4999999999995 1.0000000180025095e-35 5805.1125000000011 38.500000000000007 3.5000000000000004 9000.0450000000001 -526.1213235294116
decision_type=2 2 10 10 10 8 10
left_child=3 4 -3 6 -2 -5 -1
right_child=1 2 -4 5 -6 -7 -8
leaf_value=-0.03394984124574759 -0.012144121800092431 0.01809389603110689 -0.0026386967107904168 -0.014005124058321503 0.12183629087118802 0.024622752079846807 -0.013429596601432996
leaf_count=31550 75171 92301 74273 7584 216 5029 21387
internal_value=0 0.0382313 0.0959563 -0.186516 -0.11381 0.0316 -0.250357
internal_count=307511 241961 166574 65550 75387 12613 52937
shrinkage=0.1


Tree=46
num_leaves=8
num_cat=0
split_feature=103 372 393 368 123 471 36
split_gain=156.464 152.555 125.107 97.3039 43.0092 31.7297 26.0835
threshold=11.500000000000002 82824.442355769235 4.5000000000000009 51582.150000000009 0.15182578923076939 1332.1421284829723 0.16924150485542261
decision_type=8 8 10 10 2 10 8
left_child=4 3 -3 -2 5 -1 -6
right_child=1 2 -4 -5 6 -7 -8
leaf_value=-0.014926877918584384 0.0200474608091551 0.0091782218613036485 0.049001407289895743 -0.0097930107205902728 0.034770081280115578 0.016164878402610865 -0.034986075520297276
leaf_count=33795 16788 102750 9725 115780 502 4658 23513
internal_value=0 0.0387751 0.130987 -0.0545553 -0.1794 -0.104083 -0.321884
internal_count=307511 245043 112475 132568 62468 38453 24015
shrinkage=0.1


Tree=47
num_leaves=8
num_cat=0
split_feature=88 466 164 24 37 88 22
split_gain=150.948 155.138 124.4 96.2045 55.8559 46.719 24.5364
threshold=1.0000000180025095e-35 -238.49999999999997 31.000000000000004 -4213.4999999999991 0.18397173769750691 1.5000000000000002 -9495.4999999999982
decision_type=2 8 10 2 10 2 2
left_child=1 2 -1 -3 6 -6 -2
right_child=4 3 -4 -5 5 -7 -8
leaf_value=-0.016859914242308167 0.021290015411075641 -0.0050529591697695553 0.0089552481199558307 0.0196694025020368 -0.023117945559946812 0.0021088386965578141 -0.028971045736871329
leaf_count=65449 4611 29840 43584 79518 70808 12908 793
internal_value=0 0.0465638 -0.0575745 0.137963 -0.145664 -0.183602 0.124189
internal_count=307511 218391 109033 109358 89120 83716 5404
shrinkage=0.1


Tree=48
num_leaves=8
num_cat=0
split_feature=0 2 1 462 393 166 480
split_gain=146.326 247.185 262.642 105.912 83.1506 56.042 28.5928
threshold=16503.750000000004 450117.00000000006 500868.00000000006 14.500000000000002 5.5000000000000009 1460798.5000000002 -19.499999999999996
decision_type=10 8 2 8 10 10 10
left_child=3 2 -2 5 -3 -1 -5
right_child=1 4 -4 6 -6 -7 -8
leaf_value=-0.016541848048513951 0.0086651086538410155 -0.0084540819337819897 0.05593622381450785 0.0017632083771182954 0.03266667292797585 -0.046764497842991762 0.035758477157871671
leaf_count=46709 68178 140564 15676 13375 6451 12276 4282
internal_value=0 0.0457948 0.187267 -0.143711 -0.0613777 -0.219819 0.112259
internal_count=307511 230869 83854 76642 147015 58985 17657
shrinkage=0.1


Tree=49
num_leaves=8
num_cat=0
split_feature=37 379 403 353 225 372 468
split_gain=144.223 148.652 128.588 30.7967 24.141 23.7387 14.3347
threshold=0.7051774421261251 2083.5000000000005 309.50000000000006 1197.5000000000002 1.0000000180025095e-35 215856.37500000003 5.5000000000000009
decision_type=10 10 8 10 10 8 10
left_child=1 2 -1 6 -5 -3 -2
right_child=3 5 -4 4 -6 -7 -8
leaf_value=-0.0072330927234490645 -0.046439609575737659 0.10553599959277662 0.008931613390417913 -0.027113279907099087 0.011516669204370862 0.23663912755528163 -0.021391386118947298
leaf_count=132075 20027 412 132396 9238 5583 152 7628
internal_value=0 0.0224262 0.0170491 -0.278265 -0.106491 1.41527 -0.382841
internal_count=307511 265035 264471 42476 14821 564 27655
shrinkage=0.1


Tree=50
num_leaves=8
num_cat=0
split_feature=228 295 486 393 408 166 311
split_gain=137.649 121.12 123.792 57.4624 47.6035 31.5903 31.0216
threshold=1.0000000180025095e-35 0.71346469622331699 57884.602500000008 2.5000000000000004 117006.75000000001 546261.00000000012 14.940588235294118
decision_type=10 10 8 8 8 10 10
left_child=1 2 -1 5 -5 -2 -3
right_child=3 6 -4 4 -6 -7 -8
leaf_value=0.01930834570332414 0.020954415623809869 0.029864708740822726 -0.0087617460871154112 0.013296461051824277 0.043816379686534387 -0.011592418635450734 -0.016942410403828698
leaf_count=21787 5465 11842 234189 11682 11199 9532 1815
internal_value=0 -0.0352256 -0.058657 0.186609 0.288813 0.0155224 0.245959
internal_count=307511 269633 255976 37878 22881 14997 13657
shrinkage=0.1


Tree=51
num_leaves=8
num_cat=0
split_feature=10 38 0 236 36 367 28
split_gain=134.987 111.133 101.486 61.8344 54.646 33.583 18.4924
threshold=0.053750000000000013 0.7039548641001806 16503.750000000004 2.5000000000000004 0.19232159378939626 163177.47000000003 1.0000000180025095e-35
decision_type=10 10 10 10 8 10 10
left_child=1 2 -1 4 -2 -3 -5
right_child=3 5 -4 6 -6 -7 -8
leaf_value=-0.0068107523201360338 0.028704018001133792 0.0073708445955428629 0.013292819615637311 -0.045173246746618614 -0.010444758259288471 -0.033082665475809313 0.011511718128213423
leaf_count=42807 3211 5518 121710 11301 100160 21835 969
internal_value=0 0.0550617 0.0813709 -0.111597 -0.082223 -0.23992 -0.399451
internal_count=307511 191870 164517 115641 103371 27353 12270
shrinkage=0.1


Tree=52
num_leaves=8
num_cat=0
split_feature=446 457 164 162 481 468 379
split_gain=131.662 127.086 136.01 125.045 59.7027 60.493 35.5702
threshold=0.099586776859504164 22.500000000000004 43.000000000000007 32.500000000000007 -1509.4999999999998 18.500000000000004 2652.7500000000005
decision_type=10 10 8 10 10 10 10
left_child=1 3 -3 -1 6 -6 -2
right_child=4 2 -4 -5 5 -7 -8
leaf_value=-0.0020781216830708031 0.009653297998646693 -0.021031154770344816 0.0073938558052132316 0.022278805733807975 0.022175274984349361 0.079833031811656227 0.17724098344708533
leaf_count=122007 20409 90948 32778 34076 4608 2589 96
internal_value=0 -0.0286991 -0.125054 0.0395915 0.221068 0.450239 0.110401
internal_count=307511 279809 123726 156083 27702 7197 20505
shrinkage=0.1


Tree=53
num_leaves=8
num_cat=0
split_feature=91 23 36 393 24 454 163
split_gain=128.57 125.872 94.7929 66.3993 67.7536 53.0553 36.1778
threshold=1.0000000180025095e-35 -1707.4999999999998 0.18767199313407903 5.5000000000000009 -4081.4999999999995 17.648398398398403 25.345238095238095
decision_type=2 2 10 10 2 10 8
left_child=1 5 -3 4 -2 -1 -5
right_child=3 2 -4 6 -6 -7 -8
leaf_value=-0.0092842916261524095 -0.023046397507426295 0.023506654749431418 -8.3179166959840753e-05 0.0096327288865720936 -0.0046081242227547095 0.02311151928301276 0.06967311161708048
leaf_count=68391 56288 47991 35100 4681 86273 7292 1495
internal_value=0 0.0653454 0.148972 -0.0903453 -0.111097 -0.0561614 0.254993
internal_count=307511 158774 83091 148737 142561 75683 6176
shrinkage=0.1


Tree=54
num_leaves=8
num_cat=0
split_feature=122 103 18 122 359 471 462
split_gain=124.258 128.334 114.916 54.0248 37.1264 23.4657 16.6254
threshold=10.746441549945187 11.500000000000002 1.0000000180025095e-35 9.4251269031361158 4482.1125000000011 1087.6093750000002 17.500000000000004
decision_type=10 8 2 8 8 8 8
left_child=3 4 -3 5 -2 -1 -5
right_child=1 2 -4 6 -6 -7 -8
leaf_value=-0.017745484677502889 -0.022371101627191657 0.017634091608564242 -0.00010336591633946524 -0.048000281892086646 -0.0010472427867503381 0.018601252636435056 -0.001651169614606913
leaf_count=9519 38526 62194 157044 18343 17322 2793 1770
internal_value=0 0.0215479 0.0594819 -0.25241 -0.149077 -0.0855995 -0.43291
internal_count=307511 275086 219238 32425 55848 12312 20113
shrinkage=0.1


Tree=55
num_leaves=8
num_cat=0
split_feature=106 38 36 121 379 123 22
split_gain=120.453 105.954 102.515 51.7849 41.2698 40.4044 33.8284
threshold=2.5000000000000004 0.16000423555253143 0.41693600304579898 0.20510208333333338 1498.5000000000002 0.29605030240636082 -19645.499999999996
decision_type=2 8 10 10 10 2 2
left_child=1 4 -3 5 -1 -2 -5
right_child=3 2 -4 6 -6 -7 -8
leaf_value=0.017771049073912096 0.011481644387642511 -0.0019535768857870737 -0.021653858000164793 0.0010719205612062662 0.11052032247176305 -0.032576992249306123 0.039606172738193959
leaf_count=10901 24088 181919 70541 4515 290 3333 11924
internal_value=0 -0.0353063 -0.0598303 0.162399 0.206161 0.0710158 0.315446
internal_count=307511 263651 252460 43860 11191 27421 16439
shrinkage=0.1


Tree=56
num_leaves=8
num_cat=0
split_feature=27 121 2 295 466 357 462
split_gain=119.093 111.681 109.669 78.9635 55.5626 28.1197 22.9564
threshold=1.0000000180025095e-35 0.15740270270270273 675191.25000000012 0.44504830917874399 -137.49999999999997 -913.49999999999989 11.500000000000002
decision_type=10 10 10 10 8 10 10
left_child=1 3 -3 -1 6 -6 -2
right_child=4 2 -4 -5 5 -7 -8
leaf_value=-0.0144700202881028 0.0031143676013225961 0.011307415306613132 -0.011616571245540245 0.014314613673415997 0.057284255191208638 0.022708386209976988 0.032181646285995021
leaf_count=118961 19019 89984 52614 10786 4867 6648 4632
internal_value=0 -0.0293615 0.0438628 -0.110033 0.194693 0.387583 0.0878757
internal_count=307511 272345 142598 129747 35166 11515 23651
shrinkage=0.1


Tree=57
num_leaves=8
num_cat=0
split_feature=138 471 38 446 489 480 403
split_gain=115.228 105.65 104.015 61.3454 37.4186 30.0838 23.3048
threshold=16512.750000000004 515.01910714285725 0.41272265809433373 1.2283208020050127 80.077500000000015 -261.49999999999994 290.50000000000006
decision_type=10 10 8 10 10 10 8
left_child=1 2 -1 -3 6 -6 -2
right_child=4 3 -4 -5 5 -7 -8
leaf_value=0.01107300638113478 -0.014624005117673606 0.014416276832602895 -0.0077639153972141918 0.066707736814159174 -0.0071674391958410789 -0.028348703919205617 0.0083533856272910746
leaf_count=42518 13525 45570 139590 2097 18805 32844 12562
internal_value=0 0.0374398 -0.00847538 0.173616 -0.139282 -0.208245 -0.0238671
internal_count=307511 229775 182108 47667 77736 51649 26087
shrinkage=0.1


Tree=58
num_leaves=8
num_cat=0
split_feature=23 163 486 393 162 384 454
split_gain=110.332 106.71 125.335 44.0625 28.5528 28.361 25.7893
threshold=-4025.4999999999995 24.050000000000004 207732.91500000007 6.5000000000000009 234.50000000000003 -436.26785714285711 8.8579831932773132
decision_type=2 10 10 10 10 10 10
left_child=4 2 -2 -3 5 -1 -6
right_child=1 3 -4 -5 6 -7 -8
leaf_value=-0.031172551920199951 0.0087086535948935964 0.019642989103879568 -0.00848639421604362 0.08137360195710569 -0.063263690655291735 -0.0077972281518372795 0.053290431052615585
leaf_count=28474 106422 26013 130555 1093 334 13478 1142
internal_value=0 0.0241013 -0.00268634 0.231392 -0.203579 -0.228088 0.283753
internal_count=307511 264083 236977 27106 43428 41952 1476
shrinkage=0.1


Tree=59
num_leaves=8
num_cat=0
split_feature=88 22 123 454 88 36 330
split_gain=109.693 109.026 101.908 50.8633 44.4969 41.0404 23.8231
threshold=1.0000000180025095e-35 -19704.499999999996 0.11400561224966449 21.03488843813388 2.5000000000000004 0.17384221453891571 5285.0250000000005
decision_type=2 2 2 8 2 8 10
left_child=1 3 -3 -1 5 -2 -6
right_child=4 2 -4 -5 6 -7 -8
leaf_value=-0.017242494095296053 0.025219867260607966 0.016252170380829597 -0.0016392015475008483 0.01608888211995595 0.018780592118254457 -0.016874855531489458 0.1651462632774871
leaf_count=51979 2081 79035 78979 8398 3849 83059 131
internal_value=0 0.0396535 0.0818825 -0.119191 -0.125825 -0.148288 0.247429
internal_count=307511 218391 158014 60377 89120 85140 3980
shrinkage=0.1


Tree=60
num_leaves=8
num_cat=0
split_feature=468 477 482 164 451 121 468
split_gain=107.437 162.429 92.0669 68.5621 68.2506 53.4983 51.4041
threshold=1.0000000180025095e-35 -1095.4999999999998 96318.134999999995 27.000000000000004 43.500000000000007 0.19215108695652175 7.5000000000000009
decision_type=8 10 10 10 10 10 10
left_child=2 4 5 -4 -2 -1 -3
right_child=1 6 3 -5 -6 -7 -8
leaf_value=-0.0048193884062484923 -0.004807766599224798 0.014983709514242988 -0.022638037788547505 0.00059206120468697316 0.020231840042910471 0.023432573107168165 0.040129249048081003
leaf_count=22437 118169 25344 72430 27061 16599 14551 10920
internal_value=0 0.0575326 -0.0861049 -0.155969 -0.0134058 0.063581 0.236809
internal_count=307511 171032 136479 99491 134768 36988 36264
shrinkage=0.1


Tree=61
num_leaves=8
num_cat=0
split_feature=372 360 121 2 486 299 403
split_gain=103.036 107.085 87.2463 78.7881 71.7316 58.3066 50.2824
threshold=66426.56089285716 2818.3987500000007 0.15740270270270273 450117.00000000006 126301.455 0.77095883534136556 486.50000000000006
decision_type=8 8 10 10 8 10 8
left_child=1 5 6 -4 -3 -1 -2
right_child=2 4 3 -5 -6 -7 -8
leaf_value=-0.021438438466759257 -0.015758472878534147 0.025730226896853888 0.027355862333205805 0.0045690136815593257 -0.0039942432219259374 0.010470447028092286 0.0037411564388983411
leaf_count=78398 28782 14562 27513 51768 48721 7189 50578
internal_value=0 -0.080167 0.0593988 0.142193 0.0411178 -0.174678 -0.0268372
internal_count=307511 148870 158641 79281 63283 85587 79360
shrinkage=0.1


Tree=62
num_leaves=8
num_cat=0
split_feature=122 53 122 122 465 369 359
split_gain=103.283 99.7074 141.474 52.8622 42.728 21.083 12.4397
threshold=10.265329860457697 1.0000000180025095e-35 21.463504360703066 9.4251269031361158 1.0000000180025095e-35 310509.00000000006 73407.285000000018
decision_type=10 2 10 8 10 10 10
left_child=3 4 -3 5 -2 -1 -5
right_child=1 2 -4 6 -6 -7 -8
leaf_value=0.0029436108366552504 -0.011109193376811644 0.013910748645503641 -0.0060812969681720329 -0.046557668798171366 0.083342863514455648 -0.027804249208993406 0.10282726798646136
leaf_count=7163 81661 100929 95362 16750 392 5149 105
internal_value=0 0.0187683 0.0602684 -0.243056 -0.102003 -0.0875178 -0.453051
internal_count=307511 278344 196291 29167 82053 12312 16855
shrinkage=0.1


Tree=63
num_leaves=8
num_cat=0
split_feature=37 0 2 462 38 419 308
split_gain=97.333 102.163 116.261 79.9954 22.1468 13.7538 12.8885
threshold=0.71905256719745669 16503.750000000004 450117.00000000006 12.500000000000002 0.6220741691655115 0.080137631975867277 25.500000000000004
decision_type=10 10 8 8 8 10 10
left_child=1 3 -3 -1 6 -6 -2
right_child=4 2 -4 -5 5 -7 -8
leaf_value=-0.018048267122108975 -0.017617666616095703 0.015315851404278755 -0.0022449962246141797 0.010952654612918488 -0.045079060303178792 0.097675156611231842 0.087045970691367963
leaf_count=53317 15641 76188 128009 17342 16675 152 187
internal_value=0 0.015594 0.0565166 -0.107588 -0.273134 -0.431458 -0.158121
internal_count=307511 274856 204197 70659 32655 16827 15828
shrinkage=0.1


Tree=64
num_leaves=8
num_cat=0
split_feature=36 0 2 336 462 479 38
split_gain=94.7207 92.3143 126.579 69.8361 15.1982 15.719 15.2112
threshold=0.69494041054371813 21039.750000000004 450117.00000000006 132519.80250000002 15.500000000000002 -294.51315789473682 0.13894432857919095
decision_type=10 10 8 10 10 10 8
left_child=1 3 -3 -1 6 -6 -2
right_child=4 2 -4 -5 5 -7 -8
leaf_value=-0.0098146400497441718 0.018640869150569301 0.019771734288529148 -0.00099306820508049246 0.024778403398687178 -0.01153561891658241 0.082367175681631211 -0.035688642345934989
leaf_count=100251 536 51409 120270 5898 3443 389 25315
internal_value=0 0.0148622 0.0682907 -0.0701034 -0.278573 -0.00497176 -0.327068
internal_count=307511 277828 171679 106149 29683 3832 25851
shrinkage=0.1


Tree=65
num_leaves=8
num_cat=0
split_feature=37 468 481 482 105 24 374
split_gain=92.0503 88.6487 113.357 70.994 22.8565 17.9418 17.8074
threshold=0.069159962952844628 1.0000000180025095e-35 -997.49999999999989 96318.134999999995 2.5000000000000004 -304.49999999999994 22176.045000000002
decision_type=10 8 10 10 2 2 10
left_child=4 3 -3 -2 5 -1 -6
right_child=1 2 -4 -5 6 -7 -8
leaf_value=0.012822928800239761 0.0038495296942396653 -0.001826613532815737 0.020556275131130675 -0.016092378826317377 0.037940621688665736 0.082881654036739374 0.10396195820696562
leaf_count=5086 35771 136395 30035 97179 2519 252 274
internal_value=0 -0.0169259 0.0375021 -0.0971969 0.267807 0.16429 0.454871
internal_count=307511 299380 166430 132950 8131 5338 2793
shrinkage=0.1


Tree=66
num_leaves=8
num_cat=0
split_feature=122 103 372 122 122 369 482
split_gain=91.5661 91.2297 90.5265 43.451 26.8844 19.1622 10.4682
threshold=10.265329860457697 9.5000000000000018 82824.442355769235 9.4251269031361158 14.96415181620471 45001.575000000004 101790.87750000002
decision_type=10 8 10 8 10 8 10
left_child=3 4 -3 5 -2 -1 -5
right_child=1 2 -4 6 -6 -7 -8
leaf_value=0.044104491011977637 0.005479507982445609 -0.00039890848487769849 0.015300804919896223 -0.015934428047165942 -0.01892968287375963 -0.013005158756136587 -0.04880128771475481
leaf_count=701 6913 161679 68209 2750 41543 11611 14105
internal_value=0 0.0176255 0.0460836 -0.230731 -0.143916 -0.0912911 -0.426572
internal_count=307511 278344 229888 29167 48456 12312 16855
shrinkage=0.1


Tree=67
num_leaves=8
num_cat=0
split_feature=27 454 460 36 486 22 353
split_gain=88.3375 79.246 92.2254 39.7423 36.7016 33.372 25.5092
threshold=1.0000000180025095e-35 18.003246753246756 -3.4999999999999996 0.61912691978803258 44062.740000000013 -19528.499999999996 -674.49999999999989
decision_type=10 10 8 10 10 2 8
left_child=1 2 -1 -3 6 -6 -2
right_child=4 3 -4 -5 5 -7 -8
leaf_value=0.0022673499617446645 0.16682955610840894 0.021733215473120404 -0.012587579019557482 -0.021927585898807226 -0.009472104436582876 0.018822311340198881 0.042829325986502319
leaf_count=126848 266 20808 120369 4320 8981 22781 3138
internal_value=0 -0.0254974 -0.0478054 0.164561 0.166608 0.127482 0.51253
internal_count=307511 272345 247217 25128 35166 31762 3404
shrinkage=0.1


Tree=68
num_leaves=8
num_cat=0
split_feature=18 36 89 122 103 22 22
split_gain=87.9187 88.2007 83.2342 77.3268 57.8572 52.5993 44.843
threshold=1.0000000180025095e-35 0.31124741408724893 1.5000000000000002 10.265329860457697 16.500000000000004 -12570.499999999998 -9926.4999999999982
decision_type=2 8 2 10 8 2 2
left_child=2 5 4 -3 -1 -2 -4
right_child=1 3 6 -5 -6 -7 -8
leaf_value=-0.0073960759494852953 0.053544260709244146 -0.03960920518708036 0.038528301874995903 -0.0059697529531249835 0.010942484139605449 0.0076251287709508181 -0.020869180586677638
leaf_count=41467 3442 16649 12997 172698 49377 9663 1218
internal_value=0 -0.0524967 0.0785356 -0.0808888 0.0371106 0.186637 0.317097
internal_count=307511 202452 105059 189347 90844 13105 14215
shrinkage=0.1


Tree=69
num_leaves=8
num_cat=0
split_feature=111 299 174 236 373 36 120
split_gain=85.4875 77.9275 73.9318 49.8041 42.0932 34.8028 12.1919
threshold=0.03595000000000001 0.30053763440860221 36.500000000000007 2.5000000000000004 252130.59000000003 0.10969878981397295 6.1117857142857153
decision_type=10 8 8 10 10 8 2
left_child=1 4 -3 5 -1 -2 -5
right_child=3 2 -4 6 -6 -7 -8
leaf_value=-0.026061003365988857 0.049970924374016346 0.0017132566080344117 0.01815878765857214 -0.040155678442686416 0.0065789457251759541 -0.0069086481126367245 -0.0024117852650217815
leaf_count=18759 782 107079 48424 10893 8796 110459 2319
internal_value=0 0.0463479 0.0752248 -0.0853103 -0.150098 -0.0601441 -0.344085
internal_count=307511 183058 155503 124453 27555 111241 13212
shrinkage=0.1


Tree=70
num_leaves=8
num_cat=0
split_feature=24 88 488 1 22 231 36
split_gain=81.4479 76.226 68.3787 46.1049 39.7261 37.4235 35.845
threshold=-4213.4999999999991 1.0000000180025095e-35 10327.432500000001 305977.50000000006 -9783.4999999999982 1.5000000000000002 0.25784176210723903
decision_type=2 2 10 2 2 10 8
left_child=3 2 -2 5 -3 -1 -5
right_child=1 4 -4 6 -6 -7 -8
leaf_value=-0.015855351439677166 0.021319517828372408 -0.003919158066706353 0.0033372594191657442 0.03393529350557261 -0.030270732425482089 -0.051204947190712641 -0.0073968824036291765
leaf_count=18364 31516 58011 122569 2158 8104 7894 58895
internal_value=0 0.034263 0.0740192 -0.109077 -0.0842773 -0.256235 -0.0491326
internal_count=307511 220200 154085 87311 66115 26258 61053
shrinkage=0.1


Tree=71
num_leaves=8
num_cat=0
split_feature=106 393 18 38 26 121 446
split_gain=80.3608 82.1697 74.5747 42.8414 36.3322 33.9678 21.6882
threshold=2.5000000000000004 4.5000000000000009 1.0000000180025095e-35 0.08364060069910545 -9015.4999999999982 0.2166309523809524 0.52985739750445637
decision_type=2 10 2 8 2 10 10
left_child=1 2 -1 -3 6 -6 -2
right_child=4 3 -4 -5 5 -7 -8
leaf_value=0.0030906270041806227 -0.022764329060848052 0.068880120948643389 -0.010837140699999814 0.01283203310072981 0.0091555030381643802 0.030309100272866742 0.095488743260070064
leaf_count=84452 5039 937 158635 19627 25780 12881 160
internal_value=0 -0.0291074 -0.0517029 0.177031 0.131927 0.163738 -0.172003
internal_count=307511 263651 243087 20564 43860 38661 5199
shrinkage=0.1


Tree=72
num_leaves=8
num_cat=0
split_feature=446 393 486 164 367 468 339
split_gain=78.1691 73.0409 93.4953 48.3285 42.8272 36.9666 24.2576
threshold=0.045663052543786498 4.5000000000000009 349665.7275000001 29.500000000000004 129864.87000000001 69.500000000000014 3.5000000000000004
decision_type=10 10 10 8 10 10 10
left_child=1 2 -1 -3 5 -2 -6
right_child=4 3 -4 -5 6 -7 -8
leaf_value=0.0015114427590877401 0.027065788290170135 3.0922988855906894e-05 -0.013783268665913732 0.03241034979611427 0.0071153054236721917 0.093013370003140042 0.13934318468505164
leaf_count=145392 6713 11530 106905 9990 26042 809 130
internal_value=0 -0.0245597 -0.0455035 0.163734 0.15296 0.360068 0.0802268
internal_count=307511 273817 252297 21520 33694 7522 26172
shrinkage=0.1


Tree=73
num_leaves=8
num_cat=0
split_feature=462 460 486 0 486 336 480
split_gain=80.6067 117.532 117.513 76.954 35.8322 35.8471 23.3105
threshold=21.500000000000004 -3.4999999999999996 98935.987500000017 25301.250000000004 349665.7275000001 173133.27000000002 -17.499999999999996
decision_type=10 10 10 10 8 10 10
left_child=1 3 -3 -1 6 -6 -2
right_child=4 2 -4 -5 5 -7 -8
leaf_value=-0.0037398708897161573 0.0376785042622318 0.015463684978361675 -0.01660865631935626 0.012459942688162948 0.0092106207986340696 0.067145257943372214 0.10691956090388166
leaf_count=79034 2982 15973 100901 88790 17929 1166 736
internal_value=0 -0.0182753 -0.111261 0.0455779 0.2145 0.144307 0.536073
internal_count=307511 284698 116874 167824 22813 19095 3718
shrinkage=0.1


Tree=74
num_leaves=8
num_cat=0
split_feature=23 164 486 392 121 176 408
split_gain=77.3767 72.4103 115.895 48.6618 23.4189 25.2985 24.4565
threshold=-4025.4999999999995 27.000000000000004 349665.7275000001 1421687.7900000003 0.20749705882352945 193.50000000000003 166604.06250000003
decision_type=2 10 10 10 10 8 10
left_child=4 2 -2 -3 5 -1 -6
right_child=1 3 -4 -5 6 -7 -8
leaf_value=-0.039413366634234892 0.0035050063237153056 0.0061458880494224127 -0.017734882538443731 0.027581998917215897 -0.010325943609638601 -0.013486182650454308 0.040501419241309559
leaf_count=13308 133390 57102 57000 16591 11986 16237 1897
internal_value=0 0.0201518 -0.0203803 0.113682 -0.173663 -0.24268 -0.0255325
internal_count=307511 264083 190390 73693 43428 29545 13883
shrinkage=0.1


Tree=75
num_leaves=8
num_cat=0
split_feature=381 103 0 123 113 114 413
split_gain=73.6052 72.2104 77.0032 22.7821 13.5868 12.7065 12.5289
threshold=8088.7500000000009 8.5000000000000018 25391.250000000004 0.15182578923076939 2.5000000000000004 0.98785000000000012 41917.320000000007
decision_type=10 8 10 2 2 8 8
left_child=1 3 -3 -1 6 -6 -2
right_child=4 2 -4 -5 5 -7 -8
leaf_value=-0.008876775022804961 0.029234449918621737 -0.0040557392717945505 0.0089027303340716846 -0.02796692615302291 -0.011466665096236051 0.10615906327927833 0.17717748063659966
leaf_count=29602 60 138925 119702 18805 99 131 187
internal_value=0 -0.00417365 0.0186079 -0.152708 1.00795 0.530774 1.44306
internal_count=307511 307034 258627 48407 477 230 247
shrinkage=0.1


Tree=76
num_leaves=8
num_cat=0
split_feature=37 361 372 487 353 225 149
split_gain=72.0869 65.9213 92.7579 77.5517 21.9804 15.5527 11.2412
threshold=0.7051774421261251 2617.8750000000005 40227.867857142868 6991.9923529411817 1197.5000000000002 1.0000000180025095e-35 0.1527479295029843
decision_type=10 8 10 10 10 10 10
left_child=1 2 -1 -3 6 -6 -2
right_child=4 3 -4 -5 5 -7 -8
leaf_value=-0.018741676366156541 -0.026812496900993979 0.018347314378459746 0.0039372039512925094 0.00095164463998660676 -0.019996378434615686 0.011697783165048117 -0.067584418171098379
leaf_count=53643 25385 42412 53726 115254 9238 5583 2270
internal_value=0 0.0156946 -0.0595518 0.059951 -0.206029 -0.0585833 -0.301244
internal_count=307511 265035 107369 157666 42476 14821 27655
shrinkage=0.1


Tree=77
num_leaves=8
num_cat=0
split_feature=107 468 474 228 22 117 37
split_gain=71.3485 74.7977 77.0503 64.5144 50.7365 27.3611 23.3595
threshold=1.0000000180025095e-35 4.5000000000000009 -31142.499999999996 1.0000000180025095e-35 -10784.499999999998 0.67700000000000016 0.05781745973981154
decision_type=2 10 10 10 2 10 10
left_child=1 3 -3 -1 5 -2 -6
right_child=4 2 -4 -5 6 -7 -8
leaf_value=-0.0099897865910228596 0.033926275144360057 -0.0029244932316919406 0.017519667984436937 0.011410154019294971 0.057755081730868664 -0.013915465630709375 -0.0076436425381708646
leaf_count=166117 14601 63363 34053 19939 318 1896 7224
internal_value=0 -0.019933 0.0577636 -0.0699611 0.173093 0.291994 -0.026832
internal_count=307511 283472 97416 186056 24039 16497 7542
shrinkage=0.1


Tree=78
num_leaves=8
num_cat=0
split_feature=91 36 454 36 123 472 479
split_gain=68.4322 63.3927 62.8646 39.5473 36.7963 18.7023 18.2064
threshold=1.0000000180025095e-35 0.63235290934851551 13.04587542087542 0.15576399440127386 0.31076965756372282 4500.0225000000019 -149.4083333333333
decision_type=2 10 10 8 2 10 10
left_child=1 2 -1 6 -5 -3 -2
right_child=3 5 -4 4 -6 -7 -8
leaf_value=0.0031132424926472962 0.02596316000179405 -0.035843256390430997 0.022198685368035757 -0.0060669870769484288 -0.031574951962764664 -0.003571731023646248 0.15950660889224813
leaf_count=117387 1938 11913 23407 134335 12389 6067 75
internal_value=0 0.0475344 0.0659422 -0.0671287 -0.0785695 -0.231388 0.319181
internal_count=307511 158774 140794 148737 146724 17980 2013
shrinkage=0.1


Tree=79
num_leaves=8
num_cat=0
split_feature=27 38 336 300 487 351 134
split_gain=67.9112 63.456 64.7993 30.1927 27.3333 23.6448 16.3288
threshold=1.0000000180025095e-35 0.09538156003579823 132519.80250000002 6.5000000000000009 5992.7118333333337 -3490.4999999999995 7763791.5000000009
decision_type=10 8 10 8 10 10 10
left_child=1 5 -3 6 -5 -1 -2
right_child=3 2 -4 4 -6 -7 -8
leaf_value=-0.024700731838169777 -0.0099668799514217813 -0.0052257898905750007 0.016397598812435885 0.039931944093229428 0.013505618717051289 0.03422291669261051 0.11860986768969427
leaf_count=540 6912 252296 15798 5720 22424 3711 110
internal_value=0 -0.0224736 -0.0339358 0.145405 0.195168 0.276357 -0.0731087
internal_count=307511 272345 268094 35166 28144 4251 7022
shrinkage=0.1


Tree=80
num_leaves=8
num_cat=0
split_feature=37 236 300 427 0 385 389
split_gain=66.0852 66.3671 61.2319 56.8222 44.5351 26.032 20.2808
threshold=0.18397173769750691 1.5000000000000002 1.5000000000000002 1.6568627450980393 24122.250000000004 -4.4999999999999991 141304.50000000003
decision_type=10 10 8 8 10 10 10
left_child=3 2 -2 6 -3 -5 -1
right_child=1 4 -4 5 -6 -7 -8
leaf_value=-0.011481538379755747 -0.019783211897611196 -0.022199914102888227 0.0035826509491661516 0.017688373696447688 -0.0033753969794502732 0.060458300571044066 0.12823498922041443
leaf_count=6142 22536 39770 173585 17949 46355 1098 76
internal_value=0 -0.0247419 0.0133042 0.128001 -0.121705 0.203135 -0.0966125
internal_count=307511 282246 196121 25265 86125 19047 6218
shrinkage=0.1


Tree=81
num_leaves=8
num_cat=0
split_feature=68 300 176 163 87 466 101
split_gain=65.4634 71.4662 106.764 41.6262 29.5676 22.7179 16.0109
threshold=0.17710000000000001 6.5000000000000009 280.50000000000006 11.023809523809526 1.0000000180025095e-35 -10.499999999999998 3.5000000000000004
decision_type=10 8 10 10 2 10 2
left_child=1 3 -3 -1 5 -2 -6
right_child=4 2 -4 -5 6 -7 -8
leaf_value=-0.024563207129837488 -0.011697392100082509 -0.00056968475908628373 0.017643964760540413 -0.0014980959093858544 -0.058635381319335822 0.032302946846083737 -0.0088219338023167171
leaf_count=21607 50242 143057 57782 26783 4545 1617 1878
internal_value=0 0.0232211 0.0527534 -0.111436 -0.129267 -0.099117 -0.426729
internal_count=307511 249229 200839 48390 58282 51859 6423
shrinkage=0.1


Tree=82
num_leaves=8
num_cat=0
split_feature=120 2 1 462 1 36 480
split_gain=62.8504 90.9596 121.152 62.2419 60.4521 39.3666 38.4142
threshold=2.2500028125070317 450117.00000000006 463527.00000000006 12.500000000000002 540180.00000000012 0.07609358011555542 -20.499999999999996
decision_type=2 8 2 10 2 8 10
left_child=3 2 -2 5 -3 -1 -5
right_child=1 4 -4 6 -6 -7 -8
leaf_value=0.076246752376723403 0.003715090857860575 -0.027554733524243424 0.034089884070572694 -0.0018703801797680091 -0.00035277362052281067 -0.013816630076599957 0.036107802829954926
leaf_count=338 58158 14468 18169 9686 125884 75418 5390
internal_value=0 0.0347069 0.12478 -0.0840389 -0.0327316 -0.129651 0.130923
internal_count=307511 216679 76327 90832 140352 75756 15076
shrinkage=0.1


Tree=83
num_leaves=8
num_cat=0
split_feature=106 0 2 159 407 480 69
split_gain=61.179 68.8068 95.5979 60.6205 30.9641 31.7024 15.9495
threshold=1.5000000000000002 26448.750000000004 450117.00000000006 56.527777777777793 43094.250000000007 -1419.4999999999998 1.0000000180025095e-35
decision_type=2 10 8 10 10 8 8
left_child=4 3 -3 -2 5 -1 -6
right_child=1 2 -4 -5 6 -7 -8
leaf_value=0.10637973239461529 0.0036705608015028014 0.025394965551812899 0.0015579110995430549 -0.010887839395517601 0.0897487353794124 -0.0028240119745000162 -0.027253491359582112
leaf_count=493 76589 23762 91207 81786 197 8331 25146
internal_value=0 0.0154289 0.0859633 -0.0344735 -0.179024 0.0328992 -0.261423
internal_count=307511 273344 114969 158375 34167 8824 25343
shrinkage=0.1


Tree=84
num_leaves=8
num_cat=0
split_feature=103 18 22 22 228 471 353
split_gain=60.8074 65.8815 66.2589 65.0245 32.212 38.4221 22.6216
threshold=16.500000000000004 1.0000000180025095e-35 -9596.4999999999982 -16977.499999999996 1.0000000180025095e-35 1476.4152941176478 -84.499999999999986
decision_type=8 2 2 2 10 10 10
left_child=4 2 -2 -3 5 -1 -6
right_child=1 3 -4 -5 6 -7 -8
leaf_value=-0.016633717499796963 0.01630722487163425 -0.011043921142470787 -0.017765011247864979 0.0048408086750365252 0.040499822541491898 0.010998849071937497 5.5718172334532392e-08
leaf_count=64524 53268 81312 5207 84904 2044 7527 8725
internal_value=0 0.0299424 0.121214 -0.0150258 -0.0939753 -0.129585 0.0778498
internal_count=307511 224691 58475 166216 82820 72051 10769
shrinkage=0.1


Tree=85
num_leaves=8
num_cat=0
split_feature=24 22 23 36 38 446 352
split_gain=60.9842 62.4633 70.928 43.08 35.4508 37.5495 29.2789
threshold=-4213.4999999999991 -9783.4999999999982 -1487.4999999999998 0.13851154016407838 0.60841648376416824 0.21231060606060609 -388.47857142857134
decision_type=2 2 2 10 8 10 10
left_child=4 2 -2 -3 6 -6 -1
right_child=1 3 -4 -5 5 -7 -8
leaf_value=-0.017614942738777294 -0.0027345969730355538 -0.00047797352242460469 0.011586835282557897 -0.029619853588401218 -0.022926441758969671 0.026484445366376053 0.004092652332580618
leaf_count=13950 96109 10393 104101 9597 43705 2308 27348
internal_value=0 0.029615 0.0535377 -0.132431 -0.095327 -0.191743 -0.0237021
internal_count=307511 220200 200210 19990 87311 46013 41298
shrinkage=0.1


Tree=86
num_leaves=8
num_cat=0
split_feature=88 481 140 88 393 373 466
split_gain=58.8442 62.227 56.3494 31.3306 27.6112 26.7056 20.6615
threshold=1.0000000180025095e-35 -2735.4999999999995 17345.250000000004 2.5000000000000004 8.5000000000000018 497025.00000000006 -504.49999999999994
decision_type=2 8 10 2 10 10 8
left_child=1 5 -3 4 -2 -1 -5
right_child=3 2 -4 6 -6 -7 -8
leaf_value=-0.019851877104462016 -0.012217798456121726 0.0076811409299477919 -0.0112436321210477 -0.029595174218729283 0.059022682071151869 0.0066414892962870621 0.034989222312662042
leaf_count=26385 84563 156127 28693 940 577 7186 3040
internal_value=0 0.0289178 0.05261 -0.0941843 -0.113925 -0.133706 0.217079
internal_count=307511 218391 184820 89120 85140 33571 3980
shrinkage=0.1


Tree=87
num_leaves=8
num_cat=0
split_feature=403 401 368 408 228 120 411
split_gain=57.8225 62.5334 59.4193 51.4599 48.6062 37.5677 36.3333
threshold=486.50000000000006 -272.49999999999994 48707.07 126869.40000000001 1.0000000180025095e-35 2.2500028125070317 3.5000000000000004
decision_type=8 10 10 8 10 2 10
left_child=2 4 6 -3 -2 -4 -1
right_child=1 3 5 -5 -6 -7 -8
leaf_value=0.014280803858517066 -0.0030083371083384886 4.7787172956088499e-05 -0.018056265121281879 0.026714334435348909 0.019055166739384212 -0.0039490301564191052 0.14606912012162718
leaf_count=14706 93487 12441 44026 24231 11994 106421 205
internal_value=0 0.0492584 -0.0551285 0.16917 0.00219311 -0.0810501 0.170611
internal_count=307511 142153 165358 36672 105481 150447 14911
shrinkage=0.1


Tree=88
num_leaves=8
num_cat=0
split_feature=462 460 486 163 470 398 96
split_gain=56.6833 100.279 99.1571 53.5054 29.2976 30.0259 12.847
threshold=17.500000000000004 -3.4999999999999996 113127.14250000003 12.405882352941179 -473838.07499999995 5066725.5000000009 0.00075000000000000012
decision_type=10 10 10 10 10 8 8
left_child=1 3 -3 -1 6 -6 -2
right_child=4 2 -4 -5 5 -7 -8
leaf_value=-0.00079769715281577652 0.027677744687043756 0.011192063923610024 -0.016861664249042209 0.013512731887026952 0.096477203951759127 0.01712325130417814 -0.036743353352801607
leaf_count=116477 685 18815 91360 51330 744 25742 2358
internal_value=0 -0.0177014 -0.108307 0.0400238 0.155516 0.192064 -0.227304
internal_count=307511 277982 110175 167807 29529 26486 3043
shrinkage=0.1


Tree=89
num_leaves=8
num_cat=0
split_feature=106 487 18 103 26 37 455
split_gain=54.9712 50.9739 50.2361 32.6936 26.5878 27.2132 19.161
threshold=2.5000000000000004 3907.465714285715 1.0000000180025095e-35 31.500000000000004 -9015.4999999999982 0.023711236871581033 35.500000000000007
decision_type=2 8 2 8 2 10 10
left_child=1 3 -3 -1 6 -6 -2
right_child=4 2 -4 -5 5 -7 -8
leaf_value=-0.0098684817198942607 -0.029277193748545368 0.002897928929684298 -0.0084089170662590956 0.028273268433314704 0.056845667925998891 0.011669023948751293 0.024587036191480258
leaf_count=4001 4059 85681 164108 9861 852 37809 1140
internal_value=0 -0.0243033 -0.038603 0.180165 0.108593 0.135267 -0.15474
internal_count=307511 263651 249789 13862 43860 38661 5199
shrinkage=0.1


Tree=90
num_leaves=8
num_cat=0
split_feature=122 107 129 22 18 368 484
split_gain=53.9363 53.9885 61.0539 39.7485 27.4401 18.2102 17.177
threshold=10.265329860457697 1.0000000180025095e-35 2736.1125000000006 -12050.499999999998 1.0000000180025095e-35 84724.305000000008 5641.920000000001
decision_type=10 2 8 2 2 8 10
left_child=4 2 -2 -3 5 -1 -6
right_child=1 3 -4 -5 6 -7 -8
leaf_value=0.026623247693371571 0.01258261206637531 0.031565783243832954 -0.0030627344716565789 0.003193037584795735 0.018681654021977155 -0.01239641046798429 -0.036122564103376963
leaf_count=2123 38247 11760 218393 9944 1088 9355 16601
internal_value=0 0.0133585 -0.00411645 0.169601 -0.18252 -0.0461361 -0.31668
internal_count=307511 278344 256640 21704 29167 11478 17689
shrinkage=0.1


Tree=91
num_leaves=8
num_cat=0
split_feature=380 369 372 453 401 123 24
split_gain=54.0605 53.9392 54.3339 15.7078 10.4551 11.4222 8.61322
threshold=1427.9062500000002 5355900.0000000009 82824.442355769235 1028.5000000000002 -471.49999999999994 0.050451413683928366 -3328.4999999999995
decision_type=10 10 8 10 10 2 2
left_child=1 2 -1 -3 5 -2 -6
right_child=4 3 -4 -5 6 -7 -8
leaf_value=-0.0050089447369114186 -0.035654916066758628 -0.04131628156188541 0.0052304378728477326 0.05308834325214954 0.19646770167631539 0.088645719752997523 0.084715827234126628
leaf_count=159844 75 6849 140141 260 78 140 124
internal_value=0 -0.00341259 0.00352555 -0.368881 0.897584 0.437113 1.27646
internal_count=307511 307094 299985 7109 417 215 202
shrinkage=0.1


Tree=92
num_leaves=8
num_cat=0
split_feature=405 471 38 357 403 375 401
split_gain=53.9643 57.1731 49.5421 36.96 29.161 34.9848 23.0597
threshold=2892.9825000000005 150.35051020408164 0.14599244001433329 -506.49999999999994 763.50000000000011 67308.030000000013 -356.49999999999994
decision_type=10 10 8 10 10 10 10
left_child=1 2 -1 -3 5 -2 -6
right_child=4 3 -4 -5 6 -7 -8
leaf_value=0.018359356078063927 0.014349072775788986 0.012167877032146572 -0.0074466700447992883 -0.0025131375696568685 0.018255778536282942 -0.03611336981097335 0.068104486842275949
leaf_count=5141 18022 45808 192132 40109 2852 1822 1625
internal_value=0 -0.016835 -0.0577591 0.0558319 0.155474 0.0960894 0.403037
internal_count=307511 283190 197273 85917 24321 19844 4477
shrinkage=0.1


Tree=93
num_leaves=8
num_cat=0
split_feature=27 121 23 2 466 353 190
split_gain=51.3632 50.1587 49.11 42.1755 22.5498 18.8786 17.9266
threshold=1.0000000180025095e-35 0.19315192307692308 -4025.4999999999995 675191.25000000012 -137.49999999999997 -565.49999999999989 10.500000000000002
decision_type=10 10 2 10 8 8 10
left_child=1 2 -1 -3 6 -6 -2
right_child=4 3 -4 -5 5 -7 -8
leaf_value=-0.025001369285492098 0.0014200046004016883 0.010137857445828295 -0.0037503846873227693 -0.0066495405570558431 0.075134196729489885 0.02062848174422463 0.029973341014449026
leaf_count=24514 20633 60057 147329 40445 920 10595 3018
internal_value=0 -0.0196666 -0.0599761 0.0478313 0.125945 0.243679 0.0566306
internal_count=307511 272345 171843 100502 35166 11515 23651
shrinkage=0.1


Tree=94
num_leaves=8
num_cat=0
split_feature=24 36 336 486 23 22 449
split_gain=51.4653 50.0847 53.8499 33.042 22.7769 15.9729 14.1727
threshold=-491.49999999999994 0.10969878981397295 174388.41 42207.052500000005 -3059.4999999999995 -10610.499999999998 152.50000000000003
decision_type=2 8 10 8 2 2 8
left_child=1 5 -3 6 -5 -1 -2
right_child=3 2 -4 4 -6 -7 -8
leaf_value=0.058374359706658434 0.085989823491786271 -0.0035491406847845742 0.0175698450939368 -0.013221566151477166 0.019230941391105892 0.015271856886094346 -0.0077513882710947661
leaf_count=1163 955 271187 13351 4693 14740 1271 151
internal_value=0 -0.0144065 -0.0212979 0.174117 0.133375 0.357186 0.702102
internal_count=307511 286972 284538 20539 19433 2434 1106
shrinkage=0.1


Tree=95
num_leaves=8
num_cat=0
split_feature=462 460 486 163 472 482 369
split_gain=49.4713 74.542 78.8118 47.8574 25.8649 28.6103 19.1813
threshold=21.500000000000004 -4.4999999999999991 148534.85250000001 12.405882352941179 50503.297500000008 303257.87999999995 895502.40750000009
decision_type=10 10 10 10 10 8 8
left_child=1 3 -3 -1 5 -2 -6
right_child=4 2 -4 -5 6 -7 -8
leaf_value=-0.00066415257799986509 0.045889091494316039 0.0068259673405992516 -0.014492808593004428 0.013318394513942292 0.0026184696723061396 0.0090978317632226507 0.17660129256778881
leaf_count=110704 3119 29375 97152 47467 159 19338 197
internal_value=0 -0.0145199 -0.0846389 0.039817 0.165818 0.148643 1.10994
internal_count=307511 284698 126527 158171 22813 22457 356
shrinkage=0.1


Tree=96
num_leaves=8
num_cat=0
split_feature=300 471 393 275 367 22 179
split_gain=48.4861 50.9476 60.4312 41.0571 39.9599 26.4888 23.3956
threshold=17.500000000000004 1309.7317826086955 3.5000000000000004 3976.5788073005101 224997.75000000003 -11403.499999999998 121571.16666666667
decision_type=10 10 10 8 10 2 8
left_child=1 2 -1 6 -3 -5 -2
right_child=3 4 -4 5 -6 -7 -8
leaf_value=-0.005980128828373797 0.27929007121133564 0.027338550673967843 0.0093887375538904069 0.02968808221285868 0.002813011060435393 -0.0067541740135668134 0.075578243504761111
leaf_count=223235 95 10416 39588 6524 25114 2399 140
internal_value=0 -0.0108433 -0.0318984 0.220313 0.10877 0.182615 1.39768
internal_count=307511 298353 262823 9158 35530 8923 235
shrinkage=0.1


Tree=97
num_leaves=8
num_cat=0
split_feature=37 24 22 1 9 385 38
split_gain=48.4057 46.8547 56.186 28.1052 18.5627 11.973 10.7763
threshold=0.71905256719745669 -4255.4999999999991 -9783.4999999999982 301518.00000000006 1.5000000000000002 -23.499999999999996 0.071772932460555119
decision_type=10 2 2 2 10 10 8
left_child=1 3 -3 -1 6 -6 -2
right_child=4 2 -4 -5 5 -7 -8
leaf_value=-0.020599611478822489 0.078647518175388662 0.005998033858875749 -0.011902532961315576 -0.0029417496870297001 -0.026163952623186666 0.0058483036469462891 -0.033180478067918018
leaf_count=22041 85 183122 19264 50429 6006 7537 19027
internal_value=0 0.0108898 0.0368276 -0.0792193 -0.201522 -0.0562862 -0.315867
internal_count=307511 274856 202386 72470 32655 13543 19112
shrinkage=0.1


Tree=98
num_leaves=7
num_cat=0
split_feature=36 103 486 484 37 120
split_gain=47.9047 48.5207 49.6322 36.8295 15.0477 13.6782
threshold=0.70091770255734709 27.500000000000004 210819.75749999995 161211.19500000004 0.010403997785698622 8.1526057142857162
decision_type=10 8 10 10 10 2
left_child=1 3 -3 -1 -2 -6
right_child=4 2 -4 -5 5 -7
leaf_value=-0.010571844685286075 0.12284960526523279 0.010718216078038186 -0.0012187772208815005 0.0078155764064852026 -0.02588735132007346 0.014680139317750064
leaf_count=70327 100 80880 108221 19501 25841 2641
internal_value=0 0.0102252 0.0428112 -0.063626 -0.211832 -0.222547
internal_count=307511 278929 189101 89828 28582 28482
shrinkage=0.1


Tree=99
num_leaves=8
num_cat=0
split_feature=294 176 486 490 328 163 460
split_gain=46.4677 65.6673 92.8529 46.6252 31.5122 18.1068 15.4496
threshold=1.5000000000000002 237.50000000000003 441283.36500000017 60.500000000000007 222750.00000000003 17.781746031746035 -8.4999999999999982
decision_type=8 10 10 10 10 10 10
left_child=4 2 -2 -3 5 -1 -6
right_child=1 3 -4 -5 6 -7 -8
leaf_value=-0.012529780261155938 0.00081977987594062838 0.015088703310976262 -0.023648493864241248 -0.001438670026538519 -0.0062733795118019575 0.01076232554617243 -0.043741152743388911
leaf_count=21531 140208 57396 33740 37793 2754 6155 7934
internal_value=0 0.0160689 -0.0309903 0.090103 -0.133184 -0.0667123 -0.3371
internal_count=307511 269137 173948 95189 38374 27686 10688
shrinkage=0.1


Tree=100
num_leaves=8
num_cat=0
split_feature=122 122 2 18 483 433 484
split_gain=46.1115 59.5876 86.1534 47.0811 14.5426 16.4356 8.27735
threshold=37.44855536588576 36.367029450607923 807750.00000000012 1.0000000180025095e-35 25120.712898217364 5.5000000000000009 4243.1175000000012
decision_type=8 10 10 2 8 8 10
left_child=1 3 -3 -1 6 -6 -2
right_child=4 2 -4 -5 5 -7 -8
leaf_value=0.0060693425095308257 0.046901586781845056 0 0.28627286157293813 -0.0036297383040932601 0.085017429276214182 -0.028722745239975606 -0.069708443050548463
leaf_count=102576 72 412 416 198282 222 3063 2468
internal_value=0 0.00504463 1.16212 0.00254473 -0.394893 -0.185515 -0.641962
internal_count=307511 301686 828 300858 5825 3285 2540
shrinkage=0.1


Tree=101
num_leaves=8
num_cat=0
split_feature=409 403 38 407 333 270 374
split_gain=45.278 51.3232 57.2284 50.2346 13.4915 23.6966 10.9967
threshold=49524.795000000006 486.50000000000006 0.62037702305691089 27905.400000000005 13964.580000000002 203883.97500000001 -278.23499999999996
decision_type=10 8 8 10 10 10 8
left_child=1 3 -3 -1 6 -6 -2
right_child=4 2 -4 -5 5 -7 -8
leaf_value=0.014457089086457623 0.055619432352762267 0.012624312561795409 -0.0020967991073155136 -0.0070584169868610274 0.17671579362232734 -0.024786665475219079 -0.032604195708216314
leaf_count=18413 233 62361 71542 146164 99 166 8533
internal_value=0 0.00741222 0.0560204 -0.0439041 -0.27151 0.439067 -0.303434
internal_count=307511 298480 133903 164577 9031 265 8766
shrinkage=0.1


Tree=102
num_leaves=8
num_cat=0
split_feature=0 2 127 122 462 37 38
split_gain=44.9427 69.4239 67.0424 49.0765 46.1807 43.1043 34.5042
threshold=23951.250000000004 675191.25000000012 12821.231250000003 27.10028289072002 14.500000000000002 0.35326989454242513 0.67778009598813893
decision_type=10 8 10 10 10 10 8
left_child=4 2 -2 -3 5 -1 -6
right_child=1 3 -4 -5 6 -7 -8
leaf_value=0.0011733584637186594 0.019665976222664222 -0.019200520392529629 -0.0001764698303774916 0.0029159353065176504 0.02113338133972531 -0.013439594741052725 -0.0097108861032141301
leaf_count=30230 44274 31890 40767 45511 13543 92853 8443
internal_value=0 0.0436266 0.105768 -0.0574571 -0.0486255 -0.0780847 0.106385
internal_count=307511 162442 85041 77401 145069 123083 21986
shrinkage=0.1


Tree=103
num_leaves=8
num_cat=0
split_feature=446 122 122 468 481 486 165
split_gain=44.3713 48.4146 75.4292 31.4942 22.298 22.1615 20.5711
