tree
version=v2
num_class=1
num_tree_per_iteration=1
label_index=0
max_feature_idx=146
objective=binary sigmoid:1
feature_names=NAME_CONTRACT_TYPE CODE_GENDER FLAG_OWN_CAR FLAG_OWN_REALTY CNT_CHILDREN AMT_INCOME_TOTAL AMT_CREDIT AMT_ANNUITY AMT_GOODS_PRICE NAME_TYPE_SUITE NAME_INCOME_TYPE NAME_EDUCATION_TYPE NAME_FAMILY_STATUS NAME_HOUSING_TYPE REGION_POPULATION_RELATIVE DAYS_BIRTH DAYS_EMPLOYED DAYS_REGISTRATION DAYS_ID_PUBLISH OWN_CAR_AGE FLAG_MOBIL FLAG_EMP_PHONE FLAG_WORK_PHONE FLAG_CONT_MOBILE FLAG_PHONE FLAG_EMAIL OCCUPATION_TYPE CNT_FAM_MEMBERS REGION_RATING_CLIENT REGION_RATING_CLIENT_W_CITY WEEKDAY_APPR_PROCESS_START HOUR_APPR_PROCESS_START REG_REGION_NOT_LIVE_REGION REG_REGION_NOT_WORK_REGION LIVE_REGION_NOT_WORK_REGION REG_CITY_NOT_LIVE_CITY REG_CITY_NOT_WORK_CITY LIVE_CITY_NOT_WORK_CITY ORGANIZATION_TYPE EXT_SOURCE_1 EXT_SOURCE_2 EXT_SOURCE_3 APARTMENTS_AVG BASEMENTAREA_AVG YEARS_BEGINEXPLUATATION_AVG YEARS_BUILD_AVG COMMONAREA_AVG ELEVATORS_AVG ENTRANCES_AVG FLOORSMAX_AVG FLOORSMIN_AVG LANDAREA_AVG LIVINGAPARTMENTS_AVG LIVINGAREA_AVG NONLIVINGAPARTMENTS_AVG NONLIVINGAREA_AVG APARTMENTS_MODE BASEMENTAREA_MODE YEARS_BEGINEXPLUATATION_MODE YEARS_BUILD_MODE COMMONAREA_MODE ELEVATORS_MODE ENTRANCES_MODE FLOORSMAX_MODE FLOORSMIN_MODE LANDAREA_MODE LIVINGAPARTMENTS_MODE LIVINGAREA_MODE NONLIVINGAPARTMENTS_MODE NONLIVINGAREA_MODE APARTMENTS_MEDI BASEMENTAREA_MEDI YEARS_BEGINEXPLUATATION_MEDI YEARS_BUILD_MEDI COMMONAREA_MEDI ELEVATORS_MEDI ENTRANCES_MEDI FLOORSMAX_MEDI FLOORSMIN_MEDI LANDAREA_MEDI LIVINGAPARTMENTS_MEDI LIVINGAREA_MEDI NONLIVINGAPARTMENTS_MEDI NONLIVINGAREA_MEDI FONDKAPREMONT_MODE HOUSETYPE_MODE TOTALAREA_MODE WALLSMATERIAL_MODE EMERGENCYSTATE_MODE OBS_30_CNT_SOCIAL_CIRCLE DEF_30_CNT_SOCIAL_CIRCLE OBS_60_CNT_SOCIAL_CIRCLE DEF_60_CNT_SOCIAL_CIRCLE DAYS_LAST_PHONE_CHANGE FLAG_DOCUMENT_2 FLAG_DOCUMENT_3 FLAG_DOCUMENT_4 FLAG_DOCUMENT_5 FLAG_DOCUMENT_6 FLAG_DOCUMENT_7 FLAG_DOCUMENT_8 FLAG_DOCUMENT_9 FLAG_DOCUMENT_10 FLAG_DOCUMENT_11 FLAG_DOCUMENT_12 FLAG_DOCUMENT_13 FLAG_DOCUMENT_14 FLAG_DOCUMENT_15 FLAG_DOCUMENT_16 FLAG_DOCUMENT_17 FLAG_DOCUMENT_18 FLAG_DOCUMENT_19 FLAG_DOCUMENT_20 FLAG_DOCUMENT_21 AMT_REQ_CREDIT_BUREAU_HOUR AMT_REQ_CREDIT_BUREAU_DAY AMT_REQ_CREDIT_BUREAU_WEEK AMT_REQ_CREDIT_BUREAU_MON AMT_REQ_CREDIT_BUREAU_QRT AMT_REQ_CREDIT_BUREAU_YEAR index_x CREDIT_TYPE DAYS_CREDIT_UPDATE DAYS_CREDIT DAYS_CREDIT_ENDDATE DAYS_ENDDATE_FACT SK_ID_BUREAU Credit_Count Total_Credit_Amount Total_Debt_Amount NumberOfCreditCurrency MostCommonCreditCurrency NumberOfCreditType MostCommonCreditType NumberOfCreditProlong NumberOfBadCredit NumberOfDelayedCredit Active_Credit_Amount Active_Credit_Count Active_Debt_Amount Active_Credit_Card_Limit BalanceOnCreditBuro index_y Buro_Balance_Last_Value Buro_Balance_Max Buro_Balance_Mean Buro_Balance_Last_Month
feature_infos=[0:1] [0:2] [0:1] [0:1] [0:19] [25650:117000000] [45000:4050000] [1615.5:225000] [40500:4050000] [-1:6] [0:7] [0:4] [0:5] [0:5] [0.00029:0.072508000000000003] [-25201:-7489] [-17583:365243] [-23416:0] [-7197:0] [0:91] none [0:1] [0:1] [0:1] [0:1] [0:1] [-1:17] [1:20] [1:3] [1:3] [0:6] [0:23] [0:1] [0:1] [0:1] [0:1] [0:1] [0:1] [0:57] [0.01469148240341735:0.9516239622079844] [8.1736165188843972e-08:0.85499966640470115] [0.00052726523870988168:0.89397607460428663] [0:1] [0:1] [0:1] [0:1] [0:1] [0:1] [0:1] [0:1] [0:1] [0:1] [0:1] [0:1] [0:1] [0:1] [0:1] [0:1] [0:1] [0:1] [0:1] [0:1] [0:1] [0:1] [0:1] [0:1] [0:1] [0:1] [0:1] [0:1] [0:1] [0:1] [0:1] [0:1] [0:1] [0:1] [0:1] [0:1] [0:1] [0:1] [0:1] [0:1] [0:1] [0:1] [-1:3] [-1:2] [0:1] [-1:6] [-1:1] [0:348] [0:34] [0:344] [0:24] [-4292:0] none [0:1] none [0:1] [0:1] none [0:1] [0:1] none [0:1] none [0:1] [0:1] [0:1] [0:1] [0:1] [0:1] [0:1] [0:1] [0:1] [0:4] [0:9] [0:8] [0:27] [0:19] [0:25] [6:1716397] [0:14] [-2887:14] [-2922:-1] [-42041:31198] [-42023:0] [5000004:6843457] [1:116] [0:270204166.08000004] [-6981558.2100000009:74487294] [1:3] [0:3] [1:6] [0:11] [0:9] [0:9] [0:6] [0:270104026.5] [1:32] [-6978830.4900000012:74487294] [-579854.11499999999:8126600.4900000012] [-inf:inf] [1:305810] [0:5] [0:5] [0:5] [-92:0]
tree_sizes=743 759 764 762 765 769 761 767 765 770 763 770 767 763 763 774 769 767 774 771 776 769 764 763 768 772 769 768 764 769 768 769 773 775 770 767 776 775 770 778 769 777 770 770 783 776 773 763 770 773 776 773 775 773 763 779 773 776 767 775 778 774 766 777 763 767 778 770 777 778 762 780 765 769 776 767 769 771 775 772 770 769 766 769 777 774 770 766 781 765 773 763 768 774 771 769 767 774 774 770 766 781 772 766 770 770 776 766 779 765 767 774 765 759 775 766 777 780 766 778 774 777 748 775 774 776 768 772 773 772 771 767 773 770 775 768 779 761 763 775 763 775 745 767 777 784 782 776 767 776 765 766 772 780 768 776 766 763 777 770 774 765 768 764 768 769 779 769 771 771 776 782 774 685 778 763 776 770 766 773 772 767 696 786 777 772 771 764 765 773 769 765 768 776 778 766 766 768 781 775 773 748 766 771 771 771 766 773 773 782 776 777 773 767 770 774 769 782 778 774 767 774 756 772 770 758 761 768 777 768 773 771 753 690 771 773 782 776 772 775 775 777 765 772 779 777 767 775 766 757 770 772 764 761 782 776 761 773 770 775 778 776 784 774 765 686 758 778 776 772 776 783 768 784 771 760 765 768 780 772 783 772 777 775 769 767 762 776 777 777 771 783 773 782 769 769 768 773 681 768 779 766 776 772 777 781 768 784 774 764 770 779 774 774 776 766 765 774 764 776 775 774 770 778 779 762 765 788 776 665 771 778 771 777 765 692 782 762 759 775 777 787 769 780 775 650 780 689 765 763 687 755 774 769 778 772 782 687 777 664 758 778 754 766 780 763 776 782 766 765 770 767 779 782 773 773 685 758 775 764 765 739 682 760 763 773 772 769 691 780 780 778 772 779 765 759 779 754 684 777 781 692 767 763 775 770 762 768 778 776 774 788 760 757 771 691 777 765 769 752 686 764 775 763 756 766 779 783 765 787 698 769 765 764 777 761 784 775 760 765 780 768 763 752 770 689 758 761 761 767 769 773 773 760 767 758 782 761 690 775 782 764 768 764 780 783 774 779 766 678 660 686 778 769 778 767 771 773 781 769 779 765 783 763 771 777 778 692 738 780 776 772 676 770 680 771 770 771 782 750 762 778 697 776 777 764 774 766 774 776 769 781 742 769 767 752 772 776 789 760 682 775 781 782 777 748 776 768 766 763 785 763 749 747 744 679 766 777 762 781 779 762 758 770 782 772 781 783 779 681 769 761 778 759 752 769 761 772 788 757 770 748 780 768 759 781 765 688 783 762 765 763 769 767 783 764 767 695 747 682 766 700 763 760 760 771 769 781 776 773 686 777 774 740 770 780 769 770 773 772 745 759 605 774 764 768 765 775 775 762 770 769 742 752 740 768 777 761 765 773 762 783 773 677 766 781 783 776 678 766 779 768 782 774 785 694 778 764 746 766 684 767 764 674 771 776 777 771 763 761 762 772 748 777 764 760 767 771 767 744 784 766 536 770 779 750 673 759 684 765 767 766 773 775 770 766 680 760 772 778 785 763 761 741 775 769 781 769 750 697 770 776 770 764 765 763 748 748 780 778 772 765 776 779 777 735 763 674 774 774 748 607 766 762 775 761 773 776 767 688 760 689 780 758 771 782 773 778 776 755 775 782 775 790 776 766 731 689 773 769 791 782 680 775 684 781 765 728 778 768 771 771 780 758 690 771 760 745 762 772 752 759 780 736 764 754 792 782 777 771 595 761 780 778 752 782 770 775 781 737 767 736 778 765 770 737 538 748 766 774 772 768 779 776 757 782 780 686 780 747 785 755 758 687 681 766 769 777 765 725 776 774 786 768 753 781 775 770 783 777 690 670 765 523 760 780 766 766 778 764 761 700 745 775 763 761 760 773 751 779 767 742 746 778 572 779 774 726 740 768 766 776 778 782 762 775 761 781 784 758 536 784 518 748 764 765 599 756 747 774 769 781 766 782 760 766 685 777 747 773 605 784 784 781 779 741 788 772 790 654 760 766 784 771 766 776 755 672 602 752 780 775 788 794 748 782 757 738 778 745 760 780 777 778 777 773 600 783 764 776 759 757 530 765 768 778 772 750 759 765 770 781 769 771 784 776 776 782 769 601 763 767 521 738 791 787 674 760 762 777 777 772 784 769 651 765 765 774 793 776 689 600 765 758 778 782 765 770 777 747 681 772 782 754 761 765 776 761 778 605 777 734 524 779 678 758 774 665 781 773 771 761 780 777 780 764 774 787 774 767 685 777 758 777 769 776 761 787 756 607 761 779 780 786 532 794 676 750 772 778 768 782 778 733 786 776 761 777 747 505 611 784 791 771 776 774 768 770 781 776 774 762 783 777 777 774 744 761 773 784 681 780 754 610 773 681 758 697 778 779 768 679 781 772 787 523 764 681 763 775 771 777 776 762 787 764 676 586 770 775 761 776 781 765 769 776 776 786 773 763 778 784 758 729 739 772 767 778 778 759 776 762 589 750 787 766 525 769 773 762 779 775 679 757 744 765 780 770 781 761 680 777 780 777 579 776 784 784 759 756 775 784 781 774 779 772 776 764 660 775 792 777 764 790 686 691 591 523 727 763 764 786 756 781 781 756 768 747 687 770 777 776 766 767 781 774 784 781 754 674 769 679 771 589 742 765 741 779 774 778 761 775 775 785 654 766 744 775 770 754 773 785 519 765 784 798 579 779 776 747 767 768 750 774 763 765 782 770 784 779 789 782 779 779 686 587 680 758 780 769 766 789 779 768 790 770 780 760 665 784 751 779 774 759 766 782 779 781 584 766 781 661 786 779 781 768 771 743 560 735 520 754 774 683 789 719 742 768 768 753 771 756 753 744 781 764 741 766 662 676 764 696 764 769 778 690 778 698 778 765 775 792 768 765 587 775 771 697 769 742 777 782 725 784 768 772 777 768 780 773 770 772 786 675 773 685 739 786 704 767 786 779 591 753 747 766 751 773 769 749 782 776 777 775 778 776 681 776 763 770 773 770 792 760 776 764 779 779 780 519 763 772 778 692 773 681 745 769 777 766 749 771 758 586 689 778 786 780 753 695 782 741 698 698 775 777 783 745 764 784 771 772 787 749 757 773 772 770 786 768 678 779 775 776 764 773 589 764 765 769 571 776 779 781 758 778 768 775 697 679 781 780 775 782 757 754 764 740 760 766 669 761 755 775 699 784 780 690 774 786 766 744 779 751 592 782 747 776 746 756 769 792 692 776 783 779 774 757 772 771 673 769 785 782 658 724 750 775 755 782 782 765 773 789 784 589 773 775 762 750 747 773 691 762 768 781 768 772 783 773 737 780 676 782 696 751 757 775 767 771 783 783 786 770 763 699 778 695 760 775 766 767 774 773 674 781 796 781 778 783 775 587 777 772 758 750 757 777 780 778 691 780 781 778 495 766 770 683 767 747 696 663 757 786 779 696 775 772 783 760 772 780 761 764 768 701 656 761 767 755 570 698 770 783 691 758 760 784 785 782 696 772 761 697 783 691 780 741 758 758 772 780 750 774 778 780 763 738 767 784 781 769 782 773 768 691 756 767 775 796 780 781 673 780 769 774 690 676 591 777 769 780 742 794 764 760 769 681 777 773 752 766 768 736 776 781 780 772 774 682 785 777 761 783 763 770 746 792 779 695 764 769 770 775 772 775 784 792 771 756 778 762 772 780 689 769 763 779 592 754 759 665 757 749 781 782 754 788 783 759 782 754 786 761 764 777 772 698 679 747 779 774 757 761 774 785 779 772 767 757 698 693 772 775 772 785 517 762 742 678 679 583 782 692 768 781 783 679 780 779 777 745 703 774 754 777 761 743 782 775 783 774 770 780 772 767 747 775 778 784 752 770 780 770 773 788 682 759 679 748 772 775 787 742 773 765 767 680 566 767 517 784 773 744 777 781 746 759 770 788 788 755 743 767 767 763 768 769 675 780 779 738 781 777 774 777 756 759 770 753 768 679 784 681 655 770 773 766 677 784 688 700 778 669 775 591 795 776 785 785 784 771 753 755 663 785 683 744 690 744 749 772 760 770 772 775 780 770 795 768 764 781 697 768 772 787 781 770 666 783 657 774 768 774 760 774 769 774 791 785 777 770 583 749 739 763 774 764 760 687 777 778 789 779 779 791 778 759 777 751 767 748 763 692 788 781 785 773 752 736 773 783 678 779 783 775 698 769 774 777 772 683 776 683 674 766 771 772 765 781 590 779 770 779 784 688 779 749 778 766 777 774 738 580 759 757 771 746 742 769 668 501 774 699 777 774 786 774 768 775 778 750 781 767 779 518 779 775 768 775 776 771 769 787 761 786 774 772 660 776 777 767 765 740 765 763 651 776 698 687 582 784 775 778 761 682 739 759 736 754 774 695 765 773 748 677 778 774 772 770 775 774 764 766 781 764 781 777 680 679 778 776 780 785 760 741 764 693 680 773 777 774 767 782 788 517 771 770 757 780 770 781 579 771 770 783 687 771 763 681 785 775 690 781 787 765 792 767 775 784 785 753 697 741 673 754 759 764 778 775 770 519 677 794 749 778 775 750 782 772 752 779 760 777 787 781 781 782 776 784 770 767 685 673 777 764 770 770 584 733 781 780 791 767 778 777 773 777 772 763 777 768 503 767 781 767 739 770 661 772 739 750 755 772 761 776 765 777 769 769 780 750 686 768 766 769 773 788 773 771 682 780 698 763 784 759 773 776 758 782 779 770 692 782 790 771 575 762 795 777 777 771 764 779 780 784 783 769 733 765 774 772 772 734 778 773 659 785 777 764 782 777 752 742 683 678 783 683 674 771 701 782 773 770 751 770 762 754 784 686 777 782 772 777 743 769 694 767 764 766 766 783 777 777 786 768 773 788 767 789 765 695 775 755 776 758 678 734 517 781 778 785 774 765 567 754 691 679 777 690 779 766 760 522 777 785 753 781 777 752 760 756 783 779 685 765 753 776 739 775 777 771 768 764 777 780 769 774 779 728 763 682 676 758 778 666 685 770 748 762 775 780 779 777 789 773 782 775 766 775 769 777 782 695 768 751 571 737 773 779 764 769 775 764 773 787 688 777 775 765 774 767 787 771 766 782 772 770 768 712 783 764 762 745 741 765 770 783 772 783 758 777 781 778 762 770 784 744 768 770 756 684 758 774 773 780 763 775 749 503 752 556 784 774 761 685 671 512 776 772 769 740 778 766 775 766 773 683 680 790 775 780 772 763 773 763 661 769 765 737 783 782 779 771 775 697 697 770 768 765 782 741 772 773 778 765 788 771 783 756 780 781 778 771 771 766 759 768 783 766 774 773 787 772 770 775 734 680 786 776 584 776 761 747 688 682 766 770 659 773 767 675 762 768 747 771 679 771 784 790 774 775 775 674 681 769 760 782 781 781 781 781 774 736 734 739 781 686 764 503 738 780 757 757 777 780 778 778 776 775 773 522 782 784 694 784 755 685 743 761 766 759 759 782 779 773 778 754 782 770 780 771 769 776 766 778 780 773 753 779 767 739 770 784 764 580 775 787 743 771 782 697 777 788 516 746 775 733 775 771 767 763 777 784 781 764 764 668

Tree=0
num_leaves=8
num_cat=0
split_feature=41 40 40 41 41 41 41
split_gain=5579.87 3177.05 2029.84 1163.76 693.755 484.474 409.072
threshold=0.31469441606860521 0.39036598813464402 0.35681762026301722 0.47674953178598795 0.50197671872363325 0.13135864273369982 0.14599244001433329
decision_type=8 8 8 10 10 10 10
left_child=2 3 6 -2 -3 -4 -1
right_child=1 4 5 -5 -6 -7 -8
leaf_value=-2.3237984894072805 -2.4017154660976163 -2.4383797340845237 -2.383324565980891 -2.4317259327400538 -2.451405433206852 -2.4170779698681657 -2.3700640983959249
leaf_count=3234 30757 91926 6400 31986 107876 26827 8505
internal_value=0 -0.204641 1.19479 0.51587 -0.430951 0.730698 2.50711
internal_count=307511 262545 44966 62743 199802 33227 11739
shrinkage=1


Tree=1
num_leaves=8
num_cat=0
split_feature=41 40 40 41 41 41 40
split_gain=5115.39 2997.9 1715.82 1058.3 674.146 421.023 397.622
threshold=0.31469441606860521 0.39036598813464402 0.38196632793334689 0.50558277949122454 0.50197671872363325 0.14599244001433329 0.069159962952844628
decision_type=8 8 8 10 10 10 10
left_child=2 3 6 -2 -3 -4 -1
right_child=1 4 5 -5 -6 -7 -8
leaf_value=0.11320204947092624 0.027986498941136848 -0.0057461610694837977 0.042259177954937929 -0.00050399298717256687 -0.018650841463304427 0.012916117019999075 0.058783723751293745
leaf_count=1789 33377 91926 7539 29366 107876 24493 11145
internal_value=0 -0.199627 1.1237 0.493736 -0.422669 0.6652 2.21323
internal_count=307511 262545 44966 62743 199802 32032 12934
shrinkage=0.03


Tree=2
num_leaves=8
num_cat=0
split_feature=41 40 40 41 41 41 40
split_gain=4699.25 2833.98 1457.82 1035.48 601.543 371.519 307.195
threshold=0.31469441606860521 0.41422991987884372 0.38196632793334689 0.47674953178598795 0.50197671872363325 0.14599244001433329 0.078707378021973695
decision_type=8 8 8 10 10 10 10
left_child=2 3 6 -2 -3 -4 -1
right_child=1 4 5 -5 -6 -7 -8
leaf_value=0.09719465182009894 0.026424681450331694 -0.0061777455257475142 0.039559844870692945 -0.00028897844288185436 -0.018623114918761879 0.012392176661692728 0.053728329007374162
leaf_count=2051 33573 88865 7539 35282 104825 24493 10883
internal_value=0 -0.194718 1.05914 0.434439 -0.428243 0.634377 2.03084
internal_count=307511 262545 44966 68855 193690 32032 12934
shrinkage=0.03


Tree=3
num_leaves=8
num_cat=0
split_feature=41 40 40 41 41 41 41
split_gain=4325.03 2691.27 1256.15 771.471 745.906 355.715 264.694
threshold=0.31469441606860521 0.33578611240968803 0.45629381358404597 0.50558277949122454 0.50197671872363325 0.16000423555253143 0.14599244001433329
decision_type=8 8 8 10 10 10 10
left_child=2 3 5 -2 -3 -1 -4
right_child=1 4 6 -5 -6 -7 -8
leaf_value=0.073370167251644483 0.028885520808596583 -0.0043025760048069619 0.033881890028509637 0.0017596330001527962 -0.017546646441294077 0.041390041402872675 0.0096308677418106906
leaf_count=5309 26738 98504 6553 22935 114368 11682 21422
internal_value=0 -0.18991 1.00027 0.560659 -0.376727 1.72321 0.521043
internal_count=307511 262545 44966 49673 212872 16991 27975
shrinkage=0.03


Tree=4
num_leaves=8
num_cat=0
split_feature=40 41 41 40 41 40 40
split_gain=4040.31 1915.65 1905.9 913.308 686.846 292.611 276.736
threshold=0.41422991987884372 0.43384745792380691 0.26155244256291216 0.16014926986677197 0.50197671872363325 0.13817671343907637 0.63285847104132509
decision_type=8 10 8 10 10 10 10
left_child=1 3 6 -1 -4 -3 -2
right_child=2 5 4 -5 -6 -7 -8
leaf_value=0.058814519272839864 0.031808638518157142 0.022896533048995114 -0.0050321855299098103 0.025068977565189832 -0.01810032269268045 -0.0024744827319734715 0.0070482021736669748
leaf_count=11512 12743 6492 97999 32352 104825 33080 8508
internal_value=0 0.656817 -0.269964 1.13914 -0.387521 0.0574891 0.731381
internal_count=307511 83436 224075 43864 202824 39572 21251
shrinkage=0.03


Tree=5
num_leaves=8
num_cat=0
split_feature=40 41 41 40 41 39 40
split_gain=3775.68 1942.74 1560.61 970.388 461.616 250.228 240.853
threshold=0.45950454446081795 0.46955788558464323 0.31469441606860521 0.16014926986677197 0.4893563484713756 0.44397775368661352 0.14723396756955634
decision_type=8 10 8 10 10 10 10
left_child=1 3 5 -1 -4 -2 -3
right_child=2 6 4 -5 -6 -7 -8
leaf_value=0.053613371937785599 0.020568912327822191 0.018105216798594052 -0.0066283519554621037 0.021442576499607194 -0.018127804658237226 -0.0018642129593233058 -0.0048840927252817613
leaf_count=12300 20003 6351 78899 43735 101554 7758 36911
internal_value=0 0.558698 -0.296568 0.965901 -0.431715 0.476892 -0.0458305
internal_count=307511 99297 208214 56035 180453 27761 43262
shrinkage=0.03


Tree=6
num_leaves=8
num_cat=0
split_feature=41 40 40 40 41 41 41
split_gain=3544.28 2157.68 1044.47 876.24 361.319 296.073 273.569
threshold=0.33365234483727518 0.48809996604069344 0.41422991987884372 0.15485406026573922 0.50197671872363325 0.21824380125316656 0.16000423555253143
decision_type=8 10 8 8 10 10 10
left_child=2 3 6 -2 -3 -4 -1
right_child=1 4 5 -5 -6 -7 -8
leaf_value=0.06409497082382587 0.03114718575217422 -0.0078651471550880286 0.024294371924941049 0.0026993662822429772 -0.018510808934272469 0.0045081727246725385 0.036189446907163719
leaf_count=4594 14077 73531 15034 76533 92868 19247 11627
internal_value=0 -0.190138 0.820354 0.249728 -0.454643 0.451973 1.48524
internal_count=307511 257009 50502 90610 166399 34281 16221
shrinkage=0.03


Tree=7
num_leaves=8
num_cat=0
split_feature=40 41 41 41 41 40 141
split_gain=3312.77 1681.61 1402.58 775.105 524.116 204.065 200.828
threshold=0.45950454446081795 0.47674953178598795 0.26575311909471833 0.24518380290995226 0.48395083181648063 0.12935780608002453 0.76012550522536482
decision_type=8 10 8 8 10 10 10
left_child=1 3 6 -1 -4 -3 -2
right_child=2 5 4 -5 -6 -7 -8
leaf_value=0.048628062668735976 0.0087504397872038755 0.017722297530113573 -0.0054655623731044321 0.019940820958448093 -0.017519608401709838 -0.0048800630901539082 0.029980227631733188
leaf_count=11092 11983 5224 85113 45810 103019 37171 8099
internal_value=0 0.512679 -0.283797 0.873729 -0.394387 -0.06245 0.578274
internal_count=307511 99297 208214 56902 188132 42395 20082
shrinkage=0.03


Tree=8
num_leaves=8
num_cat=0
split_feature=40 41 41 40 41 40 39
split_gain=3108.82 1669.77 1224.11 704.729 350.86 298.38 214.309
threshold=0.48809996604069344 0.41272265809433373 0.32726918529310883 0.12935780608002453 0.50197671872363325 0.1760580717581284 0.44397775368661352
decision_type=8 10 8 10 10 10 10
left_child=1 3 6 -1 -4 -3 -2
right_child=2 5 4 -5 -6 -7 -8
leaf_value=0.050354952761079333 0.016700899753358926 0.015556728312129843 -0.007413486560244837 0.020277223480343724 -0.017946160318542508 -0.0043830758883487211 -0.0037061355016054197
leaf_count=8525 20067 10576 75069 46543 93132 45631 7968
internal_value=0 0.453874 -0.30081 0.850708 -0.434315 -0.0107895 0.366045
internal_count=307511 111275 196236 55068 168201 56207 28035
shrinkage=0.03


Tree=9
num_leaves=8
num_cat=0
split_feature=41 40 40 40 41 1 40
split_gain=2928.64 1849.91 798.757 709.38 393.692 232.377 158.242
threshold=0.43384745792380691 0.55818098444385023 0.16014926986677197 0.39855855333287737 0.21824380125316656 1.0000000180025095e-35 0.62706775155387462
decision_type=10 8 10 10 8 2 10
left_child=1 2 -1 5 -3 -2 -5
right_child=3 4 -4 6 -6 -7 -8
leaf_value=0.043462707158594079 0.014202073063031706 0.015591877045340839 0.016142097556729885 -0.011364648338180022 -0.0067391642845882329 -0.0040770192697092457 -0.019666158948244115
leaf_count=11512 12251 9846 63816 63591 58823 25163 62509
internal_value=0 0.349396 0.702299 -0.367679 -0.100586 0.0637261 -0.515131
internal_count=307511 143997 75328 163514 68669 37414 126100
shrinkage=0.03


Tree=10
num_leaves=8
num_cat=0
split_feature=41 40 40 40 41 41 39
split_gain=2769.9 1708.01 769.183 653.956 312.693 256.261 237.585
threshold=0.34496990492100627 0.48809996604069344 0.46567737488386479 0.13817671343907637 0.55939547785893762 0.14599244001433329 0.44397775368661352
decision_type=8 10 8 8 10 10 10
left_child=2 3 5 -2 -3 -1 -4
right_child=1 4 6 -5 -6 -7 -8
leaf_value=0.052257858524154155 0.027523325523769012 -0.0083061490399356872 0.015140029280635504 0.002180481558349396 -0.018518336585502171 0.027838898261203299 -0.0047425257648737017
leaf_count=4681 11965 87738 23745 77433 76558 16048 9343
internal_value=0 -0.181316 0.674159 0.202698 -0.428503 1.13064 0.322117
internal_count=307511 253694 53817 89398 164296 20729 33088
shrinkage=0.03


Tree=11
num_leaves=8
num_cat=0
split_feature=41 40 41 40 41 1 40
split_gain=2641.52 1610.1 695.642 648.066 356.163 214.869 153.689
threshold=0.43384745792380691 0.55818098444385023 0.23988384837774554 0.39855855333287737 0.26155244256291216 1.0000000180025095e-35 0.62706775155387462
decision_type=10 8 8 10 8 2 10
left_child=1 2 -1 5 -3 -2 -5
right_child=3 4 -4 6 -6 -7 -8
leaf_value=0.036915019903664081 0.013314540019035771 0.01129977241001336 0.01410478217067156 -0.010918398783396652 -0.0073285484771534425 -0.0041520018278092159 -0.019200920949983127
leaf_count=15280 12251 14027 60048 63591 54642 25163 62509
internal_value=0 0.326787 0.648693 -0.354796 -0.0966857 0.0543362 -0.499156
internal_count=307511 143997 75328 163514 68669 37414 126100
shrinkage=0.03


Tree=12
num_leaves=8
num_cat=0
split_feature=41 40 41 40 39 40 15
split_gain=2488.16 1507.93 642.823 625.738 378.433 263.096 144.045
threshold=0.43384745792380691 0.35681762026301722 0.2232060410727453 0.2478623843915074 0.38704212930160747 0.57827568183713218 -18067.499999999996
decision_type=10 8 8 10 10 10 2
left_child=1 4 -3 6 -1 -5 -2
right_child=3 2 -4 5 -6 -7 -8
leaf_value=0.030644235446303229 -0.0033700877710374066 0.019682343290771915 -0.0015385220232482174 -0.0076418601237101952 0.0057340634896105728 -0.017659469404819772 0.016831690232076212
leaf_count=28511 6663 17233 91427 63725 6826 83018 10108
internal_value=0 0.31446 0.082741 -0.347411 0.861616 -0.436938 0.295631
internal_count=307511 143997 108660 163514 35337 146743 16771
shrinkage=0.03


Tree=13
num_leaves=8
num_cat=0
split_feature=41 40 40 40 41 40 15
split_gain=2355.05 1527.2 656.91 502.292 353.832 210.284 109.88
threshold=0.46955788558464323 0.55238138043373486 0.20261157917236697 0.2535371388973276 0.26155244256291216 0.57827568183713218 -18067.499999999996
decision_type=10 8 10 10 8 10 2
left_child=1 2 -1 6 -3 -5 -2
right_child=3 4 -4 5 -6 -7 -8
leaf_value=0.033048182264948982 -0.0042650706555038241 0.010682671589984566 0.012236857025570425 -0.0085215303479837783 -0.0072681275757566889 -0.01798490848106116 0.013968439443566908
leaf_count=17129 6367 14407 62745 57666 63007 76791 9399
internal_value=0 0.278322 0.582835 -0.371345 -0.108768 -0.45745 0.223552
internal_count=307511 157288 79874 150223 77414 134457 15766
shrinkage=0.03


Tree=14
num_leaves=8
num_cat=0
split_feature=41 40 41 40 39 40 15
split_gain=2223.7 1446.13 742.567 459.905 248.345 195.973 98.2525
threshold=0.47674953178598795 0.6119015755816245 0.24518380290995226 0.2478623843915074 0.24443998682948068 0.57827568183713218 -18067.499999999996
decision_type=10 8 8 10 8 10 2
left_child=1 2 -1 6 -3 -5 -2
right_child=3 4 -4 5 -6 -7 -8
leaf_value=0.030575592430574047 -0.0042178909449960625 0.024658582207695335 0.01000334118299802 -0.0085515504561948508 -0.0083824260240228134 -0.017809630121933272 0.013471086026655017
leaf_count=19325 6071 2861 83468 57066 54502 75390 8828
internal_value=0 0.263321 0.488071 -0.370658 -0.222551 -0.453368 0.21421
internal_count=307511 160156 102793 147355 57363 132456 14899
shrinkage=0.03


Tree=15
num_leaves=8
num_cat=0
split_feature=41 40 39 40 41 1 39
split_gain=2098.97 1357.41 638.508 444.369 331.005 168.211 137.145
threshold=0.47674953178598795 0.55238138043373486 0.39508714505419368 0.39855855333287737 0.26155244256291216 1.0000000180025095e-35 0.30216376123997951
decision_type=10 8 10 10 8 2 8
left_child=1 2 -1 5 -3 -2 -5
right_child=3 4 -4 6 -6 -7 -8
leaf_value=0.020640445404109316 0.010905685415420953 0.010099340950237973 -0.00043455086996042994 0.0016333919887911836 -0.0071513057992434927 -0.0055719099568655502 -0.01590745095564608
leaf_count=62762 10853 14407 18411 6963 64576 22494 107045
internal_value=0 0.253785 0.53351 -0.363116 -0.110394 -0.00243977 -0.49412
internal_count=307511 160156 81173 147355 78983 33347 114008
shrinkage=0.03


Tree=16
num_leaves=8
num_cat=0
split_feature=40 41 41 39 39 39 15
split_gain=1985.69 967.552 868.975 507.43 247.523 234.829 148.62
threshold=0.48809996604069344 0.50558277949122454 0.39535748868774395 0.39508714505419368 0.44116898545195427 0.27678185847419118 -18067.499999999996
decision_type=10 10 8 10 10 8 2
left_child=1 3 4 -1 -2 -4 -3
right_child=2 6 5 -5 -6 -7 -8
leaf_value=0.021054288279261715 0.010593784803817841 -0.011458918105208686 0.0067818797432635403 0.00037982190755714437 -0.007609001185989844 -0.013411078386109204 0.0018321299905707123
leaf_count=53225 29201 17560 8462 14483 11935 145978 26667
internal_value=0 0.340398 -0.257129 0.560039 0.183131 -0.408837 -0.112863
internal_count=307511 111935 195576 67708 41136 154440 44227
shrinkage=0.03


Tree=17
num_leaves=8
num_cat=0
split_feature=41 40 40 40 41 1 39
split_gain=1893.3 1228.18 564.475 484.894 316.952 278.891 103.915
threshold=0.34496990492100627 0.2478623843915074 0.61962334671476416 0.64016907620212959 0.14599244001433329 1.0000000180025095e-35 0.24443998682948068
decision_type=8 8 10 10 10 2 8
left_child=3 5 -3 4 -1 -2 -5
right_child=1 2 -4 6 -6 -7 -8
leaf_value=0.035684274870280086 0.027266343806749079 -0.0033191535242175908 -0.015236499100724566 0.033227317902996871 0.016031638863580017 0.0068427813356619774 -0.0035678406100877256
leaf_count=8472 10035 127842 97089 836 31336 18728 13173
internal_value=0 -0.158353 -0.269244 0.530384 0.694761 0.472938 -0.0400297
internal_count=307511 253694 224931 53817 39808 28763 14009
shrinkage=0.03


Tree=18
num_leaves=8
num_cat=0
split_feature=41 40 41 40 15 1 39
split_gain=1836.33 1154.71 571.174 408.541 258.861 178.146 86.3828
threshold=0.47674953178598795 0.26822675651948158 0.22952115678204391 0.54241845613609285 -18534.499999999996 1.0000000180025095e-35 0.30216376123997951
decision_type=10 8 8 10 2 2 8
left_child=1 4 -3 5 -1 -2 -5
right_child=3 2 -4 6 -6 -7 -8
leaf_value=0.0083214147976485436 0.005102652414174156 0.016739670893888347 -0.00093626530621995275 -1.0410773333445694e-05 0.029160456145270339 -0.0079086190498527231 -0.017190772076983853
leaf_count=6682 20031 20258 113997 4738 19219 41051 81535
internal_value=0 0.233269 0.0814544 -0.345968 0.797327 -0.117865 -0.540685
internal_count=307511 160156 134255 147355 25901 61082 86273
shrinkage=0.03


Tree=19
num_leaves=8
num_cat=0
split_feature=41 40 39 40 39 1 39
split_gain=1733.73 1098.36 612.996 394.976 217.776 171.67 82.0629
threshold=0.47674953178598795 0.6119015755816245 0.42259178838259598 0.53808145636356441 0.24443998682948068 1.0000000180025095e-35 0.30216376123997951
decision_type=10 8 10 10 8 2 8
left_child=1 2 -1 5 -3 -2 -5
right_child=3 4 -4 6 -6 -7 -8
leaf_value=0.016301241434824559 0.0051763038198309949 0.022632676132358358 -0.0025160370234354585 -0.00021214642923153557 -0.0078399478056527284 -0.007696333360501028 -0.016833042546771849
leaf_count=80033 19645 2861 22760 4813 54502 40313 82584
internal_value=0 0.22503 0.412829 -0.338719 -0.206144 -0.111337 -0.529285
internal_count=307511 160156 102793 147355 57363 59958 87397
shrinkage=0.03


Tree=20
num_leaves=8
num_cat=0
split_feature=41 40 40 40 141 1 39
split_gain=1637.93 933.143 506.724 479.026 189.297 185.609 105.041
threshold=0.43384745792380691 0.61515518038583372 0.16014926986677197 0.49844655673623212 0.83408070839978743 1.0000000180025095e-35 0.57351685333697555
decision_type=10 10 8 10 10 2 10
left_child=1 2 -1 5 -3 -2 -5
right_child=3 4 -4 6 -6 -7 -8
leaf_value=0.028903154521096062 0.0078289332886906943 -0.0088798736200812276 0.0093432264675088472 -0.012167018964302704 0.009068344957242019 -0.005615641194053631 -0.021703093886750156
leaf_count=11512 18565 41308 82828 83550 8349 37838 23561
internal_value=0 0.241928 0.416125 -0.298153 -0.188401 -0.0334027 -0.475123
internal_count=307511 143997 94340 163514 49657 56403 107111
shrinkage=0.03


Tree=21
num_leaves=8
num_cat=0
split_feature=41 40 40 40 1 141 39
split_gain=1560.96 1028.74 409.445 383.601 310.97 240.064 106.953
threshold=0.34496990492100627 0.30739200574731468 0.61962334671476416 0.37779117806103685 1.0000000180025095e-35 0.76300116946303786 0.49187339439890448
decision_type=8 8 10 8 2 10 10
left_child=3 4 -3 6 -2 -5 -1
right_child=1 2 -4 5 -6 -7 -8
leaf_value=0.027978666632011921 0.020690537977690479 -0.0038333462349278472 -0.014406466849986675 0.0018391804960495959 0.0028559610712746478 0.017961190916596204 0.0066309008910964669
leaf_count=12843 14592 114587 97089 23674 27426 15190 2110
internal_value=0 -0.147332 -0.276571 0.471345 0.311933 0.275055 0.838582
internal_count=307511 253694 211676 53817 42018 38864 14953
shrinkage=0.03


Tree=22
num_leaves=8
num_cat=0
split_feature=41 40 39 40 39 39 15
split_gain=1515.01 966.306 583.782 315.544 206.508 144.529 76.4225
threshold=0.50558277949122454 0.61669156992079699 0.42259178838259598 0.2478623843915074 0.24443998682948068 0.30216376123997951 -14763.499999999998
decision_type=10 10 10 10 8 8 2
left_child=1 2 -1 6 -3 -5 -2
right_child=3 4 -4 5 -6 -7 -8
leaf_value=0.01436150543722628 -0.0017570925515097374 0.02148986731507788 -0.003234799008451313 0.0033463491946063859 -0.0080622206686774816 -0.013786602501874265 0.0144725889319811
leaf_count=86752 8380 2888 25073 7645 56526 115007 5240
internal_value=0 0.193122 0.356956 -0.344949 -0.215073 -0.421539 0.156895
internal_count=307511 171239 111825 136272 59414 122652 13620
shrinkage=0.03


Tree=23
num_leaves=8
num_cat=0
split_feature=41 40 39 40 15 39 15
split_gain=1431.73 914.14 520.72 302.279 225.436 136.092 80.963
threshold=0.50558277949122454 0.26822675651948158 0.5315290354556762 0.25777745582296024 -19528.499999999996 0.30216376123997951 -14763.499999999998
decision_type=10 8 10 10 2 8 2
left_child=1 4 -3 6 -1 -5 -2
right_child=3 2 -4 5 -6 -7 -8
leaf_value=0.004088103388283716 -0.0024348271158259349 0.0046779579922947793 -0.011873497064660938 0.0031061581318601373 0.02393026877975226 -0.013617284665894132 0.013708624938154628
leaf_count=5888 8994 115339 28504 7556 21508 114105 5617
internal_value=0 0.186456 0.0538231 -0.337726 0.661704 -0.416428 0.134358
internal_count=307511 171239 143843 136272 27396 121661 14611
shrinkage=0.03


Tree=24
num_leaves=8
num_cat=0
split_feature=41 40 39 39 40 141 141
split_gain=1380.93 1031.86 445.86 284.092 242.731 158.637 79.5926
threshold=0.26575311909471833 0.50092305439322982 0.42259178838259598 0.27678185847419118 0.63429518066977975 0.79062777282731278 0.76012550522536482
decision_type=8 10 10 8 10 10 10
left_child=4 2 -2 -3 5 -1 -6
right_child=1 3 -4 -5 6 -7 -8
leaf_value=0.015554662666329501 0.0077803886946891622 0.0093977547196720662 -0.0091788288730288107 -0.010935403183103484 -0.0057574375147521123 0.030324784160167356 0.013812254228819232
leaf_count=15114 80626 9822 22313 161808 5266 9121 3441
internal_value=0 -0.108568 0.145691 -0.321398 0.56968 0.707146 0.0729399
internal_count=307511 274569 102939 171630 32942 24235 8707
shrinkage=0.03


Tree=25
num_leaves=8
num_cat=0
split_feature=41 40 39 40 39 15 39
split_gain=1320.53 833.97 492.319 281.868 184.56 152.426 55.9255
threshold=0.50558277949122454 0.61669156992079699 0.39508714505419368 0.57827568183713218 0.24443998682948068 -17796.499999999996 0.29566003928008106
decision_type=10 10 10 10 8 2 8
left_child=1 2 -1 5 -3 -2 -5
right_child=3 4 -4 6 -6 -7 -8
leaf_value=0.013268554068988707 -0.011515786229992579 0.01985022131050207 -0.0023735218507099144 -0.00043849039500233128 -0.0077200307098354189 -6.0745071756658878e-05 -0.016846684494133773
leaf_count=84641 27047 2888 27184 3450 56526 39127 66648
internal_value=0 0.177445 0.326788 -0.327559 -0.205265 -0.155379 -0.531873
internal_count=307511 171239 111825 136272 59414 66174 70098
shrinkage=0.03


Tree=26
num_leaves=8
num_cat=0
split_feature=41 40 39 141 40 39 11
split_gain=1262.7 883.364 435.967 268.169 210.865 202.917 98.4647
threshold=0.31469441606860521 0.55238138043373486 0.41968913852444806 0.85838064836988903 0.5504070487451439 0.27678185847419118 1.0000000180025095e-35
decision_type=8 10 10 10 8 8 2
left_child=3 2 -2 4 -1 -3 -5
right_child=1 5 -4 6 -6 -7 -8
leaf_value=0.015365986264019242 0.0056910046150160532 0.0075877059430266057 -0.0099516001403590262 0.030728387966853895 0.00019576789173288356 -0.012178764849722025 0.012632966754164251
leaf_count=17318 93485 7534 27809 8225 15712 133717 3711
internal_value=0 -0.123625 0.080537 0.456691 0.310089 -0.365844 0.843362
internal_count=307511 262545 121294 44966 33030 141251 11936
shrinkage=0.03


Tree=27
num_leaves=8
num_cat=0
split_feature=41 40 39 40 15 40 15
split_gain=1218.1 877.198 571.709 173.578 148.224 87.0541 55.6403
threshold=0.57179952324457861 0.20918276296592164 0.4814880883726706 0.25777745582296024 -18534.499999999996 0.64593126645136045 -14763.499999999998
decision_type=10 8 10 10 2 10 2
left_child=1 4 -3 6 -1 -5 -2
right_child=3 2 -4 5 -6 -7 -8
leaf_value=0.0075620946761586457 -0.0050182234331941009 0.0044260685214380863 -0.010492607063314275 -0.010585813679435615 0.024438025612469487 -0.018668368187907583 0.010344868253359937
leaf_count=5562 7181 136540 41806 59790 15971 36581 4080
internal_value=0 0.141538 0.0416037 -0.377975 0.678401 -0.446358 0.0285899
internal_count=307511 199879 178346 107632 21533 96371 11261
shrinkage=0.03


Tree=28
num_leaves=8
num_cat=0
split_feature=41 40 1 39 141 39 40
split_gain=1157 782.368 408.51 276.111 250.747 175.183 55.4351
threshold=0.34496990492100627 0.55238138043373486 1.0000000180025095e-35 0.48645516295801111 0.80869043084508296 0.29896936973607929 0.60889316569831597
decision_type=8 10 2 10 10 8 10
left_child=3 2 -2 4 -1 -3 -5
right_child=1 5 -4 6 -6 -7 -8
leaf_value=0.0097275676739140785 0.010339727923977251 0.0052298983619940721 -0.0027756552301342607 0.0031112875447578811 0.024466429329854447 -0.012233051124479862 -0.011309446600812375
leaf_count=27652 40124 8572 76742 6550 14673 128256 4942
internal_value=0 -0.13116 0.064591 0.39426 0.500412 -0.36592 -0.07303
internal_count=307511 253694 116866 53817 42325 136828 11492
shrinkage=0.03


Tree=29
num_leaves=8
num_cat=0
split_feature=41 40 39 15 40 39 15
split_gain=1127.17 791.017 416.686 275.094 162.993 84.2901 51.5741
threshold=0.57179952324457861 0.35681762026301722 0.20844538110342145 -19997.499999999996 0.25777745582296024 0.6082353771868213 -14763.499999999998
decision_type=10 8 8 2 10 10 2
left_child=1 3 -3 -1 6 -6 -2
right_child=4 2 -4 -5 5 -7 -8
leaf_value=-0.00074389302526942059 -0.004916699681219292 0.023920906040104477 -0.0018114557390571167 0.016993560198846298 -0.011279609221758542 -0.021343838892260124 0.0098351653969081191
leaf_count=9243 7181 6940 146176 37520 78866 17505 4080
internal_value=0 0.134903 -0.0145739 0.456965 -0.367189 -0.434581 0.025794
internal_count=307511 199879 153116 46763 107632 96371 11261
shrinkage=0.03


Tree=30
num_leaves=8
num_cat=0
split_feature=41 40 41 40 39 39 15
split_gain=1070.39 700.055 420.167 226.653 154.876 121.982 61.0519
threshold=0.52539569308654566 0.61669156992079699 0.17508512251332128 0.2478623843915074 0.24443998682948068 0.57101344001296617 -19822.499999999996
decision_type=10 10 8 10 8 10 2
left_child=1 2 -1 6 -3 -5 -2
right_child=3 4 -4 5 -6 -7 -8
leaf_value=0.02366859966173444 -0.0077573848143466543 0.016931233840725802 0.0061633400243109289 -0.0096049122755866578 -0.0074225085358018425 -0.020188145560539862 0.008289367026644746
leaf_count=10881 4029 3005 106352 91161 59754 23707 8622
internal_value=0 0.14827 0.279984 -0.318046 -0.199111 -0.389639 0.117777
internal_count=307511 179992 117233 127519 62759 114868 12651
shrinkage=0.03


Tree=31
num_leaves=8
num_cat=0
split_feature=41 40 39 39 141 40 39
split_gain=1019.57 771.208 311.374 308.466 181.162 125.753 97.6158
threshold=0.26575311909471833 0.41422991987884372 0.38704212930160747 0.27678185847419118 0.75678729292540436 0.56753199544735133 0.48645516295801111
decision_type=8 10 10 8 8 8 10
left_child=4 2 -2 -3 5 -1 -6
right_child=1 3 -4 -5 6 -7 -8
leaf_value=0.013606263124628995 0.0085053608768139721 0.0095802740850039723 -0.0076010664322249859 -0.008772973042884321 0.024229221677103892 -0.0022312204751216555 0.0047554280537471568
leaf_count=10062 56875 12460 16246 188988 12378 7736 2766
internal_value=0 -0.0965826 0.175256 -0.247436 0.47522 0.265054 0.706722
internal_count=307511 274569 73121 201448 32942 17798 15144
shrinkage=0.03


Tree=32
num_leaves=8
num_cat=0
split_feature=41 39 15 40 41 1 39
split_gain=996.994 704.934 581.804 145.387 137.621 100.801 43.894
threshold=0.57179952324457861 0.44116898545195427 -19997.499999999996 0.57827568183713218 0.22952115678204391 1.0000000180025095e-35 0.31737307066871612
decision_type=10 10 2 10 8 2 8
left_child=1 2 -1 5 -3 -2 -5
right_child=3 4 -4 6 -6 -7 -8
leaf_value=-0.0059811067255694187 0.00091155083407110571 0.0051344590695508478 0.01013521625446173 -0.0009744652604760126 -0.010626052728083956 -0.010092982223922409 -0.016665896492924871
leaf_count=31071 16829 5830 119022 3129 43956 34650 53024
internal_value=0 0.125138 0.234028 -0.350498 -0.266765 -0.209079 -0.522171
internal_count=307511 199879 150093 107632 49786 51479 56153
shrinkage=0.03


Tree=33
num_leaves=8
num_cat=0
split_feature=40 41 40 41 1 141 40
split_gain=949.179 649.189 412.568 220.578 106.41 96.7012 81.9068
threshold=0.61669156992079699 0.57179952324457861 0.12935780608002453 0.43384745792380691 1.0000000180025095e-35 0.84527490850134845 0.70072547445544087
decision_type=10 10 8 8 2 10 10
left_child=1 2 -1 5 -3 -2 -5
right_child=3 4 -4 6 -6 -7 -8
leaf_value=0.022186347972146907 -0.005364483675284853 3.4465346005003907e-05 0.0052931375731193973 -0.009858021632345235 -0.010501853438097813 0.0090922970253247623 -0.018031895004433848
leaf_count=11257 20737 20284 118003 52546 41674 7160 35850
internal_value=0 0.132186 0.246246 -0.31644 -0.228101 -0.0474024 -0.438578
internal_count=307511 191218 129260 116293 61958 27897 88396
shrinkage=0.03


Tree=34
num_leaves=8
num_cat=0
split_feature=41 40 39 40 39 141 15
split_gain=903.911 502.371 351.188 327.391 188.837 88.4879 78.244
threshold=0.41272265809433373 0.65582424677266327 0.19232159378939626 0.2478623843915074 0.59469892755555709 0.76012550522536482 -18067.499999999996
decision_type=10 10 8 8 10 10 2
left_child=1 2 -1 6 -5 -3 -2
right_child=3 5 -4 4 -6 -7 -8
leaf_value=0.029511316785175035 -0.0030006885790333595 -0.010835506590167548 0.0067383045992241491 -0.0069549801426597212 -0.018734105680408657 0.0029281372363566928 0.011262868840717267
leaf_count=5819 6753 25663 98175 124713 28786 7055 10547
internal_value=0 0.178616 0.273302 -0.224416 -0.299979 -0.248012 0.205661
internal_count=307511 136712 103994 170799 153499 32718 17300
shrinkage=0.03


Tree=35
num_leaves=8
num_cat=0
split_feature=41 40 1 39 141 40 41
split_gain=867.126 670.64 364 183.023 157.2 105.533 78.7785
threshold=0.26575311909471833 0.55238138043373486 1.0000000180025095e-35 0.49973431934820772 0.75678729292540436 0.63285847104132509 0.14599244001433329
decision_type=8 10 2 10 10 10 10
left_child=4 2 -2 -3 5 -1 -6
right_child=1 3 -4 -5 6 -7 -8
leaf_value=0.011025351268091819 0.0096482421194853552 -0.006574371339886022 -0.0019440792785130267 -0.016974277759370951 0.028149617250360307 -0.0052318068260484608 0.014678019902091617
leaf_count=13870 43963 108221 83514 38871 4840 5302 8930
internal_value=0 -0.0905613 0.0765073 -0.305485 0.432178 0.252878 0.662496
internal_count=307511 274569 127477 147092 32942 19172 13770
shrinkage=0.03


Tree=36
num_leaves=8
num_cat=0
split_feature=41 39 40 40 1 41 92
split_gain=849.711 625.941 499.017 135.248 98.7086 89.2687 17.573
threshold=0.57179952324457861 0.49973431934820772 0.20261157917236697 0.64593126645136045 1.0000000180025095e-35 0.22952115678204391 1.0000000180025095e-35
decision_type=10 10 8 10 2 8 10
left_child=1 2 -1 4 -2 -3 -5
right_child=3 5 -4 6 -6 -7 -8
leaf_value=0.018665621455936705 -0.00067785485414145058 0.002583209413449656 0.0034958769912244851 -0.017924529528051732 -0.010367099269863496 -0.011418015972203739 -0.0051764710741170426
leaf_count=18232 23248 4748 139595 34195 47803 37304 2386
internal_value=0 0.113587 0.203864 -0.329498 -0.23304 -0.303322 -0.570205
internal_count=307511 199879 157827 107632 71051 42052 36581
shrinkage=0.03


Tree=37
num_leaves=8
num_cat=0
split_feature=40 41 39 41 15 39 40
split_gain=806.025 538.239 365.432 197.009 96.7443 91.4377 79.9321
threshold=0.61669156992079699 0.57179952324457861 0.42259178838259598 0.43384745792380691 -18132.499999999996 0.65429090604787687 0.70072547445544087
decision_type=10 10 10 8 2 10 10
left_child=1 2 -1 5 -3 -2 -5
right_child=3 4 -4 6 -6 -7 -8
leaf_value=0.009222777539653804 0.0011486029639840734 -0.01237466788109649 -0.0038509322196876999 -0.0091617795758820609 -0.0024693489958664823 -0.017359577232974797 -0.017382531104275251
leaf_count=99588 23762 25112 29672 52546 36846 4135 35850
internal_value=0 0.119917 0.221756 -0.296642 -0.212261 -0.0429705 -0.415217
internal_count=307511 191218 129260 116293 61958 27897 88396
shrinkage=0.03


Tree=38
num_leaves=8
num_cat=0
split_feature=40 41 39 15 39 141 1
split_gain=773.312 586.401 336.873 206.251 208.004 153.584 68.2253
threshold=0.25777745582296024 0.32726918529310883 0.52366176390391661 -18465.499999999996 0.26731209341650169 0.85838064836988903 1.0000000180025095e-35
decision_type=8 8 10 2 10 10 2
left_child=3 5 -3 6 -5 -2 -1
right_child=1 2 -4 4 -6 -7 -8
leaf_value=0.012230382078141247 0.0035217362918158798 -0.0034461261953072616 -0.015209544830204452 0.019893001812813223 0.0028122409816085836 0.016447980180384306 -0.0038652486009695774
leaf_count=3066 30071 177031 50513 19105 8191 10530 9004
internal_value=0 -0.0933487 -0.191874 0.373961 0.505614 0.236327 0.017693
internal_count=307511 268145 227544 39366 27296 40601 12070
shrinkage=0.03


Tree=39
num_leaves=8
num_cat=0
split_feature=40 41 1 41 11 39 40
split_gain=752.618 560.984 420.724 137.197 113.396 65.6122 49.6311
threshold=0.64748010186514693 0.26575311909471833 1.0000000180025095e-35 0.43384745792380691 1.0000000180025095e-35 0.56594804903199203 0.71905256719745669
decision_type=10 8 2 8 2 10 10
left_child=1 4 -3 5 -1 -2 -5
right_child=3 2 -4 6 -6 -7 -8
leaf_value=0.017793676042255159 0.00013921379587404739 0.0071557720432497496 -0.0035660516285952212 -0.010909644849762557 0.0052909126593716537 -0.015039815494698754 -0.018455200882706701
leaf_count=17799 16327 65538 125913 43891 7505 4869 25669
internal_value=0 0.0964358 0.0111641 -0.343428 0.473891 -0.0982818 -0.455535
internal_count=307511 216755 191451 90756 25304 21196 69560
shrinkage=0.03


Tree=40
num_leaves=8
num_cat=0
split_feature=41 39 15 40 41 39 40
split_gain=734.837 531.667 518.762 122.56 109.098 76.7449 42.3269
threshold=0.57179952324457861 0.41150962141137531 -19940.499999999996 0.25777745582296024 0.22952115678204391 0.41408830859588303 0.069159962952844628
decision_type=10 10 2 10 8 8 8
left_child=1 2 -1 6 -3 -5 -2
right_child=3 4 -4 5 -6 -7 -8
leaf_value=-0.0061094810019009628 0.015974820287727124 0.0041334849010502333 0.0090113559833156654 -0.0013064442965096145 -0.009089389669964346 -0.01267827585087045 -0.0019514556515195919
leaf_count=31484 1614 6408 114654 11120 47333 85251 9647
internal_value=0 0.10417 0.201096 -0.311158 -0.223928 -0.37427 0.0278629
internal_count=307511 199879 146138 107632 53741 96371 11261
shrinkage=0.03


Tree=41
num_leaves=8
num_cat=0
split_feature=40 41 11 41 10 39 40
split_gain=704.789 529.871 374.672 108.348 92.0454 56.6283 41.2628
threshold=0.65582424677266327 0.57179952324457861 1.0000000180025095e-35 0.4373939367044648 1.0000000180025095e-35 0.24443998682948068 0.71905256719745669
decision_type=10 10 2 8 2 8 10
left_child=1 2 -1 5 -3 -2 -5
right_child=3 4 -4 6 -6 -7 -8
leaf_value=0.0084737443834723945 0.01845429800575988 -0.0023202279521144652 -0.0028112506816054404 -0.010954140885209237 -0.011190599180825888 -0.0054040247506311747 -0.018106255134062717
leaf_count=109142 989 37413 40600 38302 36816 18699 25550
internal_value=0 0.0876994 0.183516 -0.353407 -0.221544 -0.127328 -0.459329
internal_count=307511 223971 149742 83540 74229 19688 63852
shrinkage=0.03


Tree=42
num_leaves=8
num_cat=0
split_feature=40 41 39 40 141 21 15
split_gain=677.489 494.56 293.613 195.733 159.991 133.919 50.5483
threshold=0.25777745582296024 0.34496990492100627 0.52366176390391661 0.069159962952844628 0.76012550522536482 1.0000000180025095e-35 -17997.499999999996
decision_type=8 8 10 10 10 2 2
left_child=3 4 -3 6 -2 -5 -1
right_child=1 2 -4 5 -6 -7 -8
leaf_value=0.010231058725269701 0.0010879734377381006 -0.0033925181566648779 -0.014668756306799424 -0.0054511749475118308 0.012461726932334532 0.0098297609592445812 0.026256741244112976
leaf_count=2115 27246 173449 49526 6617 17924 25278 5356
internal_value=0 -0.0883881 -0.185614 0.346748 0.195047 0.236062 0.743891
internal_count=307511 268145 222975 39366 45170 31895 7471
shrinkage=0.03


Tree=43
num_leaves=8
num_cat=0
split_feature=40 41 1 41 41 39 40
split_gain=656.171 489.852 393.393 113.583 101.1 52.4516 40.5448
threshold=0.65582424677266327 0.26575311909471833 1.0000000180025095e-35 0.12334537001096685 0.4373939367044648 0.24443998682948068 0.71905256719745669
decision_type=10 8 2 10 8 8 10
left_child=1 3 -3 -1 5 -2 -6
right_child=4 2 -4 -5 6 -7 -8
leaf_value=0.021929922244097119 0.017466608049139135 0.0066237610837194911 -0.0036067852056905002 0.0094754478488646415 -0.010608735668099566 -0.0053113350976592387 -0.017766690437289696
leaf_count=6396 989 67716 130253 19606 38302 18699 25550
internal_value=0 0.0840056 0.00469339 0.428911 -0.343705 -0.125641 -0.447509
internal_count=307511 223971 197969 26002 83540 19688 63852
shrinkage=0.03


Tree=44
num_leaves=8
num_cat=0
split_feature=41 11 15 39 40 10 92
split_gain=633.33 494.629 505.076 122.219 111.545 84.6904 18.3941
threshold=0.57179952324457861 1.0000000180025095e-35 -19339.499999999996 0.18767199313407903 0.64593126645136045 1.0000000180025095e-35 1.0000000180025095e-35
decision_type=10 2 2 8 10 2 10
left_child=1 2 -1 -3 5 -2 -6
right_child=4 3 -4 -5 6 -7 -8
leaf_value=-0.0046250150372230559 -0.0019726920415940445 0.015578617025175465 0.0095906375171137502 -0.0064930796063906856 -0.016568238585295492 -0.010663047673978869 -0.0030786853288563561
leaf_count=37845 35899 2223 102900 56911 34195 35152 2386
internal_value=0 0.0954171 0.202593 -0.179262 -0.293151 -0.205945 -0.523046
internal_count=307511 199879 140745 59134 107632 71051 36581
shrinkage=0.03


Tree=45
num_leaves=8
num_cat=0
split_feature=39 15 11 1 41 39 40
split_gain=619.129 548.532 514.206 131.799 65.7397 37.8615 16.3177
threshold=0.56594804903199203 -19339.499999999996 1.0000000180025095e-35 1.0000000180025095e-35 0.22952115678204391 0.69494041054371813 0.63141939695657634
decision_type=10 2 2 2 8 10 8
left_child=1 3 -3 -1 6 -6 -2
right_child=4 2 -4 -5 5 -7 -8
leaf_value=0.0012622604962549235 0.0036400988254624376 0.0083153953199951933 -0.0041881967156560101 -0.010299091471793751 -0.010058260593842169 -0.017048166908200418 -0.010016369403681143
leaf_count=17071 2276 131484 54614 49234 23498 27986 1348
internal_value=0 0.0666592 0.160314 -0.239086 -0.406899 -0.458779 -0.0120863
internal_count=307511 252403 186098 66305 55108 51484 3624
shrinkage=0.03


Tree=46
num_leaves=8
num_cat=0
split_feature=40 41 11 40 10 39 16
split_gain=608.107 445.117 323.619 167.731 107.006 100.517 47.4384
threshold=0.2478623843915074 0.52539569308654566 1.0000000180025095e-35 0.069159962952844628 1.0000000180025095e-35 0.6082353771868213 -3500.4999999999995
decision_type=8 10 2 10 2 10 2
left_child=3 2 -2 6 -5 -3 -1
right_child=1 5 -4 4 -6 -7 -8
leaf_value=0.0012407190446807521 0.0038401309679497891 -0.0076705512013661757 -0.0067931827384290142 0.01152540664105005 0.00056305062466897643 -0.018603994689579045 0.02316254827689266
leaf_count=814 107682 94301 47776 16100 13363 20818 6657
internal_value=0 -0.0816999 0.0241089 0.337559 0.228429 -0.313999 0.698386
internal_count=307511 270577 155458 36934 29463 115119 7471
shrinkage=0.03


Tree=47
num_leaves=8
num_cat=0
split_feature=40 39 41 15 41 39 40
split_gain=589.898 439.149 382.929 97.363 91.9529 48.343 39.74
threshold=0.65582424677266327 0.19232159378939626 0.26575311909471833 -10180.499999999998 0.4373939367044648 0.56594804903199203 0.71905256719745669
decision_type=10 8 8 2 8 10 10
left_child=1 3 -3 -1 5 -2 -6
right_child=4 2 -4 -5 6 -7 -8
leaf_value=0.030549811902902839 -0.00089939964422005821 0.010753360017651177 -0.00088668807639849295 0.011296008565662805 -0.010106412353774555 -0.01466813194350248 -0.01728951865733979
leaf_count=5295 15127 24060 190730 3886 38302 4561 25550
internal_value=0 0.0788471 0.0414838 0.733944 -0.329594 -0.121936 -0.430607
internal_count=307511 223971 214790 9181 83540 19688 63852
shrinkage=0.03


Tree=48
num_leaves=8
num_cat=0
split_feature=39 15 16 1 41 39 138
split_gain=569.485 531.272 476.601 107.303 69.1016 50.868 22.461
threshold=0.5315290354556762 -19882.499999999996 -2004.4999999999998 1.0000000180025095e-35 0.22952115678204391 0.69494041054371813 7.5000000000000009
decision_type=10 2 2 2 8 10 10
left_child=1 3 -3 -1 6 -6 -2
right_child=4 2 -4 -5 5 -7 -8
leaf_value=0.00051816064647163191 -0.0017337808206190671 -0.0026998282583630849 0.0085479908726915077 -0.010881890946945354 -0.0089452446548643223 -0.01661600411178836 0.02444014870981237
leaf_count=14125 3923 71405 116784 43220 29770 27986 298
internal_value=0 0.0684957 0.153924 -0.263278 -0.365288 -0.417029 0.00320174
internal_count=307511 245534 188189 57345 61977 57756 4221
shrinkage=0.03


Tree=49
num_leaves=8
num_cat=0
split_feature=40 15 39 41 141 11 1
split_gain=558 326.162 395.733 241.815 127.541 110.861 107.021
threshold=0.5504070487451439 -19010.499999999996 0.2704381573703139 0.41272265809433373 0.76012550522536482 1.0000000180025095e-35 1.0000000180025095e-35
decision_type=10 2 10 8 8 2 2
left_child=1 6 -3 4 -2 -5 -1
right_child=3 2 -4 5 -6 -7 -8
leaf_value=0.0047319951602616383 -0.0043688285319142678 0.010775110143684995 -0.0020774878626661636 -0.0063475976715936418 0.0080486655767319296 -0.014991167299599163 -0.0076634714596670352
leaf_count=9711 20715 66645 37696 86117 15998 40352 30277
internal_value=0 0.131429 0.221419 -0.189311 0.0441757 -0.30102 -0.145497
internal_count=307511 144329 104341 163182 36713 126469 39988
shrinkage=0.03


Tree=50
num_leaves=8
num_cat=0
split_feature=41 11 15 40 40 128 92
split_gain=537.259 410.567 393 104.219 96.7192 80.6508 18.527
threshold=0.57179952324457861 1.0000000180025095e-35 -16496.499999999996 0.20918276296592164 0.64593126645136045 135002.25000000003 1.0000000180025095e-35
decision_type=10 2 2 8 10 10 10
left_child=1 2 -1 -3 5 -2 -6
right_child=4 3 -4 -5 6 -7 -8
leaf_value=-0.00098047134703683841 0.0048711455859313498 0.0064028306182561242 0.0099555904473800621 -0.0067584535459703282 -0.015743597916422734 -0.007500755269662338 -0.0019669454601895582
leaf_count=62881 9342 4718 77864 54416 34195 61709 2386
internal_value=0 0.0867018 0.182869 -0.166229 -0.274154 -0.193384 -0.494577
internal_count=307511 199879 140745 59134 107632 71051 36581
shrinkage=0.03


Tree=51
num_leaves=8
num_cat=0
split_feature=40 41 39 141 95 39 40
split_gain=523.583 417.876 262.014 151.093 112.72 94.2402 41.7763
threshold=0.18397173769750691 0.34496990492100627 0.41693600304579898 0.85010963047269916 1.0000000180025095e-35 0.39508714505419368 0.023711236871581033
decision_type=8 8 10 10 2 10 10
left_child=4 3 -3 -2 6 -6 -1
right_child=1 2 -4 -5 5 -7 -8
leaf_value=0.021111132593149975 0.0021845945896944393 -0.0021923859509840457 -0.011678882723910756 0.013567903812226136 0.017604026495073432 0.00080705762252392046 -0.00078525886706115686
leaf_count=646 35097 167625 67184 13000 14723 3363 5873
internal_value=0 -0.0622396 -0.150441 0.183329 0.384476 0.497722 0.0555599
internal_count=307511 282906 234809 48097 24605 18086 6519
shrinkage=0.03


Tree=52
num_leaves=8
num_cat=0
split_feature=40 41 95 41 15 39 40
split_gain=514.071 385.243 340.034 78.524 71.8502 44.5419 39.2383
threshold=0.65582424677266327 0.61697391881022823 1.0000000180025095e-35 0.4373939367044648 -15446.499999999998 0.24443998682948068 0.71905256719745669
decision_type=10 10 2 8 2 8 10
left_child=1 2 -1 5 -3 -2 -5
right_child=3 4 -4 6 -6 -7 -8
leaf_value=-0.0032398162850954147 0.015586222965605986 -0.010915831142116625 0.0070194259068071842 -0.0094098426457782866 -0.0018853329732690094 -0.0050812853039699339 -0.016671534426447015
leaf_count=45385 989 35804 119241 38302 23541 18699 25550
internal_value=0 0.0727088 0.141613 -0.311986 -0.237695 -0.120858 -0.407916
internal_count=307511 223971 164626 83540 59345 19688 63852
shrinkage=0.03


Tree=53
num_leaves=8
num_cat=0
split_feature=39 10 16 41 41 39 40
split_gain=500.393 471.727 402.88 187.823 53.0183 35.1294 13.5708
threshold=0.56594804903199203 1.0000000180025095e-35 -2004.4999999999998 0.24518380290995226 0.22952115678204391 0.69494041054371813 0.63141939695657634
decision_type=10 2 2 8 8 10 8
left_child=1 2 -1 -3 6 -6 -2
right_child=4 3 -4 -5 5 -7 -8
leaf_value=-0.0017241691828450395 0.0028876514345115636 0.00712493891110601 0.010369623391802684 -0.0053669448895067549 -0.0091043375519508796 -0.016006596205897283 -0.009598417278801518
leaf_count=53565 2276 10042 80046 108750 23498 27986 1348
internal_value=0 0.0585591 0.198525 -0.116744 -0.375193 -0.424225 -0.0228081
internal_count=307511 252403 133611 118792 55108 51484 3624
shrinkage=0.03


Tree=54
num_leaves=8
num_cat=0
split_feature=40 39 11 40 15 7 40
split_gain=484.954 316.299 263.78 198.254 156.569 57.5117 42.1338
threshold=0.35681762026301722 0.17384221453891571 1.0000000180025095e-35 0.069159962952844628 -19997.499999999996 13502.250000000002 0.010403997785698622
decision_type=8 8 2 10 2 10 10
left_child=3 5 -3 6 -5 -2 -1
right_child=1 2 -4 4 -6 -7 -8
leaf_value=0.031856105313204167 7.7303106651522996e-05 -0.0012879486741359007 -0.010111229608861466 -0.0053249433652007945 0.00672669162214703 0.02474005899777219 0.015739372704708956
leaf_count=1264 1203 162452 72867 13890 45039 4589 6207
internal_value=0 -0.102725 -0.130239 0.213249 0.144952 0.656775 0.620439
internal_count=307511 241111 235319 66400 58929 5792 7471
shrinkage=0.03


Tree=55
num_leaves=8
num_cat=0
split_feature=40 41 95 41 15 141 40
split_gain=469.632 353.944 312.614 74.8746 60.7612 42.5474 37.7101
threshold=0.65582424677266327 0.6220741691655115 1.0000000180025095e-35 0.45879500081581598 -15446.499999999998 0.76012550522536482 0.71905256719745669
decision_type=10 10 2 8 2 8 10
left_child=1 2 -1 5 -3 -2 -5
right_child=3 4 -4 6 -6 -7 -8
leaf_value=-0.0031781349906193292 -0.0082719541380462201 -0.010677407671159335 0.0066217898310353875 -0.0091936372389939663 -0.0021866485358358057 0.0017163394970665423 -0.016529642262035581
leaf_count=45973 12520 34632 120734 37013 22632 9321 24686
internal_value=0 0.0689602 0.133105 -0.300755 -0.236817 -0.124255 -0.401227
internal_count=307511 223971 166707 83540 57264 21841 61699
shrinkage=0.03


Tree=56
num_leaves=8
num_cat=0
split_feature=39 10 16 41 41 39 0
split_gain=465.046 429.151 369.959 173.382 50.1052 33.81 13.2803
threshold=0.56594804903199203 1.0000000180025095e-35 -1776.4999999999998 0.26575311909471833 0.22952115678204391 0.69494041054371813 1.0000000180025095e-35
decision_type=10 2 2 8 8 10 2
left_child=1 2 -1 -3 6 -6 -2
right_child=4 3 -4 -5 5 -7 -8
leaf_value=-0.0010658287606488046 0.0011527916494231648 0.0060185104135200762 0.01026155276943628 -0.0053207034018615861 -0.0088232461389207584 -0.015648576945549875 -0.017548269808831014
leaf_count=59429 3243 11714 74182 107078 23498 27986 381
internal_value=0 0.0560467 0.188747 -0.112009 -0.36466 -0.413021 -0.0221024
internal_count=307511 252403 133611 118792 55108 51484 3624
shrinkage=0.03


Tree=57
num_leaves=8
num_cat=0
split_feature=39 15 11 1 39 41 41
split_gain=443.717 439.091 377.683 113.701 72.7521 52.4237 18.161
threshold=0.49973431934820772 -19339.499999999996 1.0000000180025095e-35 1.0000000180025095e-35 0.69494041054371813 0.28591619372244553 0.13894432857919095
decision_type=10 2 2 2 10 8 8
left_child=1 3 -3 -1 5 -2 -6
right_child=4 2 -4 -5 6 -7 -8
leaf_value=0.0014390152937091413 0.0029229443780016524 0.0074082465226039803 -0.0036604386984526865 -0.0095306741912595874 0.0008535474944265331 -0.0082113746126005038 -0.015030523291230084
leaf_count=16563 4725 124162 49998 48475 599 33905 29084
internal_value=0 0.0632262 0.148116 -0.217666 -0.309657 -0.197088 -0.478215
internal_count=307511 239198 174160 65038 68313 38630 29683
shrinkage=0.03


Tree=58
num_leaves=8
num_cat=0
split_feature=40 39 41 40 39 39 35
split_gain=435.794 329.948 273.663 132.115 88.2052 82.8295 39.4882
threshold=0.25777745582296024 0.26096555073096406 0.61697391881022823 0.069159962952844628 0.15037451173191699 0.38704212930160747 1.0000000180025095e-35
decision_type=8 8 10 10 10 10 2
left_child=3 4 -3 6 -2 -5 -1
right_child=1 2 -4 5 -6 -7 -8
leaf_value=0.015296156810745275 0.022154001971379306 -0.001452135380165376 -0.011071734691343618 0.0074724168188017382 0.0063814075343616959 -0.0045818563915485007 0.033147999836418446
leaf_count=6609 4596 176257 74822 25453 12470 6442 862
internal_value=0 -0.073209 -0.115637 0.271033 0.368306 0.180145 0.585136
internal_count=307511 268145 251079 39366 17066 31895 7471
shrinkage=0.03


Tree=59
num_leaves=8
num_cat=0
split_feature=40 124 95 15 141 92 41
split_gain=426.203 340.43 221.315 151.2 70.252 41.0151 35.2766
threshold=0.65582424677266327 299.50000000000006 1.0000000180025095e-35 -18200.499999999996 0.76012550522536482 1.0000000180025095e-35 0.13135864273369982
decision_type=10 8 2 2 10 10 8
left_child=1 3 -3 -1 5 -2 -6
right_child=4 2 -4 -5 6 -7 -8
leaf_value=-0.00861617686846812 -0.011819893367133568 -0.0015953947601736057 0.0085405445126518383 0.0001697138683824782 0.016733198214921363 0.0013328951557188072 -0.0034763836454175059
leaf_count=38560 61335 32205 81062 72144 760 4510 16935
internal_value=0 0.0652007 0.192157 -0.0830969 -0.289058 -0.362373 -0.0589289
internal_count=307511 223971 113267 110704 83540 65845 17695
shrinkage=0.03


Tree=60
num_leaves=8
num_cat=0
split_feature=39 15 11 1 39 41 41
split_gain=411.982 469.814 334.533 175.342 98.0152 74.1583 17.3288
threshold=0.41150962141137531 -18132.499999999996 1.0000000180025095e-35 1.0000000180025095e-35 0.69494041054371813 0.23988384837774554 0.13894432857919095
decision_type=10 2 2 2 10 8 8
left_child=1 3 -3 -1 5 -2 -6
right_child=4 2 -4 -5 6 -7 -8
leaf_value=0.0032074959133142674 0.0049987501783814205 0.0084605195159903855 -0.0028708885606351284 -0.0088463775841928043 0.00084784179397182351 -0.0067737977522017798 -0.014668822842158081
leaf_count=21449 5140 101571 41108 57698 599 50862 29084
internal_value=0 0.0720851 0.181332 -0.177433 -0.253507 -0.161268 -0.466266
internal_count=307511 221826 142679 79147 85685 56002 29683
shrinkage=0.03


Tree=61
num_leaves=8
num_cat=0
split_feature=41 11 15 39 128 41 93
split_gain=402.583 333.884 293.626 89.17 76.0219 46.3508 33.9717
threshold=0.60841648376416824 1.0000000180025095e-35 -19275.499999999996 0.18767199313407903 135002.25000000003 0.7039548641001806 -915.49999999999989
decision_type=10 2 2 8 10 10 10
left_child=1 2 -1 -3 6 -6 -2
right_child=4 3 -4 -5 5 -7 -8
leaf_value=-0.0035756433313395728 -0.0073172544376797462 0.012376917551275325 0.0069763288827824239 -0.0057622764486839973 -0.0066192440825391091 -0.013315487160449379 0.0071518892433065908
leaf_count=42503 4930 2334 110376 61852 41062 37413 7041
internal_value=0 0.0653695 0.148463 -0.159652 -0.272695 -0.325895 0.0521106
internal_count=307511 217065 152879 64186 90446 78475 11971
shrinkage=0.03


Tree=62
num_leaves=8
num_cat=0
split_feature=40 141 1 41 7 8 123
split_gain=394.382 333.543 211.963 115.607 86.8177 128.358 29.8021
threshold=0.18397173769750691 0.79354518536489349 1.0000000180025095e-35 0.36812987827773902 16503.750000000004 450117.00000000006 -268.49999999999994
decision_type=8 10 2 8 10 8 8
left_child=4 2 -2 -3 6 -6 -1
right_child=1 3 -4 -5 5 -7 -8
leaf_value=-0.0036124965423516052 0.00092921209459565163 0.010725355342349249 -0.0065055863785358804 0.0008370550268231745 0.020333268286526405 0.0058458892671851342 0.0072413765983746032
leaf_count=3815 77086 18928 150198 36694 8135 9217 3438
internal_value=0 -0.055116 -0.125948 0.191243 0.328251 0.435201 0.0671317
internal_count=307511 282906 227284 55622 24605 17352 7253
shrinkage=0.03


Tree=63
num_leaves=8
num_cat=0
split_feature=40 124 95 39 41 8 40
split_gain=389.475 310.843 198.625 135.781 64.9885 38.2194 37.0124
threshold=0.65582424677266327 309.50000000000006 1.0000000180025095e-35 0.17384221453891571 0.45879500081581598 675191.25000000012 0.71905256719745669
decision_type=10 8 2 8 8 8 10
left_child=1 3 -3 -1 5 -2 -6
right_child=4 2 -4 -5 6 -7 -8
leaf_value=0.015819340557016032 -0.00023144615318735704 -0.0015106672232208566 0.0081226050583396107 -0.0031815439282117386 -0.0083866900190321496 -0.010540382306284995 -0.015798662086832716
leaf_count=3204 14844 31978 80529 108260 37013 6997 24686
internal_value=0 0.0619265 0.183523 -0.0792622 -0.278493 -0.113931 -0.374698
internal_count=307511 223971 112507 111464 83540 21841 61699
shrinkage=0.03


Tree=64
num_leaves=8
num_cat=0
split_feature=41 39 15 39 41 138 141
split_gain=378.876 333.561 341.401 72.7013 69.8495 51.022 49.2562
threshold=0.19350502769441605 0.41693600304579898 -18132.499999999996 0.69494041054371813 0.08364060069910545 5.5000000000000009 0.90262229323836551
decision_type=8 10 2 10 10 10 8
left_child=4 2 -2 -3 5 -1 -6
right_child=1 3 -4 -5 6 -7 -8
leaf_value=0.015978817416406641 -0.005992865651360659 -0.0061243970292101458 0.0036600297028337547 -0.014505133817284252 0.0054635780498703242 0.039562745707938642 0.01661598251295375
leaf_count=3198 76029 51599 132958 28468 11150 737 3372
internal_value=0 -0.0474873 0.021761 -0.291274 0.367584 0.678072 0.27576
internal_count=307511 289054 208987 80067 18457 3935 14522
shrinkage=0.03


Tree=65
num_leaves=8
num_cat=0
split_feature=40 141 39 40 7 7 16
split_gain=367.371 245.615 172.276 152.661 116.772 90.9163 36.6522
threshold=0.35681762026301722 0.78110550218734509 0.27678185847419118 0.069159962952844628 16413.750000000004 13502.250000000002 -3097.4999999999995
decision_type=8 10 8 10 10 10 2
left_child=3 2 -2 6 -5 -3 -1
right_child=1 5 -4 4 -6 -7 -8
leaf_value=0.0010443948570766023 0.0068459151304166611 -0.0061820558655925808 -0.0060232572374014507 -0.0028332224813338008 0.0062889750818304517 0.0064232993638894025 0.018096650511190544
leaf_count=1007 12377 8584 179221 16946 41983 40929 6464
internal_value=0 -0.090862 -0.162134 0.183302 0.123046 0.139603 0.533312
internal_count=307511 241111 191598 66400 58929 49513 7471
shrinkage=0.03


Tree=66
num_leaves=8
num_cat=0
split_feature=41 11 15 95 128 40 40
split_gain=358.883 321.195 263.813 82.8639 62.4322 40.5481 25.8593
threshold=0.6220741691655115 1.0000000180025095e-35 -19339.499999999996 1.0000000180025095e-35 163177.47000000003 0.14723396756955634 0.59933859161511227
decision_type=10 2 2 2 10 10 10
left_child=1 2 -1 -3 6 -6 -2
right_child=4 3 -4 -5 5 -7 -8
leaf_value=-0.0034920258791108186 0.0041999150710503377 -0.010577068345157118 0.006483834154004468 -0.0021649589311085369 0.0021417352192555656 -0.010809512521763208 -0.0082305859621493206
leaf_count=43488 7578 21749 114191 44432 2706 67512 5855
internal_value=0 0.0582259 0.13858 -0.161173 -0.273107 -0.329891 0.00185677
internal_count=307511 223860 157679 66181 83651 70218 13433
shrinkage=0.03


Tree=67
num_leaves=8
num_cat=0
split_feature=39 95 8 40 41 16 0
split_gain=354.765 345.628 349.868 69.6426 39.7279 34.5383 12.142
threshold=0.56594804903199203 1.0000000180025095e-35 675191.25000000012 0.68296672524438751 0.22952115678204391 -2413.4999999999995 1.0000000180025095e-35
decision_type=10 2 8 10 8 2 2
left_child=1 3 -3 -1 6 -6 -2
right_child=4 2 -4 -5 5 -7 -8
leaf_value=-0.0037323975083005719 0.0010196643674956747 0.0065254043673073714 -0.0046450527387960853 -0.01378519654637738 -0.016054354239119158 -0.0086070181808989409 -0.017054314230057713
leaf_count=58530 3243 132055 47247 14571 18251 33233 381
internal_value=0 0.0477873 0.129901 -0.17034 -0.32742 -0.37277 -0.0230588
internal_count=307511 252403 179302 73101 55108 51484 3624
shrinkage=0.03


Tree=68
num_leaves=8
num_cat=0
split_feature=40 124 41 1 41 39 92
split_gain=346.87 289.774 178.677 128.916 57.6621 32.9667 32.1248
threshold=0.66398554250013719 309.50000000000006 0.38848206813417357 1.0000000180025095e-35 0.4373939367044648 0.56594804903199203 1.0000000180025095e-35
decision_type=10 8 8 2 8 10 10
left_child=1 3 -3 -1 5 -2 -6
right_child=4 2 -4 -5 6 -7 -8
leaf_value=0.0024894029898624424 -0.00091888935343951473 0.010803927590462774 0.0022742524836158076 -0.0051896853236204459 -0.012099754854194799 -0.013272566822038293 0.0014217958936201711
leaf_count=37393 13735 27862 88122 77719 54590 4202 3888
internal_value=0 0.0547028 0.170483 -0.0805959 -0.280825 -0.108485 -0.371865
internal_count=307511 231096 115984 115112 76415 17937 58478
shrinkage=0.03


Tree=69
num_leaves=8
num_cat=0
split_feature=16 10 39 41 41 19 141
split_gain=338.665 395.857 247.989 126.332 109.075 60.8557 43.2834
threshold=-2442.4999999999995 1.0000000180025095e-35 0.2704381573703139 0.26575311909471833 0.34496990492100627 9.5000000000000018 0.90818472079361257
decision_type=2 2 10 8 8 8 10
left_child=4 2 -2 -3 6 -6 -1
right_child=1 3 -4 -5 5 -7 -8
leaf_value=-0.0014529926641482908 0.010050382700529352 0.0054990955069226634 -0.00098015098361845659 -0.0044965267621841064 -0.015952924766822515 -0.0068931067802642451 0.012428322678575528
leaf_count=11582 65973 11228 38016 103461 15115 60096 2040
internal_value=0 0.0726631 0.220984 -0.0905809 -0.207929 -0.287319 0.0270265
internal_count=307511 218678 103989 114689 88833 75211 13622
shrinkage=0.03


Tree=70
num_leaves=8
num_cat=0
split_feature=141 40 16 7 8 39 40
split_gain=329.1 276.9 173.116 102.4 152.268 102.224 26.509
threshold=0.81719374675657042 0.5504070487451439 -2442.4999999999995 13502.250000000002 450117.00000000006 0.27678185847419118 0.3020179896967094
decision_type=10 10 2 10 10 8 8
left_child=1 2 -1 6 -5 -3 -2
right_child=3 5 -4 4 -6 -7 -8
leaf_value=-0.0056731722454840053 0.0057913035817772924 0.0056842266904578295 0.0033340702330747346 0.015494932537560603 0.0033869725000903908 -0.0075835528748954091 -0.0057436303728024178
leaf_count=30169 2026 7477 87367 19733 25378 127388 7973
internal_value=0 -0.0635427 0.0390543 0.236756 0.307801 -0.217089 -0.0756515
internal_count=307511 252401 117536 55110 45111 134865 9999
shrinkage=0.03


Tree=71
num_leaves=8
num_cat=0
split_feature=95 8 1 40 92 141 141
split_gain=326.993 373.738 328.164 82.8958 65.6871 48.6311 18.7082
threshold=1.0000000180025095e-35 675191.25000000012 1.0000000180025095e-35 0.68447992995818008 1.0000000180025095e-35 0.78750177304964553 0.76300116946303786
decision_type=2 8 2 10 10 10 10
left_child=3 2 -2 4 -1 -3 -5
right_child=1 5 -4 6 -6 -7 -8
leaf_value=-0.005586717454755535 0.011504871592925387 -0.0075295264909619889 0.0011733391214253763 -0.01699496804278379 0.0063070953125949842 0.00044284702550760851 -0.0063796259490701496
leaf_count=64313 49554 49594 107235 15258 5873 11957 3727
internal_value=0 0.0732898 0.160632 -0.199309 -0.151151 -0.19226 -0.485246
internal_count=307511 218340 156789 89171 70186 61551 18985
shrinkage=0.03


Tree=72
num_leaves=8
num_cat=0
split_feature=41 11 15 40 0 8 8
split_gain=319.678 291.558 300.699 95.4842 52.6538 53.7267 9.2349
threshold=0.16000423555253143 1.0000000180025095e-35 -15281.499999999998 0.48809996604069344 1.0000000180025095e-35 450117.00000000006 243717.75000000003
decision_type=8 2 2 10 2 10 10
left_child=4 2 -2 -3 5 -1 -6
right_child=1 3 -4 -5 6 -7 -8
leaf_value=0.017958143771202941 -0.0030537952809418785 -0.0024455359486167845 0.005447573566276686 -0.01060545668644206 0.0020908746453307402 0.0070254575609301796 -0.012128635401497178
leaf_count=6781 122836 24913 86564 60020 610 5191 596
internal_value=0 -0.0373942 0.0338386 -0.238805 0.396651 0.448846 -0.145862
internal_count=307511 294333 209400 84933 13178 11972 1206
shrinkage=0.03


Tree=73
num_leaves=8
num_cat=0
split_feature=39 15 19 138 39 41 40
split_gain=314.611 340.48 307.579 82.2788 82.175 56.0923 15.1114
threshold=0.41150962141137531 -19882.499999999996 11.500000000000002 3.5000000000000004 0.69494041054371813 0.33365234483727518 0.010403997785698622
decision_type=10 2 8 10 10 8 10
left_child=1 3 -3 -1 5 -2 -6
right_child=4 2 -4 -5 6 -7 -8
leaf_value=-0.0084662415259140547 0.001897401810549635 -0.0047863983002780618 0.0062773715099392457 0.0040396709019149459 0.025820221352653029 -0.0066424657101028213 -0.013082321852593701
leaf_count=48601 9636 36395 129226 7604 104 46366 29579
internal_value=0 0.0620178 0.132944 -0.215529 -0.226043 -0.141722 -0.427749
internal_count=307511 221826 165621 56205 85685 56002 29683
shrinkage=0.03


Tree=74
num_leaves=8
num_cat=0
split_feature=41 11 1 39 128 41 93
split_gain=309.155 273.711 223.621 74.5496 58.5867 38.6854 24.1024
threshold=0.6220741691655115 1.0000000180025095e-35 1.0000000180025095e-35 0.18767199313407903 135002.25000000003 0.7039548641001806 -915.49999999999989
decision_type=10 2 2 8 10 10 10
left_child=1 2 -1 -3 6 -6 -2
right_child=4 3 -4 -5 5 -7 -8
leaf_value=0.0087282875255132453 -0.0066628053400342845 0.010857907007786027 0.00075797639190089308 -0.0054265624275343111 -0.0059006836655762784 -0.01240834591405114 0.0059532326648617344
leaf_count=55083 4738 2370 102596 63811 34824 37413 6676
internal_value=0 0.0535472 0.127007 -0.150691 -0.256515 -0.307505 0.0368469
internal_count=307511 223860 157679 66181 83651 72237 11414
shrinkage=0.03


Tree=75
num_leaves=8
num_cat=0
split_feature=16 10 39 41 39 141 126
split_gain=305.967 332.815 212.23 122.25 68.8458 61.4058 24.1837
threshold=-3097.4999999999995 1.0000000180025095e-35 0.3370402537945128 0.24518380290995226 0.16495428303120055 0.84771360544217711 5052217.0000000009
decision_type=2 2 10 8 8 10 10
left_child=4 2 -2 -3 6 -6 -1
right_child=1 3 -4 -5 5 -7 -8
leaf_value=0.072687105980978925 0.0080415561304305622 0.0056644043571459565 -0.002144539869272545 -0.0043227064661452257 -0.0094351746078287346 0.00061994659588095733 0.015688325437593378
leaf_count=76 80852 10350 37644 113115 55966 8939 569
internal_value=0 0.0555145 0.181457 -0.0914773 -0.245223 -0.261653 0.76483
internal_count=307511 241961 118496 123465 65550 64905 645
shrinkage=0.03


Tree=76
num_leaves=8
num_cat=0
split_feature=40 141 19 7 144 95 141
split_gain=302.985 269.039 209.745 79.5235 58.6674 62.5802 26.4408
threshold=0.12935780608002453 0.84771360544217711 11.500000000000002 13731.750000000002 0.5590277777777779 1.0000000180025095e-35 0.63097951048951051
decision_type=8 10 8 10 8 2 8
left_child=4 2 -2 -3 6 -6 -1
right_child=1 3 -4 -5 5 -7 -8
leaf_value=-0.0073642458906535389 -0.0096169207070785287 -0.0029758677052852405 -0.0011020826728673162 0.008413884564351503 0.0037010505719746812 0.017397770016378156 0.0070857066735833798
leaf_count=1329 50820 8284 197332 36250 3162 8056 2278
internal_value=0 -0.0384999 -0.0926591 0.208963 0.364634 0.459783 0.062713
internal_count=307511 292686 248152 44534 14825 11218 3607
shrinkage=0.03


Tree=77
num_leaves=8
num_cat=0
split_feature=95 8 6 40 92 39 141
split_gain=294.238 335.127 313.508 76.9858 61.6901 45.5376 17.564
threshold=1.0000000180025095e-35 675191.25000000012 284323.50000000006 0.68447992995818008 1.0000000180025095e-35 0.10969878981397295 0.76300116946303786
decision_type=2 8 2 10 10 8 10
left_child=3 2 -2 4 -1 -3 -5
right_child=1 5 -4 6 -6 -7 -8
leaf_value=-0.0053504415420217565 -0.002597962063786827 0.029238442812088535 0.007780851096358528 -0.01650814122723358 0.0061692089210039691 -0.0058188631766794225 -0.0061446671501426773
leaf_count=64313 49004 292 107785 15258 5873 61259 3727
internal_value=0 0.0692119 0.151268 -0.190292 -0.144039 -0.183896 -0.469691
internal_count=307511 218340 156789 89171 70186 61551 18985
shrinkage=0.03


Tree=78
num_leaves=8
num_cat=0
split_feature=16 10 39 41 41 19 39
split_gain=289.638 314.549 197.799 102.145 95.352 54.8361 37.5566
threshold=-2442.4999999999995 1.0000000180025095e-35 0.2704381573703139 0.19350502769441605 0.34496990492100627 9.5000000000000018 0.24443998682948068
decision_type=2 2 10 8 8 8 8
left_child=4 2 -2 -3 6 -6 -1
right_child=1 3 -4 -5 5 -7 -8
leaf_value=0.018660242334928068 0.0089124133791474713 0.0075111266744978134 -0.00091758186793741952 -0.0036187098838932211 -0.015212321943155877 -0.0064561462932847787 -0.00052004349166776475
leaf_count=714 65973 6234 38016 108455 15115 60096 12908
internal_value=0 0.0667367 0.197187 -0.0804532 -0.194185 -0.269771 0.0249116
internal_count=307511 218678 103989 114689 88833 75211 13622
shrinkage=0.03


Tree=79
num_leaves=8
num_cat=0
split_feature=40 7 8 124 41 92 8
split_gain=283.449 260.517 518.056 77.3748 47.8799 30.9187 29.0621
threshold=0.66398554250013719 16503.750000000004 450117.00000000006 319.50000000000006 0.4373939367044648 1.0000000180025095e-35 675191.25000000012
decision_type=10 10 8 8 8 10 8
left_child=1 3 -3 -1 6 -6 -2
right_child=4 2 -4 -5 5 -7 -8
leaf_value=-0.0084753497872705093 -3.985268758682325e-05 0.010446039283504519 -0.0014176061761095574 -0.00095364440655348317 -0.011258085497366453 0.0021644066537594071 -0.0099696357835225534
leaf_count=30685 12190 65372 104462 30577 54590 3888 5747
internal_value=0 0.0488338 0.120681 -0.146928 -0.258041 -0.343487 -0.101086
internal_count=307511 231096 169834 61262 76415 58478 17937
shrinkage=0.03


Tree=80
num_leaves=8
num_cat=0
split_feature=124 11 41 40 121 6 41
split_gain=277.403 222.625 147.156 129.252 87.0857 72.1927 63.3991
threshold=299.50000000000006 1.0000000180025095e-35 0.23466284194682538 0.29718844277562373 3.5000000000000004 279173.25000000006 0.31469441606860521
decision_type=8 2 8 10 10 2 8
left_child=3 2 -2 5 -5 -1 -3
right_child=1 6 -4 4 -6 -7 -8
leaf_value=-0.0053482825516386525 0.014575518607603428 0.0031320355081289413 0.0038494178673235163 -0.0060161290532783265 0.027650789877525773 0.0053941605356072706 -0.0063296536523146088
leaf_count=7798 9565 7913 98803 126567 996 17023 38846
internal_value=0 0.101747 0.183767 -0.123097 -0.190018 0.0678761 -0.124305
internal_count=307511 155127 108368 152384 127563 24821 46759
shrinkage=0.03


Tree=81
num_leaves=8
num_cat=0
split_feature=39 95 8 70 39 15 40
split_gain=274.745 265.581 255.447 62.7742 36.7018 41.7816 16.1087
threshold=0.56594804903199203 1.0000000180025095e-35 675191.25000000012 0.061650000000000003 0.70091770255734709 -22612.499999999996 0.010403997785698622
decision_type=10 2 8 10 10 2 10
left_child=1 3 -3 -1 5 -2 -6
right_child=4 2 -4 -5 6 -7 -8
leaf_value=-0.0021259273123450644 0.023955317401151251 0.005557579138586839 -0.0040450078666539714 -0.009052350973317318 0.02839302463738172 -0.00639461994771313 -0.012710840979624332
leaf_count=45745 761 132055 47247 27356 100 25765 28482
internal_value=0 0.0412895 0.11219 -0.152584 -0.294879 -0.183425 -0.414687
internal_count=307511 252403 179302 73101 55108 26526 28582
shrinkage=0.03


Tree=82
num_leaves=8
num_cat=0
split_feature=16 10 39 138 39 41 15
split_gain=270.993 280.46 176.845 106.939 62.2488 55.7849 22.5181
threshold=-3097.4999999999995 1.0000000180025095e-35 0.3370402537945128 4.5000000000000009 0.16495428303120055 0.33848021082472263 -13859.499999999998
decision_type=2 2 10 10 8 8 2
left_child=4 2 -2 -3 6 -6 -1
right_child=1 3 -4 -5 5 -7 -8
leaf_value=0.046478729399941902 0.007333585782426771 -0.0036021202833337756 -0.0019694745472788331 0.0083252803300805818 -0.0011657528064865405 -0.009445193769580456 0.008748197794927394
leaf_count=217 80852 114350 37644 9115 9093 55812 428
internal_value=0 0.0519184 0.166518 -0.0840783 -0.232745 -0.248772 0.717228
internal_count=307511 241961 118496 123465 65550 64905 645
shrinkage=0.03


Tree=83
num_leaves=8
num_cat=0
split_feature=41 86 7 39 128 41 6
split_gain=265.388 235.948 170.543 100.717 55.0181 37.7638 22.7813
threshold=0.6220741691655115 0.032250000000000008 16503.750000000004 0.19232159378939626 163177.47000000003 0.7039548641001806 247518.00000000003
decision_type=10 10 10 8 10 10 2
left_child=1 2 -1 -3 6 -6 -2
right_child=4 3 -4 -5 5 -7 -8
leaf_value=-0.0019165285705493372 -0.0089862476427140896 0.011954964966762323 0.0063901292030305945 -0.0037449974520407246 -0.0055232227484573381 -0.012119177008977798 0.0038020309121951511
leaf_count=34773 3289 3305 97368 88414 33991 36227 10144
internal_value=0 0.0492027 0.138462 -0.0955084 -0.240349 -0.295485 0.01934
internal_count=307511 223860 132141 91719 83651 70218 13433
shrinkage=0.03


Tree=84
num_leaves=8
num_cat=0
split_feature=40 141 1 86 144 95 141
split_gain=262.506 241.284 200.495 69.9021 54.7647 50.5281 24.2262
threshold=0.12935780608002453 0.85010963047269916 1.0000000180025095e-35 0.034950000000000009 0.58578431372549034 1.0000000180025095e-35 0.63097951048951051
decision_type=8 10 2 10 8 2 8
left_child=4 2 -2 -3 6 -6 -1
right_child=1 3 -4 -5 5 -7 -8
leaf_value=-0.0074345321617025487 0.001662134179494739 0.0093095117542642478 -0.0051833732759534812 0.00067477493886575343 0.0037422436980965161 0.016039757143240338 0.0063416619289962109
leaf_count=1333 84382 25898 164444 17962 3162 8045 2285
internal_value=0 -0.0361227 -0.0873599 0.199322 0.337085 0.428393 0.0470483
internal_count=307511 292686 248826 43860 14825 11207 3618
shrinkage=0.03


Tree=85
num_leaves=8
num_cat=0
split_feature=124 11 86 41 128 41 141
split_gain=255.3 200.741 129.188 120.027 107.169 55.8138 22.6794
threshold=309.50000000000006 1.0000000180025095e-35 0.03595000000000001 0.14599244001433329 129864.87000000001 0.31469441606860521 0.55036632088168247
decision_type=8 2 10 8 10 8 8
left_child=3 2 -2 6 -5 -3 -1
right_child=1 5 -4 4 -6 -7 -8
leaf_value=0.00020286577235746359 0.0078750131747638424 0.0028951525624030055 0.00018224369400542483 0.0029790199069441928 -0.0058137865480339434 -0.0060095069406254338 0.011872342257492334
leaf_count=1638 68231 7865 39406 21337 127018 38637 3379
internal_value=0 0.0980671 0.175782 -0.117718 -0.147759 -0.118059 0.276891
internal_count=307511 154139 107637 153372 148355 46502 5017
shrinkage=0.03


Tree=86
num_leaves=8
num_cat=0
split_feature=16 95 10 141 39 40 0
split_gain=253.445 263.63 217.483 83.045 71.1098 54.2305 31.109
threshold=-2442.4999999999995 1.0000000180025095e-35 2.5000000000000004 0.8640529595565466 0.10969878981397295 0.67556346815203627 1.0000000180025095e-35
decision_type=2 2 2 10 8 10 2
left_child=3 5 -3 4 -1 -2 -5
right_child=1 2 -4 6 -6 -7 -8
leaf_value=0.037905914328997418 -0.0027468796378923477 0.0059368001454741396 -0.0060385905244362877 0.004716337134972849 -0.0073333251528368152 -0.011891122614533126 -0.016450010748330281
leaf_count=283 54777 122500 26002 10492 77040 15399 1018
internal_value=0 0.0620913 0.143574 -0.183106 -0.234481 -0.135166 0.101456
internal_count=307511 218678 148502 88833 77323 70176 11510
shrinkage=0.03


Tree=87
num_leaves=8
num_cat=0
split_feature=19 1 15 8 39 141 123
split_gain=249.246 356.337 216.117 120.381 76.4854 63.5958 15.8785
threshold=11.500000000000002 1.0000000180025095e-35 -16977.499999999996 675191.25000000012 0.13211316158044484 0.86112087837837847 -1397.4999999999998
decision_type=8 2 2 8 8 10 8
left_child=4 3 -3 -2 6 -6 -1
right_child=1 2 -4 -5 5 -7 -8
leaf_value=0.053202741083865676 0.0097599264158435527 -0.0062169516715796513 0.0019670953621922023 -0.00083600384841667707 -0.0088984893543325987 0.00080309260555239375 0.014783798934049562
leaf_count=108 53597 84037 90391 17018 52661 8972 727
internal_value=0 0.0509797 -0.0482311 0.25245 -0.218518 -0.239212 0.654019
internal_count=307511 245043 174428 70615 62468 61633 835
shrinkage=0.03


Tree=88
num_leaves=8
num_cat=0
split_feature=40 7 8 124 141 95 0
split_gain=246.788 239.276 467.069 64.0797 36.6052 20.9913 19.0415
threshold=0.68878045902578433 16503.750000000004 450117.00000000006 319.50000000000006 0.76624509237875305 1.0000000180025095e-35 1.0000000180025095e-35
decision_type=10 10 8 8 10 2 2
left_child=1 3 -3 -1 5 -2 -6
right_child=4 2 -4 -5 6 -7 -8
leaf_value=-0.0080854257924117077 -0.015742928744666897 0.0093953647536275699 -0.0015406675108569563 -0.0013635157590070079 -0.00078120531597887727 -0.0088060185368730361 -0.018689089109647599
leaf_count=33011 14425 70478 115441 32821 10241 29957 1137
internal_value=0 0.0370693 0.103399 -0.147516 -0.295414 -0.364697 -0.0839466
internal_count=307511 251751 185919 65832 55760 44382 11378
shrinkage=0.03


Tree=89
num_leaves=8
num_cat=0
split_feature=41 1 19 39 138 141 41
split_gain=241.617 236.827 270.05 181.77 50.9417 36.3802 31.9252
threshold=0.14599244001433329 1.0000000180025095e-35 16.500000000000004 0.31124741408724893 5.5000000000000009 0.54212306700536494 0.056667959622386313
decision_type=8 2 8 8 10 8 10
left_child=4 2 -2 -3 5 -1 -6
right_child=1 3 -4 -5 6 -7 -8
leaf_value=0.00036925653788803076 -0.0034925026084107304 0.0078460409752250989 0.0078696817108732248 -0.0045896712123231712 0.045889873005578008 0.011628529865983417 0.018149911193527695
leaf_count=2571 44870 12201 56209 183157 309 6589 1605
internal_value=0 -0.0304146 0.106881 -0.114821 0.370227 0.290305 0.768528
internal_count=307511 296437 101079 195358 11074 9160 1914
shrinkage=0.03


Tree=90
num_leaves=8
num_cat=0
split_feature=11 15 39 1 11 39 42
split_gain=240.271 234.555 209.872 199.513 83.4857 70.5301 37.4931
threshold=1.0000000180025095e-35 -15334.499999999998 0.2704381573703139 1.0000000180025095e-35 1.5000000000000002 0.16924150485542261 0.074350000000000013
decision_type=2 2 10 2 2 8 10
left_child=1 3 -3 -1 5 -2 -6
right_child=4 2 -4 -5 6 -7 -8
leaf_value=0.0051013399613560459 0.012442667241052752 0.0086027653945493082 -0.0017956336837808291 -0.004975873322216242 0.0057582756583869398 -0.0077917861205967446 -0.0065961671583504404
leaf_count=35639 1447 58272 34217 90263 9936 73416 4321
internal_value=0 0.0606951 0.18019 -0.0592492 -0.177803 -0.236245 0.072707
internal_count=307511 218391 92489 125902 89120 74863 14257
shrinkage=0.03


Tree=91
num_leaves=8
num_cat=0
split_feature=40 141 19 7 40 6 142
split_gain=233.955 201.006 161.824 83.0711 64.9167 55.3448 16.0299
threshold=0.18397173769750691 0.79354518536489349 11.500000000000002 13502.250000000002 0.010403997785698622 247518.00000000003 256225.50000000003
decision_type=8 10 8 10 10 2 10
left_child=4 2 -2 -3 6 -6 -1
right_child=1 3 -4 -5 5 -7 -8
leaf_value=0.027588493019944031 -0.0094643876689458374 -0.0045721091283421646 -0.0014501445011586196 0.0062357202521070186 -0.0011490907020410743 0.0085087961637062611 0.0025465741925539799
leaf_count=1080 46877 9946 180407 45676 5305 18036 184
internal_value=0 -0.0436318 -0.10063 0.1439 0.247322 0.210796 0.802188
internal_count=307511 282906 227284 55622 24605 23341 1264
shrinkage=0.03


Tree=92
num_leaves=8
num_cat=0
split_feature=16 95 8 11 41 39 39
split_gain=232.335 241.57 206.35 53.7456 53.2529 36.2309 26.5365
threshold=-3097.4999999999995 1.0000000180025095e-35 675191.25000000012 1.0000000180025095e-35 0.32726918529310883 0.16495428303120055 0.2267865119391794
decision_type=2 2 8 2 8 8 8
left_child=4 3 -3 -2 6 -6 -1
right_child=1 2 -4 -5 5 -7 -8
leaf_value=0.02171289133270124 -0.002109788645908476 0.0056361580884356282 -0.0034880802836640009 -0.0088961716483544409 0.018355094017332929 -0.0088214815884851434 -0.0014238990266056413
leaf_count=318 51089 122835 43739 24298 479 56463 8290
internal_value=0 0.0477513 0.120423 -0.136889 -0.217694 -0.280885 -0.00812772
internal_count=307511 241961 166574 75387 65550 56942 8608
shrinkage=0.03


Tree=93
num_leaves=8
num_cat=0
split_feature=124 11 41 6 8 40 128
split_gain=231.252 171.221 116.713 109.241 217.681 49.3922 37.184
threshold=309.50000000000006 1.0000000180025095e-35 0.41622340656827489 270022.50000000006 450117.00000000006 0.66398554250013719 38425.500000000007
decision_type=8 2 8 2 10 8 10
left_child=3 2 -2 6 -5 -3 -1
right_child=1 5 -4 4 -6 -7 -8
leaf_value=0.0069347817009283996 0.0095907713961302325 -0.0012987804261619851 0.0023741356906015658 0.0049764021604353295 -0.0055985443450205829 -0.010609180302639177 -0.0093439419453081405
leaf_count=1730 26862 31932 80775 38758 74532 14570 38352
internal_value=0 0.0930885 0.164196 -0.112565 -0.0494167 -0.108027 -0.284798
internal_count=307511 154139 107637 153372 113290 46502 40082
shrinkage=0.03


Tree=94
num_leaves=8
num_cat=0
split_feature=39 7 8 41 39 15 138
split_gain=225.504 210.554 439.184 53.9805 33.939 39.4025 15.4776
threshold=0.56594804903199203 16503.750000000004 450117.00000000006 0.53975857851166265 0.70091770255734709 -22612.499999999996 4.5000000000000009
decision_type=10 10 8 10 10 2 10
left_child=1 3 -3 -1 5 -2 -6
right_child=4 2 -4 -5 6 -7 -8
leaf_value=-0.0023786301494439547 0.023624189313715981 0.0090032954683011996 -0.001616433626020109 -0.0096027144044396589 -0.012906690213810029 -0.0057927561677674922 -0.0026948350812556364
leaf_count=40439 761 71636 115559 24769 25772 25765 2810
internal_value=0 0.0369883 0.0991028 -0.138417 -0.271418 -0.163488 -0.389151
internal_count=307511 252403 187195 65208 55108 26526 28582
shrinkage=0.03


Tree=95
num_leaves=8
num_cat=0
split_feature=41 86 7 39 128 40 17
split_gain=221.27 203.158 146.678 80.5148 47.448 36.0286 20.9699
threshold=0.63720984947910253 0.033150000000000006 16503.750000000004 0.19232159378939626 163177.47000000003 0.14723396756955634 -1784.4999999999998
decision_type=10 10 10 8 10 8 2
left_child=1 2 -1 -3 6 -6 -2
right_child=4 3 -4 -5 5 -7 -8
leaf_value=-0.0019088342880636702 -0.0021923840204541869 0.010276465916483056 0.0057156156651499024 -0.0035723437853131712 0.003528711016550598 -0.0096904280312860736 0.011986384334685993
leaf_count=36067 10311 3336 101014 91011 2279 61257 2236
internal_value=0 0.0419402 0.12298 -0.0925989 -0.235687 -0.291429 0.0141085
internal_count=307511 231428 137081 94347 76083 63536 12547
shrinkage=0.03


Tree=96
num_leaves=8
num_cat=0
split_feature=19 1 15 0 39 141 123
split_gain=220.309 277.084 183.43 105.847 61.3654 51.9905 17.6859
threshold=9.5000000000000018 1.0000000180025095e-35 -16977.499999999996 1.0000000180025095e-35 0.13211316158044484 0.79354518536489349 -1397.4999999999998
decision_type=8 2 2 2 8 8 10
left_child=4 3 -3 -2 6 -6 -1
right_child=1 2 -4 -5 5 -7 -8
leaf_value=0.043650910957239691 0.007484131029965254 -0.0058045135844303573 0.0017044697041468518 -0.0068465260253568073 -0.011299162269751417 -0.0039215974148868044 0.010328865196318048
leaf_count=178 69228 85240 92816 6726 26593 26227 503
internal_value=0 0.0430192 -0.0458541 0.211743 -0.229021 -0.249363 0.624243
internal_count=307511 254010 178056 75954 53501 52820 681
shrinkage=0.03


Tree=97
num_leaves=8
num_cat=0
split_feature=40 141 6 138 141 145 70
split_gain=217.64 208.436 172.752 109.926 31.5833 19.4638 18.9568
threshold=0.69025979777882818 0.66917392809400844 273672.00000000006 4.5000000000000009 0.76624509237875305 0.073165452433745129 0.086650000000000019
decision_type=10 8 2 10 10 10 10
left_child=1 3 -3 -1 5 -2 -6
right_child=4 2 -4 -5 6 -7 -8
leaf_value=-0.0049766117915641984 -0.011011587000376894 -0.0022329959258946927 0.0054424458928027664 0.0054375710056967135 0.0011035324358892979 0.0091049916924876347 -0.010147044409455935
leaf_count=79743 42528 45106 115283 12865 7372 850 3764
internal_value=0 0.0340705 0.108258 -0.10926 -0.284195 -0.350636 -0.085265
internal_count=307511 252997 160389 92608 54514 43378 11136
shrinkage=0.03


Tree=98
num_leaves=8
num_cat=0
split_feature=16 10 39 138 41 0 138
split_gain=215.686 218.88 140.5 92.991 71.536 47.2375 27.9913
threshold=-2442.4999999999995 1.0000000180025095e-35 0.26096555073096406 5.5000000000000009 0.34496990492100627 1.0000000180025095e-35 8.5000000000000018
decision_type=2 2 10 10 8 2 10
left_child=4 2 -2 -3 6 -6 -1
right_child=1 3 -4 -5 5 -7 -8
leaf_value=-0.00018949184825085697 0.0074281984098084749 -0.0027779613131827473 -0.0007676493274786679 0.012807219104584638 -0.0061853632378785391 -0.018055705361434082 0.023310020776726743
leaf_count=13200 65220 110452 38769 4237 68537 6674 422
internal_value=0 0.0569586 0.163837 -0.0677229 -0.170445 -0.238108 0.0182415
internal_count=307511 218678 103989 114689 88833 75211 13622
shrinkage=0.03


Tree=99
num_leaves=8
num_cat=0
split_feature=124 11 41 40 41 0 138
split_gain=211.328 139.288 115.249 101.576 100.055 45.7789 24.9081
threshold=486.50000000000006 1.0000000180025095e-35 0.12334537001096685 0.30739200574731468 0.23466284194682538 1.0000000180025095e-35 5.5000000000000009
decision_type=8 2 8 10 8 2 8
left_child=2 4 6 -4 -2 -3 -1
right_child=1 5 3 -5 -6 -7 -8
leaf_value=0.0064707031438548676 0.012702095522298279 -0.0013467105412011185 0.0011049919917768619 -0.005561715805333242 0.0034760412784256372 -0.012844948023576511 0.02132779950793353
leaf_count=3134 8478 37256 27492 133804 90627 5792 928
internal_value=0 0.0963748 -0.0996264 -0.124361 0.162803 -0.0925269 0.327982
internal_count=307511 142153 165358 161296 99105 43048 4062
shrinkage=0.03


Tree=100
num_leaves=8
num_cat=0
split_feature=19 1 15 8 39 141 123
split_gain=206.772 264.912 171.678 97.3606 62.0662 52.3083 13.0857
threshold=11.500000000000002 1.0000000180025095e-35 -16977.499999999996 675191.25000000012 0.13211316158044484 0.66917392809400844 -1397.4999999999998
decision_type=8 2 2 8 8 8 10
left_child=4 3 -3 -2 6 -6 -1
right_child=1 2 -4 -5 5 -7 -8
leaf_value=0.035892075760569894 0.0084427507935258411 -0.0055473142137691936 0.001796415435525763 -0.0010470747260202845 -0.011081256040107483 -0.0040070513657986416 0.010359744047405677
leaf_count=221 53597 84037 90391 17018 24480 37153 614
internal_value=0 0.0460773 -0.0406934 0.217203 -0.201383 -0.220801 0.568675
internal_count=307511 245043 174428 70615 62468 61633 835
shrinkage=0.03


Tree=101
num_leaves=8
num_cat=0
split_feature=16 95 8 92 0 141 90
split_gain=201.784 208.907 176.608 49.77 47.3261 52.4437 9.79754
threshold=-3097.4999999999995 1.0000000180025095e-35 675191.25000000012 1.0000000180025095e-35 1.0000000180025095e-35 0.84771360544217711 1.0000000180025095e-35
decision_type=2 2 8 10 2 10 10
left_child=4 3 -3 -2 5 -1 -6
right_child=1 2 -4 -5 6 -7 -8
leaf_value=-0.0067906161672298205 -0.0047928289987898796 0.0051924497147004664 -0.0032672557827722287 0.0056577554051353372 -0.019251904726880455 0.0028081499698747554 -0.00058553067132215782
leaf_count=51580 69283 122835 43739 6104 5164 8287 519
internal_value=0 0.0442276 0.111324 -0.128593 -0.204666 -0.172795 -0.582452
internal_count=307511 241961 166574 75387 65550 59867 5683
shrinkage=0.03


Tree=102
num_leaves=8
num_cat=0
split_feature=40 141 19 86 144 7 141
split_gain=199.497 181.422 151.396 54.9549 50.7698 37.2333 20.2805
threshold=0.12935780608002453 0.85010963047269916 11.500000000000002 0.03595000000000001 0.58578431372549034 11697.750000000002 0.63097951048951051
decision_type=8 10 8 10 8 10 8
left_child=4 2 -2 -3 6 -6 -1
right_child=1 3 -4 -5 5 -7 -8
leaf_value=-0.0077122214074792301 -0.0082935677048777048 0.0079877672933949921 -0.00090811498305022641 0.00036553842687638395 0.00016837480861772445 0.01319944215448317 0.0048434207387386347
leaf_count=1333 50972 26005 197854 17855 1687 9520 2285
internal_value=0 -0.0318925 -0.077119 0.170092 0.290669 0.377433 0.0134516
internal_count=307511 292686 248826 43860 14825 11207 3618
shrinkage=0.03


Tree=103
num_leaves=8
num_cat=0
split_feature=39 6 8 18 138 6 47
split_gain=198.135 188.168 478.88 76.8992 23.138 18.4848 14.8647
threshold=0.6353112369706263 279173.25000000006 450117.00000000006 -4171.4999999999991 4.5000000000000009 157707.00000000003 0.085200000000000012
decision_type=10 2 8 2 10 2 10
left_child=1 3 -3 -1 5 -2 -6
right_child=4 2 -4 -5 6 -7 -8
leaf_value=-0.0097714510019564216 -0.023374315688085581 0.0092794277269118448 -0.0018412870156229791 -0.0017315924070662742 0.0028518333117340724 -0.009714623776739522 -0.016781876785726586
leaf_count=21474 2143 68439 124899 51443 3351 34982 780
internal_value=0 0.0284938 0.0889294 -0.126597 -0.308988 -0.350914 -0.0160051
internal_count=307511 266255 193338 72917 41256 37125 4131
shrinkage=0.03


Tree=104
num_leaves=8
num_cat=0
split_feature=40 7 8 18 41 145 80
split_gain=195.879 191.655 336.414 52.9988 29.195 23.7704 18.5982
threshold=0.69025979777882818 16503.750000000004 450117.00000000006 -4061.4999999999995 0.45879500081581598 0.078441698736029297 0.046400000000000004
decision_type=10 10 8 2 8 10 8
left_child=1 3 -3 -1 6 -6 -2
right_child=4 2 -4 -5 5 -7 -8
leaf_value=-0.0086376537640358679 0.01131236634818498 0.0079478407246799092 -0.0012709842610310069 -0.0019943208744917463 -0.011224441860919337 0.021787806989645369 -0.0051063666658834632
leaf_count=22887 995 70792 116135 43183 40203 516 12800
internal_value=0 0.0321256 0.0907971 -0.134546 -0.271882 -0.359137 -0.129387
internal_count=307511 252997 186927 66070 54514 40719 13795
shrinkage=0.03


Tree=105
num_leaves=8
num_cat=0
split_feature=124 86 6 8 41 41 128
split_gain=195.578 145.493 93.6082 166.274 92.5502 52.8272 34.8371
threshold=309.50000000000006 0.03595000000000001 270022.50000000006 450117.00000000006 0.41622340656827489 0.1150195781551531 38425.500000000007
decision_type=8 10 2 10 8 8 10
left_child=2 4 6 -4 -2 -3 -1
right_child=1 5 3 -5 -6 -7 -8
leaf_value=0.0070244333784287545 0.0094696096569657738 0.012590089304369398 0.0041804252695967423 -0.0050524621010405923 0.0025680770164132893 -0.0025051284671615392 -0.0087664973979766567
leaf_count=1730 23658 1500 38758 74532 67675 61306 38352
internal_value=0 0.0852148 -0.104293 -0.0460178 0.169491 -0.058489 -0.265852
internal_count=307511 154139 153372 113290 91333 62806 40082
shrinkage=0.03


Tree=106
num_leaves=8
num_cat=0
split_feature=11 93 15 141 11 39 42
split_gain=194.167 184.258 141.738 92.0367 72.1711 58.8495 33.041
threshold=1.0000000180025095e-35 -1160.4999999999998 -19997.499999999996 0.63467652968664112 1.5000000000000002 0.16924150485542261 0.074350000000000013
decision_type=2 10 2 10 2 8 10
left_child=1 3 -3 -1 5 -2 -6
right_child=4 2 -4 -5 6 -7 -8
leaf_value=-0.0059170730470384774 0.011113456548800298 -0.0031810720146171942 0.0054857351919197599 0.0022680646136945259 0.0054545868194326606 -0.0071795785754612722 -0.0061988737825527333
leaf_count=55652 1447 34274 102328 26137 9936 73416 4321
internal_value=0 0.0541934 0.12801 -0.0981931 -0.161667 -0.21711 0.0708975
internal_count=307511 218391 136602 81789 89120 74863 14257
shrinkage=0.03


Tree=107
num_leaves=8
num_cat=0
split_feature=41 1 19 39 138 141 41
split_gain=188.277 180.06 204.462 143.422 44.6013 28.9902 26.7266
threshold=0.14599244001433329 1.0000000180025095e-35 16.500000000000004 0.31124741408724893 5.5000000000000009 0.54212306700536494 0.056667959622386313
decision_type=8 2 8 8 10 8 10
left_child=4 2 -2 -3 5 -1 -6
right_child=1 3 -4 -5 6 -7 -8
leaf_value=1.2227137139071871e-05 -0.0031627880881299731 0.0068659860361730629 0.006719379643030288 -0.0040987823288686671 0.041084937408309027 0.010025908355149535 0.016226324834016658
leaf_count=2571 44870 12201 56209 183157 309 6589 1605
internal_value=0 -0.0271632 0.0915863 -0.101834 0.32344 0.248883 0.690144
internal_count=307511 296437 101079 195358 11074 9160 1914
shrinkage=0.03


Tree=108
num_leaves=8
num_cat=0
split_feature=16 10 39 138 19 141 39
split_gain=185.441 182.993 120.301 85.5169 63.9381 62.9825 35.1779
threshold=-2442.4999999999995 1.0000000180025095e-35 0.26096555073096406 4.5000000000000009 9.5000000000000018 0.72801334831147069 0.16924150485542261
decision_type=2 2 10 10 8 10 8
left_child=4 2 -2 -3 6 -6 -1
right_child=1 3 -4 -5 5 -7 -8
leaf_value=0.025066457664510412 0.0067888996666375058 -0.0028737343760940784 -0.00078498618477838866 0.0082973557194518828 -0.0054729999965165387 0.0023877543950261131 -0.012487202754354467
leaf_count=218 65220 106434 38769 8255 53582 17267 17766
internal_value=0 0.0525605 0.149552 -0.0621975 -0.159278 -0.108241 -0.387478
internal_count=307511 218678 103989 114689 88833 70849 17984
shrinkage=0.03


Tree=109
num_leaves=8
num_cat=0
split_feature=124 86 41 128 138 41 6
split_gain=182.742 118.21 98.3611 89.4394 81.089 49.2837 22.9478
threshold=486.50000000000006 0.03595000000000001 0.12334537001096685 129864.87000000001 3.5000000000000004 0.1150195781551531 258738.75000000003
decision_type=8 10 8 10 10 8 2
left_child=2 4 6 -4 -2 -3 -1
right_child=1 5 3 -5 -6 -7 -8
leaf_value=-0.0018674273920331874 0.0036313902990031074 0.012973968482435516 0.0031691879106766799 -0.0046739228475623827 0.012434868340164397 -0.0021158897472651271 0.012100701265852021
leaf_count=904 71460 1379 21956 139340 12548 56766 3158
internal_value=0 0.0892945 -0.0932088 -0.116404 0.16817 -0.0452948 0.299082
internal_count=307511 142153 165358 161296 84008 58145 4062
shrinkage=0.03


Tree=110
num_leaves=8
num_cat=0
split_feature=141 6 8 138 15 39 124
split_gain=180.965 150.509 356.871 104.33 67.6707 56.3048 38.5405
threshold=0.65173006518224963 279173.25000000006 450117.00000000006 4.5000000000000009 -19145.499999999996 0.15037451173191699 824.50000000000011
decision_type=8 2 8 10 2 8 10
left_child=3 4 -3 5 -2 -1 -5
right_child=1 2 -4 6 -6 -7 -8
leaf_value=0.01131610655980763 -0.010193349073734329 0.010348406342311935 -0.00084201139804705347 0.0011829715197841084 -0.00091664886603563052 -0.006001701191208993 0.013946710859978969
leaf_count=1466 15309 50770 92125 11433 39093 93768 3547
internal_value=0 0.0628839 0.126371 -0.130409 -0.0980516 -0.183409 0.142271
internal_count=307511 197297 142895 110214 54402 95234 14980
shrinkage=0.03


Tree=111
num_leaves=8
num_cat=0
split_feature=11 93 15 39 11 39 42
split_gain=180.729 167.815 125.651 86.4537 66.7663 52.6307 30.5562
threshold=1.0000000180025095e-35 -1160.4999999999998 -18067.499999999996 0.3370402537945128 1.5000000000000002 0.16924150485542261 0.074350000000000013
decision_type=2 10 2 8 2 8 10
left_child=1 3 -3 -1 5 -2 -6
right_child=4 2 -4 -5 6 -7 -8
